tree
version=v4
num_class=1
num_tree_per_iteration=1
label_index=0
max_feature_idx=34
objective=regression
feature_names=is_home neutral elo_team elo_opponent elo_diff elo_ratio elo_ratio_log team_has_history opp_has_history team_last5_scored team_last5_conceded team_last5_points opp_last5_scored opp_last5_conceded opp_last5_points team_last5_gd opp_last5_gd form_diff form_ratio form_ratio_log team_strength_proxy opp_strength_proxy attack_strength defense_pressure team_rest_days opp_rest_days rest_diff rest_advantage rest_diff_scaled rest_x_form form_x_elo h2h_weighted_win_rate h2h_weighted_gd tournament_weight is_major_tournament
feature_infos=[0:1] [0:1] [1397.7192907806705:2184.0657872460092] [1396.2731623953723:2193.5618296697803] [-744.33218614701968:669.55416467304667] [0.65669968302841453:1.4714939695115057] [0.50482748063524907:0.90482281375037077] [0:1] [0:1] [0:24] [0:18] [0:15] [0:20] [0:22] [0:15] [-15:22] [-17:20] [-15:15] [0:8] [-2.7725887222397811:2.7725887222397811] [0.93181286052044698:1.4560438581640061] [0.9308487749302482:1.4623745531131869] [0:12] [0:12] [0:60] [0:60] [-60:60] [0:1] [-2:2] [-23:28] [-12.36195873754113:22.433536850355761] [0:1] [-8:5.4621171572600105] [0.95999999999999996:2] [0:1]
tree_sizes=2624 2799 2790 2787 2780 2801 2784 2794 2798 2794 2822 2806 2791 2800 2809 2816 2813 2819 2801 2806 2805 2813 2816 2800 2785 2799 2790 2811 2810 2803 2799 2782 2834 2783 2801 2812 2839 2791 2819 2800 2827 2818 2830 2847 2842 2812 2846 2858 2855 2801 2818 2839 2804 2839 2812 2813 2824 2811 2851 2863 2856 2798 2803 2836 2825 2820 2821 2834 2815 2828 2830 2835 2837 2827 2834 2829 2821 2832 2810 2841 2850 2823 2824 2824 2808 2874 2849 2823 2845 2832 2861 2836 2834 2841 2848 2815 2867 2849 2815 2843 2862 2835 2829 2837 2810 2834 2838 2812 2830 2874 2872 2829 2839 2830 2835 2828 2847 2832 2829 2818 2836 2840 2839 2836 2865 2843 2824 2849 2857 2823 2878 2836 2840 2828 2856 2850 2849 2827 2854 2852 2845 2834 2830 2833 2837 2832 2865 2840 2820 2843 2865 2844 2838 2847 2825 2841 2821 2829 2811 2859 2852 2841 2824 2825 2821 2825 2843 2852 2840 2833 2832 2834 2837 2829 2835 2813 2826 2822 2851 2842 2839 2853 2813 2828 2856 2826 2822 2852 2808 2833 2824 2840 2824 2843 2836 2811 2828 2843 2829 2824 2847 2832 2867 2817 2820 2855 2807 2825 2823 2823 2826 2837 2818 2838 2819 2840 2834 2845 2830 2830 2820 2849 2828 2838 2834 2817 2843 2872 2855 2833 2856 2828 2836 2827 2820 2842 2836 2865 2843 2824 2839 2839 2831 2835 2849 2857 2858 2823 2846 2835 2822 2829 2844 2834 2837 2852 2850 2822 2831 2849 2802 2826 2817 2847 2810 2837 2824 2849 2828 2830 2839 2841 2819 2847 2817 2812 2829 2820 2834 2847 2839 2835 2842 2853 2845 2831 2838 2817 2839 2854 2829 2839 2860 2843 2848 2834 2844 2819 2855 2815 2827 2830 2834 2834 2835 2838 2820 2828 2857 2830 2843 2834 2835 2818 2826 2837 2843 2837 2828 2836 2836 2833 2833 2827 2838 2832 2828 2827 2850 2848 2829 2824 2838 2823 2827 2834 2836 2828 2850 2833 2852 2821 2848 2818 2830 2829 2831 2843 2836 2847 2847 2870 2829 2839 2844 2858 2814 2846 2848 2843 2846 2822 2838 2843 2820 2832 2824 2842 2851 2842 2832 2832 2827 2829 2836 2837 2868 2840 2830 2834 2837 2849 2838 2848 2835 2814 2820 2838 2863 2844 2831 2850 2821 2838 2801 2822 2831 2837 2844 2825 2861 2847 2828 2822 2855 2850 2820 2857 2846 2828 2868 2825 2845 2873 2836 2859 2829 2826 2827 2839 2843 2831 2821 2835 2877 2852 2826 2834 2838 2842 2832 2836 2837 2847 2856 2842 2840 2840 2856 2856 2838 2839 2869 2845 2861 2857 2860 2823 2854 2837 2842 2858 2857 2856 2860 2842 2862 2845 2846 2849 2844 2832 2817 2856 2853 2843 2862 2852 2828 2852 2872 2830 2818 2856 2837 2854 2839 2828 2835 2845 2849 2855 2837 2844 2845 2857 2853 2822 2852 2833 2869 2833 2861 2859 2828 2852 2844 2876 2876 2836 2864 2826 2858 2868 2826 2842 2845 2857 2848 2826 2839 2821 2821 2842 2834 2855 2846 2822 2876 2868 2835 2852 2863 2841 2835 2854 2859 2866 2865 2823 2842 2842 2866 2855 2835 2827 2841 2842 2828 2835 2867 2825 2848 2860 2856 2853 2843 2825 2828 2850 2846 2843 2840 2861 2840 2847 2833 2856 2880 2838 2857 2846 2881 2844 2849 2863 2833 2852 2853 2845 2877 2837 2854 2863 2842 2829 2839 2836 2837 2857 2858 2842 2861 2830 2830 2851 2842 2838 2841 2835 2850 2840 2845 2845 2862 2830 2829 2846 2866 2856 2850 2861 2843 2844 2859 2842 2857 2855 2852 2833 2833 2854 2838 2828 2838 2841 2860 2842 2852 2849 2851 2852 2840 2835 2845 2848 2837 2859 2867 2839 2820 2842 2846 2834 2852 2854 2856 2860 2828 2870 2854 2826 2839 2860 2846 2859 2858 2829 2880 2857 2856 2851 2837 2850 2836 2848 2842 2831 2840 2853 2851 2851 2855 2832 2870 2866 2838 2837 2840 2873 2851 2847 2856 2876 2870 2837 2839 2858 2838 2846 2863 2852 2842 2843 2855 2856 2837 2855 2847 2851 2858 2830 2840 2840 2828 2863 2847 2812 2831 2861 2860 2844 2849 2846 2863 2853 2831 2851 2858 2840 2855 2840 2865 2853 2844 2858 2848 2857 2840 2851 2852 2852 2832 2852 2864 2878 2868 2847 2876 2860 2864 2816 2824 2854 2852 2860 2863 2852 2856 2839 2857 2851 2858 2874 2841 2843 2861 2840 2860 2866 2850 2834 2836 2890 2835 2855 2859 2834 2848 2861 2842 2846 2865 2868 2866 2836 2867 2851 2851 2838 2854 2835 2850 2854 2867 2831 2854 2836 2857 2847 2863 2865 2856 2857 2856 2848 2866 2868 2862 2842 2866 2850 2840 2879 2853 2863 2847 2866 2839 2847 2875 2852 2847 2895 2870 2864 2853 2856 2856 2850 2847 2844 2857 2859 2855 2858 2868 2856 2866 2869 2881 2859 2895 2851 2854 2870 2843 2862 2873 2865 2866 2873 2880 2859 2852 2866 2882 2855 2858 2856 2868 2855 2880 2857 2894 2853 2812 2871 2844 2846 2895 2859 2825 2892 2827 2857 2846 2860 2856 2854 2863 2837 2859 2854 2840 2855 2875 2866 2867 2861 2853 2876 2863 2866 2871 2859 2873 2873 2886 2881 2853 2862 2869 2861 2853 2861 2860 2856 2865 2874 2855 2878 2867 2875 2865 2870 2858 2885 2865 2858 2865 2867 2881 2869 2888 2857 2878 2860 2860 2876 2876 2877 2852 2866 2845 2874 2860 2852 2866 2861 2860 2880 2866 2845 2872 2864 2871 2870 2861 2855 2873 2881 2884 2879 2847 2878 2881 2860 2865 2882 2853 2875 2840 2859 2877 2867 2866 2853 2868 2858 2862 2868 2864 2863 2863 2861 2858 2869 2859 2859 2848 2849 2887 2864 2869 2861 2889 2853 2891 2873 2855 2862 2872 2904 2879 2885 2870 2876 2868 2883 2886 2866 2869 2875 2850 2861 2875 2874 2863 2876 2855 2871 2877 2857 2877 2847 2864 2868 2862 2889

Tree=0
num_leaves=31
num_cat=0
split_feature=4 4 4 5 4 5 4 2 2 17 25 3 2 10 0 3 4 4 2 25 9 5 25 31 32 22 2 29 5 14
split_gain=665.687 170.894 160.005 26.6084 25.4963 20.5538 18.2529 16.6207 14.8587 13.7868 13.5282 15.3616 12.7298 12.4363 13.3432 12.3012 12.7576 12.0251 12.0131 10.5874 10.5715 10.682 10.5537 10.4907 12.3727 10.0409 9.21885 9.18423 13.88 18.0786
threshold=-54.7598184073696 -313.90339403345052 233.75067293496764 1.0587028212022227 -461.91138232577845 0.87940015675550698 341.57802789035003 1811.8545622827294 1698.69189705086 4.5000000000000009 21.500000000000004 2049.1806530931613 1984.1364057868652 11.500000000000002 1.0000000180025095e-35 1915.3835578541541 -327.0603553687875 -372.78343484636929 1730.0126741156112 7.5000000000000009 9.5000000000000018 0.85579765774666927 1.0000000180025095e-35 1.0000000180025095e-35 -1.6207725748035025 0.59411764705882364 1595.5285437097007 1.8166666666666669 0.90415798893752231 8.5000000000000018
decision_type=2 2 2 2 2 2 2 2 2 2 2 2 2 2 2 2 2 2 2 2 2 2 2 2 2 2 2 2 2 2
left_child=1 4 3 22 10 7 -4 8 9 -3 11 -1 -5 14 17 25 18 -6 23 -14 21 -10 -2 24 -17 -16 -25 -7 -29 -30
right_child=2 5 6 12 13 27 -8 -9 20 -11 -12 -13 19 -15 15 16 -18 -19 -20 -21 -22 -23 -24 26 -26 -27 -28 28 29 -31
leaf_value=1.2016104174653688 1.1472354165712992 1.1516729165712991 1.1207225854454714 1.1268615561224913 1.1591729165712992 1.1423862786479722 1.1116729165712991 1.178172916928927 1.1619729165712991 1.1742840282122293 1.1631729165712992 1.1746622782734268 1.125498497966648 1.1805922714100088 1.1286729165712992 1.1562979165712992 1.1819229168693224 1.1852317401007109 1.138390307875647 1.1440820074803901 1.1211729165712991 1.1389938120936871 1.1347079255479597 1.1659001892985719 1.1773238601024796 1.1543092802076629 1.1406729165712992 1.1346363312054455 1.1494114487470106 1.1781729171673456
leaf_weight=32 64 240 453 713 30 928 360 20 25 27 35 47 43 31 20 48 24 34 23 77 20 67 1114 22 53 44 32 41 109 24
leaf_count=32 64 240 453 713 30 928 360 20 25 27 35 47 43 31 20 48 24 34 23 77 20 67 1114 22 53 44 32 41 109 24
internal_value=1.13729 1.15065 1.12795 1.13249 1.16633 1.14568 1.11672 1.15152 1.15011 1.15396 1.1787 1.18558 1.12838 1.16242 1.16072 1.15776 1.16139 1.17302 1.15862 1.13742 1.14094 1.14524 1.13539 1.16162 1.16733 1.1463 1.15095 1.14357 1.1499 1.1546
internal_weight=4800 1976 2824 2011 475 1501 813 399 379 267 114 79 833 361 330 266 202 64 178 120 112 92 1178 155 101 64 54 1102 174 133
internal_count=4800 1976 2824 2011 475 1501 813 399 379 267 114 79 833 361 330 266 202 64 178 120 112 92 1178 155 101 64 54 1102 174 133
is_linear=0
shrinkage=1


Tree=1
num_leaves=31
num_cat=0
split_feature=4 4 5 5 5 5 5 2 2 0 10 30 3 4 9 4 4 5 25 24 29 29 2 25 19 13 14 5 4 31
split_gain=626.345 160.794 150.641 25.162 24.0715 19.3391 17.0113 15.6385 13.9805 13.1542 18.3035 12.9849 12.3913 12.7569 12.4871 11.7293 12.0098 9.97953 9.93 8.90316 12.4562 25.344 10.6708 10.1489 9.89201 10.3582 12.8766 12.3893 9.39163 10.7785
threshold=-54.7598184073696 -313.90339403345052 1.1416803770879045 1.0587028212022227 0.77113501396106077 0.87940015675550698 1.2424789289707283 1811.8545622827294 1698.69189705086 1.0000000180025095e-35 11.500000000000002 -2.988069654095431 1915.3835578541541 -327.0603553687875 3.5000000000000004 -492.13444252138351 -535.10375758070882 0.85579765774666927 1.0000000180025095e-35 27.500000000000004 1.7500000000000002 3.0166666666666671 1680.5647088522235 12.500000000000002 1.064115852924634 5.5000000000000009 11.500000000000002 0.94446908903210314 -135.12314512390216 0.25097006795813026
decision_type=2 2 2 2 2 2 2 2 2 2 2 2 2 2 2 2 2 2 2 2 2 2 2 2 2 2 2 2 2 2
left_child=1 4 3 18 15 7 -4 8 11 -6 12 -3 -11 14 -14 16 -1 -10 -2 20 24 -22 -23 -21 25 26 27 -7 29 -27
right_child=2 5 6 -5 9 19 -8 -9 17 10 -12 -13 13 -15 -16 -17 -18 -19 -20 23 21 22 -24 -25 -26 28 -28 -29 -30 -31
leaf_value=0.04530706060560126 0.0096454378170892589 0.03630994127346919 -0.017219632197714718 -0.0086513472475004526 0.036260063367731431 -0.0044626714431556169 -0.026811725039703721 0.039654812023043634 0.018344812512397765 0.0075196393118018186 0.044237403581882342 0.013994715510562248 0.040103589855134486 0.043292312622070311 0.016828714959761674 0.053794643776981454 0.021455785067457898 -0.0018768951060568412 -0.0025062288544550402 0.0070974514843853377 0.035933786217123273 -0.010529185142368077 0.017211159553665381 -0.0047804524248931555 -0.0052551950709741621 0.020103411806048823 0.022266873207229834 0.011762894404859378 0.0058979030610141108 0.0064180668314983104
leaf_weight=38 64 26 576 836 68 157 234 20 30 63 29 241 24 24 153 38 38 82 1114 131 40 24 26 128 61 128 26 58 236 87
leaf_count=38 64 26 576 836 68 157 234 20 30 63 29 241 24 24 153 38 38 82 1114 131 40 24 26 128 61 128 26 58 236 87
internal_value=7.00355e-11 0.0129553 -0.00906502 -0.00467088 0.028168 0.00814112 -0.0199907 0.0138003 0.0124359 0.0243729 0.0216141 0.0161677 0.0191289 0.0227676 0.0199846 0.0401858 0.0333814 0.00353963 -0.00184604 0.00609211 0.00758676 0.0181349 0.00389579 0.00122729 0.00632602 0.00734691 0.00232592 -8.55421e-05 0.01003 0.0145656
internal_weight=4800 1976 2824 2014 475 1501 810 399 379 361 293 267 264 201 177 114 76 112 1178 1102 843 90 50 259 753 692 241 215 451 215
internal_count=4800 1976 2824 2014 475 1501 810 399 379 361 293 267 264 201 177 114 76 112 1178 1102 843 90 50 259 753 692 241 215 451 215
is_linear=0
shrinkage=0.03


Tree=2
num_leaves=31
num_cat=0
split_feature=4 4 4 5 4 5 4 2 2 25 3 17 2 2 5 24 4 25 25 9 26 25 5 31 29 32 29 23 23 13
split_gain=589.328 151.291 141.964 23.4747 22.7564 18.1962 16.3655 14.7142 13.1543 12.7658 14.3682 12.2207 11.9472 10.9741 12.4998 13.1494 12.9526 10.9624 9.96172 9.9355 9.54927 11.7171 9.51101 9.05547 11.8669 10.3344 9.12823 8.73562 12.9946 11.7848
threshold=-54.7598184073696 -313.90339403345052 233.75067293496764 1.0587028212022227 -461.91138232577845 0.87940015675550698 341.57802789035003 1811.8545622827294 1698.69189705086 21.500000000000004 2049.1806530931613 4.5000000000000009 1984.1364057868652 1730.0126741156112 0.82674146905640089 20.500000000000004 -366.32085674073022 47.500000000000007 7.5000000000000009 9.5000000000000018 48.500000000000007 1.0000000180025095e-35 0.85579765774666927 0.16638387565714299 -1.0000000180025095e-35 -1.6207725748035025 0.61666666666666681 0.62019230769230782 0.80909090909090919 9.5000000000000018
decision_type=2 2 2 2 2 2 2 2 2 2 2 2 2 2 2 2 2 2 2 2 2 2 2 2 2 2 2 2 2 2
left_child=1 4 3 20 9 7 -4 8 11 10 -1 27 -5 14 16 -16 17 23 -14 22 21 -2 -10 25 -25 26 -6 -3 -29 -30
right_child=2 5 6 12 13 -7 -8 -9 19 -11 -12 -13 18 -15 15 -17 -18 -19 -20 -21 -22 -23 -24 24 -26 -27 -28 28 29 -31
leaf_value=0.061195385190658272 0.011845298471121951 -0.0005582645447815166 -0.015577550258561475 -0.0098446879330055907 0.010945587584918195 0.0059093450969203414 -0.024146552570164202 0.038465168260037895 0.023390468287467957 0.023925452368600029 0.03513314737284437 0.034818086425463357 -0.011179833261426105 0.0079169084131717679 0.045629844709913776 0.017075607350894383 0.013478665209196983 0.0072310332953929891 0.0068461709479232889 -0.015730544362217189 -0.01638764658799538 -0.0019956526990073573 0.0017073880780988664 0.0020579627752304076 0.033654922959597211 0.04411613324826414 0.038274233896623953 0.030744256728461806 0.016458542293735914 -0.0026016082575446679
leaf_weight=32 58 34 453 713 22 1102 360 20 25 35 47 27 43 36 47 21 94 21 77 20 39 1081 67 20 23 55 22 42 126 38
leaf_count=32 58 34 453 713 22 1102 360 20 25 35 47 27 43 36 47 21 94 21 77 20 39 1081 67 20 23 55 22 42 126 38
internal_value=7.26432e-11 0.0125666 -0.00879307 -0.00451628 0.0273229 0.00789689 -0.0193719 0.0133863 0.0120629 0.0390079 0.04569 0.0156827 -0.00837076 0.0236329 0.0253738 0.0368116 0.0223474 0.0274619 0.000386853 0.00343344 -0.00179065 -0.00129085 0.00759953 0.0304538 0.0189587 0.0354467 0.0246099 0.01353 0.0158552 0.0120422
internal_weight=4800 1976 2824 2011 475 1501 813 399 379 114 79 267 833 361 325 68 257 163 120 112 1178 1139 92 142 43 99 44 240 206 164
internal_count=4800 1976 2824 2011 475 1501 813 399 379 114 79 267 833 361 325 68 257 163 120 112 1178 1139 92 142 43 99 44 240 206 164
is_linear=0
shrinkage=0.03


Tree=3
num_leaves=31
num_cat=0
split_feature=4 4 4 4 4 5 4 2 2 2 25 4 30 10 0 4 3 2 17 25 25 23 26 9 22 5 26 24 29 29
split_gain=554.499 142.35 133.574 22.0911 21.4115 17.1208 15.3983 13.8446 12.6296 12.3769 12.0113 13.7767 11.5101 10.8037 11.4824 11.4422 10.7188 11.5031 12.327 10.5981 9.63006 9.45941 12.1702 9.34831 9.27389 8.94891 8.42142 8.37699 11.72 23.8462
threshold=-54.7598184073696 -313.90339403345052 233.75067293496764 86.029680924754885 -461.91138232577845 0.87940015675550698 341.57802789035003 1811.8545622827294 1984.1364057868652 1698.69189705086 21.500000000000004 -492.13444252138351 -2.988069654095431 11.500000000000002 1.0000000180025095e-35 -372.78343484636929 1915.3835578541541 1730.0126741156112 -6.4999999999999991 7.5000000000000009 1.0000000180025095e-35 0.27922077922077926 -13.499999999999998 9.5000000000000018 0.59411764705882364 0.85579765774666927 42.500000000000007 27.500000000000004 1.7500000000000002 3.0166666666666671
decision_type=2 2 2 2 2 2 2 2 2 2 2 2 2 2 2 2 2 2 2 2 2 2 2 2 2 2 2 2 2 2
left_child=1 4 3 20 10 7 -4 9 -5 12 11 -1 -3 14 15 -6 24 18 -18 -10 -2 -21 -23 25 -16 -11 -22 28 -7 -30
right_child=2 5 6 8 13 27 -8 -9 19 23 -12 -13 -14 -15 16 -17 17 -19 -20 21 26 22 -24 -25 -26 -27 -28 -29 29 -31
leaf_value=0.034778299266099925 0.010817996068434281 0.034176099713032065 -0.015110223690010855 -0.0091657749544043383 0.019237786069512368 0.0059589603430483919 -0.0234221559073776 0.037311213120818136 -0.010027165110740395 0.022688754701614376 0.023207689046859742 0.060769307813767728 0.013166325028011907 0.039856838430127793 -0.0090489719063043591 0.044657267253188519 0.0050917727500200275 0.00516412946485704 0.028280865662560169 -0.0073218058409361998 -0.0014661390509172821 -0.0056958806142210962 0.022849026983830987 -0.015258626695722342 0.015588762607764112 0.0016561662127722555 -0.014472467468139972 0.0010131911064667131 0.034678492460399862 0.0036016398310661315
leaf_weight=50 55 26 453 806 30 753 360 20 54 25 35 29 241 31 20 34 24 31 147 29 959 20 41 20 44 67 47 259 40 50
leaf_count=50 55 26 453 806 30 753 360 20 54 25 35 29 241 31 20 34 24 31 147 29 959 20 41 20 44 67 47 259 40 50
internal_value=3.67872e-11 0.0121896 -0.00852927 -0.00438079 0.0265032 0.00765998 -0.0187908 0.0129847 -0.00770371 0.011701 0.0378377 0.0443193 0.0152122 0.022924 0.0213333 0.0327419 0.0185884 0.0219781 0.0250263 0.000479814 -0.00140551 0.006784 0.01349 0.00333044 0.00788947 0.00737154 -0.00207379 0.00573206 0.00718187 0.0174136
internal_weight=4800 1976 2824 2011 475 1501 813 399 950 379 114 79 267 361 330 64 266 202 171 144 1061 90 61 112 64 92 1006 1102 843 90
internal_count=4800 1976 2824 2011 475 1501 813 399 950 379 114 79 267 361 330 64 266 202 171 144 1061 90 61 112 64 92 1006 1102 843 90
is_linear=0
shrinkage=0.03


Tree=4
num_leaves=31
num_cat=0
split_feature=4 4 5 4 5 5 5 2 2 30 0 10 17 3 4 9 3 2 3 25 14 9 5 24 3 23 23 13 26 10
split_gain=521.728 133.937 125.879 21.138 20.3287 16.1089 14.6016 13.0264 11.6454 11.5561 11.4679 16.1188 10.8324 10.8021 11.9276 11.7805 10.6574 9.33698 10.0622 9.6904 8.95316 8.79582 8.42002 8.313 9.78255 8.21934 12.2266 11.0883 9.52381 8.22857
threshold=-54.7598184073696 -313.90339403345052 1.1416803770879045 118.94828134498654 0.77113501396106077 0.87940015675550698 1.2424789289707283 1811.8545622827294 1698.69189705086 1.9492388221241435 1.0000000180025095e-35 11.500000000000002 4.5000000000000009 1915.3835578541541 -327.0603553687875 3.5000000000000004 1995.040011335004 1984.1364057868652 1748.1594553198729 7.5000000000000009 10.500000000000002 9.5000000000000018 0.85579765774666927 12.500000000000002 1605.4327004176171 0.62019230769230782 0.80909090909090919 9.5000000000000018 5.5000000000000009 11.500000000000002
decision_type=2 2 2 2 2 2 2 2 2 2 2 2 2 2 2 2 2 2 2 2 2 2 2 2 2 2 2 2 2 2
left_child=1 4 3 9 16 7 -4 8 12 -2 -6 13 25 -12 15 -15 -1 18 23 -19 -18 22 -10 24 -5 -3 28 29 -27 -28
right_child=2 5 6 17 10 -7 -8 -9 21 -11 11 -13 -14 14 -16 -17 20 19 -20 -21 -22 -23 -24 -25 -26 26 27 -29 -30 -31
leaf_value=0.055509876405650915 -0.0014176349270056529 -0.00093650608378298146 -0.015693524530700716 -0.011818098172545434 0.033319666109540888 0.0055601027918922062 -0.02458031289327221 0.036191876515746117 0.022008091378211973 -0.017061425372958183 0.0064732158893630615 0.040874974953717197 0.0327716052532196 0.037560309339314694 0.04055627591907978 0.014953537834625616 0.026706828882589059 -0.011663049227661556 -0.019105025190980202 0.004346451448357623 0.048019758872687814 -0.0148008692599833 0.0016064809196030913 -0.012193778622367603 0.000584232445495824 0.043712653943470542 0.012141225474221366 -0.0029185492741434197 0.015141225457191466 0.03271265434367316
leaf_weight=22 1245 34 576 95 68 1102 234 20 25 44 63 29 27 24 24 153 68 54 93 92 24 20 67 247 144 21 105 38 21 21
leaf_count=22 1245 34 576 95 68 1102 234 20 25 44 63 29 27 24 24 153 68 54 93 92 24 20 67 247 144 21 105 38 21 21
internal_value=-1.56718e-10 0.0118239 -0.0082734 -0.00425661 0.0257081 0.00743018 -0.0182608 0.0125952 0.01135 -0.00195164 0.0222205 0.0196446 0.0147559 0.0173125 0.0207099 0.0180189 0.0367522 -0.00835469 -0.0100643 -0.00157487 0.0322667 0.00323053 0.0071504 -0.00833427 -0.00434556 0.0127291 0.0149846 0.0112859 0.0294269 0.0155698
internal_weight=4800 1976 2824 2014 475 1501 810 399 379 1289 361 293 267 264 201 177 114 725 579 146 92 112 92 486 239 240 206 164 42 126
internal_count=4800 1976 2824 2014 475 1501 810 399 379 1289 361 293 267 264 201 177 114 725 579 146 92 112 92 486 239 240 206 164 42 126
is_linear=0
shrinkage=0.03


Tree=5
num_leaves=31
num_cat=0
split_feature=4 4 4 4 5 5 4 2 2 2 30 0 10 4 4 30 3 4 9 2 25 9 23 26 25 24 9 22 30 31
split_gain=490.894 126.021 118.661 19.6968 19.1273 15.1569 13.9217 12.2565 11.4121 10.9571 10.8731 10.7901 15.1662 10.2207 11.4998 10.2028 10.1637 11.2227 11.0843 9.93579 8.49429 8.27599 8.04094 11.9806 8.03067 11.1347 9.51152 11.3086 11.9206 8.33193
threshold=-54.7598184073696 -313.90339403345052 233.75067293496764 118.94828134498654 0.77113501396106077 0.87940015675550698 426.3751347389653 1811.8545622827294 1984.1364057868652 1698.69189705086 1.9492388221241435 1.0000000180025095e-35 11.500000000000002 -492.13444252138351 -535.10375758070882 -2.988069654095431 1915.3835578541541 -327.0603553687875 3.5000000000000004 1930.0799583022988 7.5000000000000009 9.5000000000000018 0.27922077922077926 -8.4999999999999982 15.500000000000002 28.500000000000004 7.5000000000000009 1.8452380952380951 -2.7797348088688612 0.50421026348595743
decision_type=2 2 2 2 2 2 2 2 2 2 2 2 2 2 2 2 2 2 2 2 2 2 2 2 2 2 2 2 2 2
left_child=1 4 3 10 13 7 -4 9 19 15 -2 -6 16 14 -1 -3 -13 18 -18 -5 -10 -11 -22 -24 26 -26 -7 28 -28 -30
right_child=2 5 6 8 11 24 -8 -9 20 21 -12 12 -14 -15 -16 -17 17 -19 -20 -21 22 -23 23 -25 25 -27 27 -29 29 -31
leaf_value=0.040967618870107747 -0.0013751058556947364 0.032167668205041154 -0.015738571925123099 -0.008118283086223527 0.032320076547124807 0.0044895679061362484 -0.025566549038652468 0.03510612036287785 -0.01037645595414298 0.0069358850302903546 -0.016549582474611024 0.0062790190818763905 0.039648725904267414 0.048353176916900428 0.01762823534639258 0.012386967976929241 0.036433500368148082 0.039339588768780236 0.014504931539881463 -0.018826372568374092 -0.0079290433228015895 -0.014356842555105685 -0.0044317145006997245 0.024915830444905064 0.0048932689779692074 -0.0062793680796256433 -0.0066001202389597896 0.00099798976916533246 0.014668061702835316 0.030954906642436979
leaf_weight=38 1245 26 651 512 68 379 162 20 42 92 44 63 29 38 38 241 24 24 153 92 24 20 21 31 352 104 20 65 147 35
leaf_count=38 1245 26 651 512 68 379 162 20 42 92 44 63 29 38 38 241 24 24 153 92 24 20 21 31 352 104 20 65 147 35
internal_value=-8.9698e-12 0.0114692 -0.00802519 -0.00411515 0.0249369 0.00720728 -0.0176969 0.0122173 -0.00808223 0.0110095 -0.00189309 0.0215539 0.0190553 0.0356497 0.0292979 0.0143132 0.0167931 0.0200886 0.0174783 -0.00974932 0.000450988 0.00313361 0.00643457 0.0130639 0.0053933 0.00234512 0.00754495 0.011882 0.0153843 0.0178001
internal_weight=4800 1976 2824 2011 475 1501 813 399 722 379 1289 361 293 114 76 267 264 201 177 604 118 112 76 52 1102 456 646 267 202 182
internal_count=4800 1976 2824 2011 475 1501 813 399 722 379 1289 361 293 114 76 267 264 201 177 604 118 112 76 52 1102 456 646 267 202 182
is_linear=0
shrinkage=0.03


Tree=6
num_leaves=31
num_cat=0
split_feature=4 4 5 4 4 5 4 2 25 3 2 30 2 5 24 4 25 12 22 9 2 3 25 31 29 32 29 29 5 14
split_gain=461.882 118.573 111.687 18.641 18.1328 14.2611 13.1802 11.5322 11.2951 12.934 10.4207 10.2405 9.94209 10.9814 12.1942 11.3613 10.2052 8.95508 13.3994 9.18049 8.32343 9.1058 8.62616 8.298 11.1288 9.1044 8.65396 7.95353 12.7572 16.4103
threshold=-54.7598184073696 -313.90339403345052 1.1416803770879045 118.94828134498654 -461.91138232577845 0.87940015675550698 341.57802789035003 1811.8545622827294 21.500000000000004 2049.1806530931613 1759.1142254158942 2.0036116349982827 1730.0126741156112 0.82674146905640089 20.500000000000004 -366.32085674073022 47.500000000000007 3.5000000000000004 0.57518796992481214 9.5000000000000018 1984.1364057868652 1748.1594553198729 7.5000000000000009 0.16638387565714299 -1.0000000180025095e-35 -1.6207725748035025 0.61666666666666681 1.8166666666666669 0.90415798893752231 8.5000000000000018
decision_type=2 2 2 2 2 2 2 2 2 2 2 2 2 2 2 2 2 2 2 2 2 2 2 2 2 2 2 2 2 2
left_child=1 4 3 11 8 7 -4 10 9 -1 17 -2 13 15 -15 16 23 18 -3 -19 21 -5 -22 25 -25 26 -6 -7 -29 -30
right_child=2 5 6 20 12 27 -8 -9 -10 -11 -12 -13 -14 14 -16 -17 -18 19 -20 -21 22 -23 -24 24 -26 -27 -28 28 29 -31
leaf_value=0.05561597429215908 -0.0013895669280056748 0.0050719705011163432 -0.013769206068168083 -0.0078176679434599702 0.0086954373324459253 0.0041279020849294195 -0.021470558406959751 0.034052937135100367 0.020432254084518976 0.030888675444937768 -0.0069335086271166803 -0.017841855174728801 0.0059361215184132255 0.041764426307475309 0.014266858803374425 0.011409192904829979 0.0049856977803366528 0.012030712065247981 0.036108638913400708 -0.004122568437208732 -0.010966116531441609 -0.01806380058608709 0.004138706357258817 2.1469362080097198e-05 0.030620054848816081 0.040308731236241083 0.035304676782001151 -0.0035131218447917844 0.010682731868203626 0.038085035830736157
leaf_weight=32 1254 21 450 486 22 928 360 20 35 47 28 35 36 47 21 94 21 263 31 36 54 93 92 20 23 55 22 41 109 24
leaf_count=32 1254 21 450 486 22 928 360 20 35 47 28 35 36 47 21 94 21 263 31 36 54 93 92 20 23 55 22 41 109 24
internal_value=1.4525e-10 0.0111251 -0.00778444 -0.00400085 0.0241888 0.00699106 -0.017192 0.0118508 0.0346194 0.0409048 0.0106792 -0.00183629 0.0208949 0.0225519 0.0332725 0.0197153 0.0245054 0.0120842 0.0235746 0.0100858 -0.00784928 -0.00946342 -0.00144801 0.0273921 0.0163882 0.0321715 0.0220001 0.0052315 0.0111174 0.0156275
internal_weight=4800 1976 2824 2014 475 1501 810 399 114 79 379 1289 361 325 68 257 163 351 52 299 725 579 146 142 43 99 44 1102 174 133
internal_count=4800 1976 2824 2014 475 1501 810 399 114 79 379 1289 361 325 68 257 163 351 52 299 725 579 146 142 43 99 44 1102 174 133
is_linear=0
shrinkage=0.03


Tree=7
num_leaves=31
num_cat=0
split_feature=4 4 4 4 4 5 4 2 25 4 2 15 2 30 2 5 24 4 25 25 15 26 5 31 29 32 29 24 14 5
split_gain=434.585 111.566 105.369 17.3933 17.0612 13.4183 12.6128 10.8506 10.6628 16.6401 10.3127 10.2347 9.92884 9.4961 9.35452 10.3324 11.4735 10.6898 9.60205 9.04326 8.24303 7.93979 7.89729 7.80759 10.4711 8.56633 8.14252 7.64972 11.3711 11.8019
threshold=-54.7598184073696 -313.90339403345052 233.75067293496764 86.029680924754885 -461.91138232577845 0.87940015675550698 426.3751347389653 1811.8545622827294 15.500000000000002 -492.13444252138351 1984.1364057868652 10.500000000000002 1698.69189705086 -2.988069654095431 1730.0126741156112 0.82674146905640089 20.500000000000004 -366.32085674073022 47.500000000000007 1.0000000180025095e-35 8.5000000000000018 42.500000000000007 0.85579765774666927 0.16638387565714299 -1.0000000180025095e-35 -1.6207725748035025 0.61666666666666681 27.500000000000004 11.500000000000002 0.96391120431555288
decision_type=2 2 2 2 2 2 2 2 2 2 2 2 2 2 2 2 2 2 2 2 2 2 2 2 2 2 2 2 2 2
left_child=1 4 3 19 8 7 -4 12 9 -1 -5 20 13 -3 15 17 -17 18 23 -2 -12 -21 -14 25 -25 26 -6 28 29 -7
right_child=2 5 6 10 14 27 -8 -9 -10 -11 11 -13 22 -15 -16 16 -18 -19 -20 21 -22 -23 -24 24 -26 -27 -28 -29 -30 -31
leaf_value=0.029450633930308476 0.010618925571441649 0.030728710007209045 -0.014800839245594041 -0.0081360320768621812 0.0084345738725228742 0.004708778575062752 -0.024155436917035669 0.033031349211931231 0.022425541663947314 0.059988770416149723 0.000172153937908792 -0.017764491704495056 0.016031985864043235 0.011645374707413907 0.0057580377409855521 0.040511494532544559 0.013838853282587868 0.011066917106509208 0.0048361268213817045 -0.0012838924414360735 0.019808730641379949 -0.013912824119659179 -0.0019568016752600668 2.0824894309043882e-05 0.029701453576917235 0.039099469184875488 0.03424553689631548 0.00056517397805070323 0.020335890305042268 0.020869812805985294
leaf_weight=42 55 26 651 806 22 750 162 20 46 26 97 23 30 241 36 47 21 94 21 959 24 47 82 20 23 55 22 259 50 43
leaf_count=42 55 26 651 806 22 750 162 20 46 26 97 23 30 241 36 47 21 94 21 959 24 47 82 20 23 55 22 259 50 43
internal_value=-6.71251e-11 0.0107914 -0.00755091 -0.00386635 0.0234631 0.00678133 -0.0166649 0.0114953 0.0335808 0.041127 -0.00681486 0.000580036 0.0103588 0.0135037 0.0202681 0.0218753 0.0322744 0.0191239 0.0237702 -0.00122631 0.00406701 -0.00187391 0.00286162 0.0265703 0.0158965 0.0312064 0.0213401 0.00507456 0.00646 0.0055851
internal_weight=4800 1976 2824 2011 475 1501 813 399 114 68 950 144 379 267 361 325 68 257 163 1061 121 1006 112 142 43 99 44 1102 843 793
internal_count=4800 1976 2824 2011 475 1501 813 399 114 68 950 144 379 267 361 325 68 257 163 1061 121 1006 112 142 43 99 44 1102 843 793
is_linear=0
shrinkage=0.03


Tree=8
num_leaves=31
num_cat=0
split_feature=4 4 4 4 5 5 4 2 0 10 2 30 2 4 3 4 9 14 24 2 12 22 9 4 25 24 9 22 30 31
split_gain=408.901 104.972 99.1419 16.567 16.1517 12.6253 12.0159 10.2094 9.69918 13.8743 9.63287 9.53926 9.5375 9.3306 9.27175 10.2551 10.3463 9.03731 10.8026 9.01357 8.29716 12.5375 8.62898 8.05493 7.59755 10.144 8.83954 10.6942 11.0849 7.82906
threshold=-54.7598184073696 -313.90339403345052 233.75067293496764 118.94828134498654 0.77113501396106077 0.87940015675550698 341.57802789035003 1811.8545622827294 1.0000000180025095e-35 11.500000000000002 1984.1364057868652 1.9492388221241435 1759.1142254158942 -475.45107692971561 1915.3835578541541 -327.0603553687875 3.5000000000000004 10.500000000000002 10.500000000000002 1930.0799583022988 3.5000000000000004 0.57518796992481214 9.5000000000000018 -366.32085674073022 15.500000000000002 28.500000000000004 7.5000000000000009 1.8452380952380951 -2.7797348088688612 0.50421026348595743
decision_type=2 2 2 2 2 2 2 2 2 2 2 2 2 2 2 2 2 2 2 2 2 2 2 2 2 2 2 2 2 2
left_child=1 4 3 11 13 7 -4 12 23 14 19 -2 20 17 -10 16 -16 18 -1 -5 21 -3 -22 -6 26 -26 -7 28 -28 -30
right_child=2 5 6 10 8 24 -8 -9 9 -11 -12 -13 -14 -15 15 -17 -18 -19 -20 -21 22 -23 -24 -25 25 -27 27 -29 29 -31
leaf_value=0.035218176433018271 -0.0012273085411772669 0.0045547897262232647 -0.012913609619147531 -0.0073667597715393641 0.020954322081345778 0.0040696667319551939 -0.020256129505423208 0.03204040798544884 0.0050757191223757608 0.03697834419793096 0.00045122455426697001 -0.015440580381757834 -0.0068017159522111926 0.051210382238030434 0.034083559624850747 0.036667790971696375 0.012897527498357436 0.044988034665584563 0.011812098423639932 -0.017565797289185548 0.01135419581099608 0.034576685890074697 -0.0043063661331931751 0.041831666128388761 0.0043896231796084475 -0.0062743848189711566 -0.0065978370532393457 0.00061196225193830634 0.013895549898853107 0.029683252675192697
leaf_weight=35 1245 21 453 512 39 379 360 20 63 29 118 44 28 20 24 24 153 23 36 92 263 31 36 29 352 104 20 65 147 35
leaf_count=35 1245 21 453 512 39 379 360 20 63 29 118 44 28 20 24 24 153 23 36 92 263 31 36 29 352 104 20 65 147 35
internal_value=-2.22481e-10 0.0104676 -0.00732438 -0.00375036 0.0227592 0.00657789 -0.0161649 0.0111504 0.0196505 0.0172816 -0.00738863 -0.00171248 0.010048 0.0326035 0.0151179 0.0182654 0.0157702 0.0286446 0.0233503 -0.00892026 0.0113922 0.0224525 0.00946864 0.0298579 0.00492232 0.00195748 0.00701515 0.0111962 0.014602 0.0169316
internal_weight=4800 1976 2824 2011 475 1501 813 399 361 293 722 1289 379 114 264 201 177 94 71 604 351 52 299 68 1102 456 646 267 202 182
internal_count=4800 1976 2824 2011 475 1501 813 399 361 293 722 1289 379 114 264 201 177 94 71 604 351 52 299 68 1102 456 646 267 202 182
is_linear=0
shrinkage=0.03


Tree=9
num_leaves=31
num_cat=0
split_feature=4 4 5 4 4 5 4 26 24 5 2 2 30 2 5 24 4 25 12 22 9 29 5 14 29 13 5 22 4 12
split_gain=384.735 98.7684 93.3881 15.6573 15.2803 11.8791 11.3934 10.2814 17.1203 10.6432 9.60598 9.02512 9.01237 8.87585 9.36838 10.7384 9.90158 9.01964 8.27365 11.3626 7.8946 7.48308 11.8599 15.2965 10.2117 9.97081 12.6948 12.5332 10.6382 9.8099
threshold=-54.7598184073696 -313.90339403345052 1.1416803770879045 118.94828134498654 -461.91138232577845 0.87940015675550698 426.3751347389653 -10.499999999999998 17.500000000000004 0.7493023644156952 1811.8545622827294 1762.2301228396984 2.0036116349982827 1730.0126741156112 0.82674146905640089 20.500000000000004 -366.32085674073022 47.500000000000007 3.5000000000000004 0.59411764705882364 9.5000000000000018 1.8166666666666669 0.90415798893752231 8.5000000000000018 1.1166666666666669 5.5000000000000009 0.96237375249310608 0.62019230769230782 -103.92484390939147 3.5000000000000004
decision_type=2 2 2 2 2 2 2 2 2 2 2 2 2 2 2 2 2 2 2 2 2 2 2 2 2 2 2 2 2 2
left_child=1 4 3 12 7 10 -4 -1 9 -9 11 18 -2 14 16 -16 17 -6 19 -3 -20 24 -23 29 25 26 -7 -27 -29 -24
right_child=2 5 6 -5 13 21 -8 8 -10 -11 -12 -13 -14 -15 15 -17 -18 -19 20 -21 -22 22 23 -25 -26 27 -28 28 -30 -31
leaf_value=0.018390029196937881 -0.0012420208684422753 0.0059942856431007387 -0.013928089981823681 -0.0071718875209062262 0.025183980497466004 -0.0015060095402011035 -0.022823090550524217 0.0365345577960429 0.022193540479455674 0.066458112224936486 0.031079195916652681 -0.0084667380996372374 -0.016676230192716635 0.0049188292026519772 0.03848927936021318 0.012685251448835644 0.01024417554761501 0.0041192511575562606 0.010788648575544357 0.03402111634612083 -0.0041771755181252961 -0.0036228022015676268 0.025742713858683902 0.036514425463974473 -0.0065416841637343159 0.0020381491523115865 0.022696534267493657 0.015149451774447712 0.0033301836882646267 0.0048940653989954699
leaf_weight=36 1254 23 648 725 142 274 162 23 35 20 20 23 35 36 47 21 94 21 267 30 36 41 27 24 80 248 21 201 104 82
leaf_count=36 1254 23 648 725 142 274 162 23 35 20 20 23 35 36 47 21 94 21 267 30 36 41 27 24 80 248 21 201 104 82
internal_value=4.9468e-11 0.0101536 -0.00710465 -0.00364488 0.0220765 0.00638055 -0.0157071 0.0316515 0.0377722 0.0504525 0.0108159 0.00974659 -0.0016611 0.0190528 0.0206184 0.0305204 0.0179984 0.0224701 0.0109233 0.0218585 0.00901053 0.00477465 0.0104838 0.0148324 0.00370419 0.00467078 0.000216883 0.00704673 0.0111193 0.0100584
internal_weight=4800 1976 2824 2014 475 1501 810 114 78 43 399 379 1289 361 325 68 257 163 356 53 303 1102 174 133 928 848 295 553 305 109
internal_count=4800 1976 2824 2014 475 1501 810 114 78 43 399 379 1289 361 325 68 257 163 356 53 303 1102 174 133 928 848 295 553 305 109
is_linear=0
shrinkage=0.03


Tree=10
num_leaves=31
num_cat=0
split_feature=5 4 4 5 4 5 4 24 2 2 0 10 3 14 13 30 29 19 12 11 26 32 2 2 30 3 4 9 2 23
split_gain=362.063 97.8981 83.1918 14.4434 12.9857 12.4626 10.8734 10.7376 9.03949 9.03826 8.99612 13.0032 8.78814 8.69877 11.4756 9.81538 11.4682 9.16066 9.90349 12.1806 9.99966 8.74765 8.71015 8.6838 8.73665 8.53201 9.55175 9.69944 8.50532 8.39515
threshold=0.97562021912886576 -313.90339403345052 233.75067293496764 0.77113501396106077 118.94828134498654 0.87940015675550698 341.57802789035003 27.500000000000004 1984.1364057868652 1811.8545622827294 1.0000000180025095e-35 11.500000000000002 1995.040011335004 11.500000000000002 5.5000000000000009 1.1466188331463683 0.48333333333333339 0.99621508234510325 9.5000000000000018 8.5000000000000018 -10.499999999999998 -1.1947211415795034 1785.3400094930951 1698.69189705086 -2.988069654095431 1915.3835578541541 -327.0603553687875 3.5000000000000004 1930.0799583022988 2.5500000000000003
decision_type=2 2 2 2 2 2 2 2 2 2 2 2 2 2 2 2 2 2 2 2 2 2 2 2 2 2 2 2 2 2
left_child=1 3 4 12 -2 9 -4 13 28 23 -5 25 -1 14 15 16 21 18 19 20 -16 -7 -21 24 -3 -12 27 -27 -6 -22
right_child=2 5 6 10 8 7 -8 -9 -10 -11 11 -13 -14 -15 17 -17 -18 -19 -20 22 29 -23 -24 -25 -26 26 -28 -29 -30 -31
leaf_value=0.047756653116507966 -0.0018451032684016131 0.028917194490249341 -0.012125807486795233 0.028304916650933376 -0.0069163490858045401 0.013757899560034275 -0.019110520274688802 -0.00072532076913286265 0.00065284440641180934 0.030146819964051247 0.0044650694727897643 0.035261452280241863 0.026650118967113286 0.017633161586191919 -0.00033680540110383713 -0.015424833365462041 0.017106845553376174 -0.0014448252286803857 -0.0035811027928310279 0.023130009231036121 0.0087542018855827439 -0.003987959852814674 0.0058940997900995048 0.0024428201709607881 0.010612847788947251 0.032441140040755267 0.034877804778516291 0.011928111624483968 -0.01682366645925314 0.026540122777223583
leaf_weight=22 1194 26 453 68 512 30 360 284 118 20 63 29 92 54 105 33 38 89 51 92 207 150 37 112 241 24 24 153 92 27
leaf_count=22 1194 26 453 68 512 30 360 284 118 20 63 29 92 54 105 33 38 89 51 92 207 150 37 112 241 24 24 153 92 27
internal_value=-1.28316e-10 0.00945811 -0.00717763 0.0214142 -0.00376564 0.00589976 -0.0152187 0.00436921 -0.00694171 0.0104914 0.0184744 0.016193 0.0307233 0.00595392 0.00521972 -0.000176958 0.00213121 0.00744762 0.00897253 0.0103406 0.00735498 -0.00103032 0.0181864 0.00945419 0.0123953 0.0140983 0.0171177 0.0147095 -0.00842541 0.0108064
internal_weight=4800 2071 2729 475 1916 1596 813 1197 722 399 361 293 114 913 859 251 218 608 519 468 339 180 129 379 267 264 201 177 604 234
internal_count=4800 2071 2729 475 1916 1596 813 1197 722 399 361 293 114 913 859 251 218 608 519 468 339 180 129 379 267 264 201 177 604 234
is_linear=0
shrinkage=0.03


Tree=11
num_leaves=31
num_cat=0
split_feature=4 4 5 4 4 5 4 26 24 5 2 25 2 32 13 30 18 5 10 2 12 22 10 13 31 9 2 9 29 5
split_gain=341.021 87.3476 82.7375 13.8752 13.6364 10.4777 10.3403 9.65127 16.0124 9.94545 8.5041 8.48175 8.40913 8.71064 11.9138 10.599 11.0923 9.46805 9.36451 8.29074 7.65636 10.6206 7.49631 9.7909 9.10803 7.48647 11.3996 7.43251 7.18202 11.1217
threshold=-54.7598184073696 -313.90339403345052 1.1416803770879045 86.029680924754885 -461.91138232577845 0.87940015675550698 426.3751347389653 -10.499999999999998 17.500000000000004 0.7493023644156952 1811.8545622827294 1.0000000180025095e-35 1730.0126741156112 -1.9231834561256085 5.5000000000000009 5.4692008276113944 0.90454545454545465 0.81648524354544338 10.500000000000002 1762.2301228396984 3.5000000000000004 0.59411764705882364 5.5000000000000009 8.5000000000000018 0.30464223182879679 13.500000000000002 1984.1364057868652 9.5000000000000018 1.8166666666666669 0.90415798893752231
decision_type=2 2 2 2 2 2 2 2 2 2 2 2 2 2 2 2 2 2 2 2 2 2 2 2 2 2 2 2 2 2
left_child=1 4 3 11 7 10 -4 -1 9 -9 19 -2 13 -6 15 16 17 -15 -16 20 21 -3 24 -24 -13 26 -5 -22 -7 -30
right_child=2 5 6 25 12 28 -8 8 -10 -11 -12 22 -14 14 18 -17 -18 -19 -20 -21 27 -23 23 -25 -26 -27 -28 -29 29 -31
leaf_value=0.016968469445904095 0.010399188458919526 0.005480290858641915 -0.013091128783697193 -0.0068295257131978492 0.011441485824879636 0.0034542639564787004 -0.021565081104636192 0.034556427014910657 0.020681103638240269 0.063482449337840086 0.029242415428161622 -0.0073845422213684904 0.0041579981893301006 0.031653597503900524 0.012010395178198813 0.014629815701515444 0.018148129694163798 0.056293782663345331 0.032877826951444152 -0.0082860202876769984 0.010183649034647458 0.032576513975858687 0.0053094044048339123 -0.0034115058928728104 0.00050288533577613065 -0.015887685336100941 0.0024180024846658841 -0.0043375799432396889 -0.003564397432818645 0.014307200294688231
leaf_weight=36 55 23 648 745 89 928 162 23 35 20 20 316 36 32 100 31 24 25 24 23 267 30 240 224 226 65 143 36 41 133
leaf_count=36 55 23 648 745 89 928 162 23 35 20 20 316 36 32 100 31 24 25 24 23 267 30 240 224 226 65 143 36 41 133
internal_value=5.935e-12 0.00955938 -0.00668886 -0.00343235 0.0207717 0.00601117 -0.0147859 0.0298171 0.0357472 0.0480104 0.0101767 -0.00107241 0.0179153 0.0194392 0.0224553 0.0295477 0.035257 0.0424607 0.0160493 0.00917057 0.0102984 0.0208178 -0.00169959 0.00109931 -0.00409569 -0.00605973 -0.00534034 0.00845835 0.00450297 0.0100961
internal_weight=4800 1976 2824 2014 475 1501 810 114 78 43 399 1061 361 325 236 112 81 57 124 379 356 53 1006 464 542 953 888 303 1102 174
internal_count=4800 1976 2824 2014 475 1501 810 114 78 43 399 1061 361 325 236 112 81 57 124 379 356 53 1006 464 542 953 888 303 1102 174
is_linear=0
shrinkage=0.03


Tree=12
num_leaves=31
num_cat=0
split_feature=4 4 4 4 5 5 5 4 0 10 14 24 30 2 2 3 4 9 2 2 30 4 25 23 26 5 26 26 3 24
split_gain=320.866 82.1854 78.0242 13.0048 12.9202 9.88321 9.85844 8.45283 8.4505 11.9555 8.42795 9.58342 8.31053 8.09209 8.00151 7.99396 8.94998 8.99996 7.98381 7.88617 8.12583 7.74486 7.46961 7.54232 11.3126 7.45591 7.31946 8.86028 16.688 13.449
threshold=-54.7598184073696 -313.90339403345052 233.75067293496764 118.94828134498654 0.77113501396106077 1.2077314829259154 0.87940015675550698 -475.45107692971561 1.0000000180025095e-35 11.500000000000002 10.500000000000002 10.500000000000002 2.0036116349982827 1984.1364057868652 1811.8545622827294 1915.3835578541541 -327.0603553687875 3.5000000000000004 1930.0799583022988 1698.69189705086 -2.988069654095431 -366.32085674073022 7.5000000000000009 0.27922077922077926 -8.4999999999999982 0.85579765774666927 48.500000000000007 29.500000000000004 1754.876268601864 45.500000000000007
decision_type=2 2 2 2 2 2 2 2 2 2 2 2 2 2 2 2 2 2 2 2 2 2 2 2 2 2 2 2 2 2
left_child=1 4 3 12 7 -4 14 10 21 15 11 -1 26 18 19 -10 17 -17 -5 20 -3 -6 -15 -24 -25 -21 27 -2 29 -29
right_child=2 6 5 13 8 -7 -8 -9 9 -11 -12 -13 -14 22 -16 16 -18 -19 -20 25 -22 -23 23 24 -26 -27 -28 28 -30 -31
leaf_value=0.03125052002498082 -0.00143988703216627 0.027632095779363923 -0.011247496226866698 -0.0064828031130946323 0.018165365159511566 -0.017879199480253551 0.0043678820002722649 0.046663212351500984 0.0038239437767437529 0.033441070688181911 0.040967896606611168 0.0092047384877999624 -0.015930659885551514 -0.009508906938135624 0.028365142732858659 0.030820343680679797 0.033262674994766712 0.011060802241166432 -0.016081579587240095 0.015010856561362744 0.0099792185462856675 0.038636932938263327 -0.0076555689610540868 -0.0043248251080512997 0.024192871071638599 -0.0024680010660937646 -0.013576273440224367 0.033688450415751761 -0.0055399070206013585 0.0030841005500406023
leaf_weight=35 1117 26 435 512 39 378 1102 20 63 29 23 36 35 42 20 24 24 153 92 30 241 29 24 21 31 82 41 28 44 24
leaf_count=35 1117 26 435 512 39 378 1102 20 63 29 23 36 35 42 20 24 24 153 92 30 241 29 24 21 31 82 41 28 44 24
internal_value=8.00916e-11 0.0092726 -0.0064882 -0.00331759 0.0201486 -0.0143309 0.00583084 0.0289532 0.0173682 0.015157 0.0251851 0.0200724 -0.00151204 -0.00654107 0.00987137 0.0131485 0.0160711 0.0137401 -0.00794487 0.00889545 0.0116982 0.0268959 0.000644491 0.00625558 0.0126761 0.00221384 -0.0011096 -0.000688223 0.0080577 0.0195634
internal_weight=4800 1976 2824 2011 475 813 1501 114 361 293 94 71 1289 722 399 264 201 177 604 379 267 68 118 76 52 112 1254 1213 96 52
internal_count=4800 1976 2824 2011 475 813 1501 114 361 293 94 71 1289 722 399 264 201 177 604 379 267 68 118 76 52 112 1254 1213 96 52
is_linear=0
shrinkage=0.03


Tree=13
num_leaves=31
num_cat=0
split_feature=5 4 4 4 4 5 24 5 26 24 5 14 13 30 29 13 10 32 25 2 5 24 4 25 24 2 3 9 29 5
split_gain=301.904 81.4789 69.4448 12.219 10.8857 10.352 10.2792 9.47542 9.18264 14.7611 9.24325 8.17698 10.791 9.26173 10.7879 8.85976 9.4832 8.24195 8.13958 7.97861 8.05184 10.0223 8.87546 8.52161 7.65748 11.5072 16.0328 9.06915 8.44889 26.8583
threshold=0.97562021912886576 -313.90339403345052 233.75067293496764 -461.91138232577845 118.94828134498654 0.87940015675550698 27.500000000000004 1.2424789289707283 -10.499999999999998 17.500000000000004 0.7493023644156952 11.500000000000002 5.5000000000000009 1.1466188331463683 0.48333333333333339 9.5000000000000018 3.5000000000000004 -1.1947211415795034 12.500000000000002 1730.0126741156112 0.82674146905640089 20.500000000000004 -366.32085674073022 47.500000000000007 13.500000000000002 1654.3205085560005 1835.66603237307 6.5000000000000009 0.2166666666666667 0.86398486537163455
decision_type=2 2 2 2 2 2 2 2 2 2 2 2 2 2 2 2 2 2 2 2 2 2 2 2 2 2 2 2 2 2
left_child=1 3 4 8 -2 24 11 -4 -1 10 -10 12 13 14 17 -14 -17 -7 -8 20 22 -22 23 -5 28 26 -26 -28 -3 -30
right_child=2 5 7 19 -6 6 18 -9 9 -11 -12 -13 15 -15 -16 16 -18 -19 -20 -21 21 -23 -24 -25 25 -27 27 -29 29 -31
leaf_value=0.015573655342062313 -0.001678490037093847 0.0092030285184199999 -0.01184200364417593 0.022767242732602104 -0.0063448352850591465 0.013131097391247749 0.0041981550954657493 -0.018995505115733696 0.032694782511047696 0.019425349141870225 0.060580960571765902 0.016869523210657964 0.0096443104749601889 -0.015210695456374775 0.016367704291876995 0.019803506322205067 -0.00022193158322826343 -0.004094179080426693 -0.0059617614016450682 0.0034397076815366741 0.035203128640956066 0.010274312368461063 0.0085542513747164546 0.0022923344373703002 0.0029101546969212276 -0.0019967522588558492 0.011761378309001091 0.037864421993494032 0.0079083913138934536 0.047182256859540937
leaf_weight=36 1194 117 579 142 722 30 139 234 23 35 20 54 396 33 38 24 188 150 145 36 47 21 94 21 71 96 23 25 42 25
leaf_count=36 1194 117 579 142 722 30 139 234 23 35 20 54 396 33 38 24 188 150 145 36 47 21 94 21 71 96 23 25 42 25
internal_value=3.98597e-11 0.00863668 -0.00655425 0.0195441 -0.00343689 0.00539041 0.00399547 -0.0139009 0.0281065 0.0338909 0.0456651 0.00554599 0.00483415 -0.0003991 0.00184302 0.00699459 0.0020451 -0.0012233 -0.000989126 0.0168402 0.0183246 0.0275045 0.0158957 0.0201294 0.00957523 0.00573049 0.0119642 0.0253567 0.0140677 0.0225628
internal_weight=4800 2071 2729 475 1916 1596 1197 813 114 78 43 913 859 251 218 608 212 180 284 361 325 68 257 163 399 215 119 48 184 67
internal_count=4800 2071 2729 475 1916 1596 1197 813 114 78 43 913 859 251 218 608 212 180 284 361 325 68 257 163 399 215 119 48 184 67
is_linear=0
shrinkage=0.03


Tree=14
num_leaves=31
num_cat=0
split_feature=4 4 5 4 5 4 29 23 3 29 32 13 19 5 15 13 22 33 29 5 23 19 31 2 2 26 25 0 10 22
split_gain=284.281 72.71 69.1312 11.6398 11.5566 8.93986 8.89284 11.5171 11.6666 11.5134 10.8948 9.19138 13.6937 11.0074 11.0058 14.4334 13.1347 9.0178 17.1154 8.6847 9.69166 8.71563 8.80645 8.3152 12.2816 7.89338 9.92139 7.8371 11.202 7.59824
threshold=-54.7598184073696 -313.90339403345052 1.1416803770879045 86.029680924754885 0.77113501396106077 426.3751347389653 1.5166666666666668 2.2250000000000005 1781.6515592061508 1.1166666666666669 -2.7125448644291938 5.5000000000000009 1.064115852924634 0.96237375249310608 4.5000000000000009 9.5000000000000018 0.93095238095238109 1.0800000000000003 3.0166666666666671 0.850043256112887 2.5500000000000003 0.15415067982725814 0.12783056134823309 1524.4580068427119 1499.1222214251841 48.500000000000007 1.0000000180025095e-35 1.0000000180025095e-35 11.500000000000002 0.85164835164835173
decision_type=2 2 2 2 2 2 2 2 2 2 2 2 2 2 2 2 2 2 2 2 2 2 2 2 2 2 2 2 2 2
left_child=1 4 3 25 23 -4 9 8 -8 10 -3 13 14 -12 15 19 -16 18 -10 -13 21 -21 -23 24 -1 26 -2 -6 -29 -25
right_child=2 6 5 -5 27 -7 7 -9 17 -11 11 12 -14 -15 16 -17 -18 -19 -20 20 -22 22 -24 29 -26 -27 -28 28 -30 -31
leaf_value=0.021755522689116853 0.012407875078565934 0.018097777743231167 -0.011932651076586571 -0.0055368265107832073 0.025503613861168131 -0.019811888900068072 -0.0029211591208173383 0.030155306961387397 0.038199429917952103 -0.007908990204334259 -0.00051634274759009241 0.023533498048782346 -0.0082264746753674643 0.021817746055977683 0.038486701101064683 -0.0011769571208213208 0.010732370681668582 0.0068296253895387049 0.0091214379455362045 0.0026607000639716398 0.025953232920169829 0.020693288700921193 0.0057381606653884604 0.0049798948424203049 0.05011314769585927 -0.014978792265057564 -0.0011656866592856553 0.012254610694944858 0.03189736311805659 0.027465383041846123
leaf_weight=28 51 55 648 953 68 162 62 24 29 65 366 35 53 21 21 169 57 120 49 206 25 63 81 21 27 35 975 264 29 38
leaf_count=28 51 55 648 953 68 162 62 24 29 65 366 35 53 21 21 169 57 120 49 206 25 63 81 21 27 35 975 264 29 38
internal_value=6.1802e-12 0.00872798 -0.00610711 -0.00313039 0.0189578 -0.0135085 0.00549069 0.0102708 0.0084353 0.0043752 0.00506832 0.00441506 0.00644244 0.000695585 0.00762578 0.00620064 0.0182047 0.0119914 0.0199325 0.00924165 0.00790774 0.00661878 0.012281 0.0272848 0.0356765 -0.000968898 -0.000490977 0.0163282 0.0141988 0.0194621
internal_weight=4800 1976 2824 2014 475 810 1501 284 260 1217 1152 1097 710 387 657 579 78 198 78 410 375 350 144 114 55 1061 1026 361 293 59
internal_count=4800 1976 2824 2014 475 810 1501 284 260 1217 1152 1097 710 387 657 579 78 198 78 410 375 350 144 114 55 1061 1026 361 293 59
is_linear=0
shrinkage=0.03


Tree=15
num_leaves=31
num_cat=0
split_feature=4 4 4 4 5 3 4 24 29 29 24 5 16 5 13 5 0 13 19 4 14 24 30 2 3 24 2 2 2 2
split_gain=267.48 68.4129 65.1072 10.9007 10.8736 8.68447 8.82279 9.55191 9.25414 15.3622 21.6452 9.08999 9.25726 8.58659 8.56512 13.6684 8.40635 10.2083 8.13722 7.8485 7.92121 8.84829 7.72959 7.59296 7.60451 7.71609 12.1582 9.65595 13.6738 7.43041
threshold=-54.7598184073696 -313.90339403345052 233.75067293496764 118.94828134498654 0.77113501396106077 2110.7475579012339 -196.85755929089507 17.500000000000004 2.2333333333333338 3.0166666666666671 28.500000000000004 0.85318869529656105 -1.0000000180025095e-35 1.2077314829259154 5.5000000000000009 0.96237375249310608 1.0000000180025095e-35 6.5000000000000009 1.064115852924634 -475.45107692971561 10.500000000000002 10.500000000000002 1.9492388221241435 1984.1364057868652 1748.1594553198729 12.500000000000002 1791.9045718665081 1843.9628228250938 1825.9591774039998 1733.5676771139258
decision_type=2 2 2 2 2 2 2 2 2 2 2 2 2 2 2 2 2 2 2 2 2 2 2 2 2 2 2 2 2 2
left_child=1 4 3 22 19 6 7 -3 14 10 -10 12 -9 -4 15 -8 -13 -18 -16 20 21 -1 -2 24 25 26 -5 28 -28 -6
right_child=2 5 13 23 29 -7 8 11 9 -11 -12 16 -14 -15 18 -17 17 -19 -20 -21 -22 -23 -24 -25 -26 -27 27 -29 -30 -31
leaf_value=0.028619617530277794 -0.0009378235220729586 0.011718884231993043 -0.010214034384333303 -0.0091302763459971178 0.017203564059625309 0.024482807389327454 -0.0046363356098150588 0.028688039277558738 0.048235575310885903 0.0039694761754350454 0.0040986407697200774 0.017236963533188984 0.004802293796092272 -0.016395429087773201 0.0054418336161527999 0.019136227928102014 0.0040347075144711291 -0.011539105528167316 -0.0066284672942544731 0.043531479880213733 0.038136354166528455 0.0074362618227799731 -0.013732077885810708 0.00098160615411855418 -0.015229189255905728 -0.0095674664199584189 0.0011356073125235496 -0.0024974174176653225 0.032060792397030378 0.0022691775181076742
leaf_weight=35 1245 297 435 120 328 21 234 23 20 94 20 23 40 378 491 24 95 63 56 20 23 36 44 118 93 257 31 81 22 33
leaf_count=35 1245 297 435 120 328 21 234 23 20 94 20 23 40 378 491 24 95 63 56 20 23 36 44 118 93 257 31 81 22 33
internal_value=5.02878e-11 0.00846614 -0.0059239 -0.0030276 0.0183891 0.00532597 0.00505415 0.00810575 0.00329598 0.0105956 0.0261671 0.00370779 0.0135225 -0.013088 0.00208089 -0.00242493 0.000291623 -0.0021751 0.00420612 0.0264663 0.0228354 0.0178788 -0.00137456 -0.00597882 -0.00733864 -0.00590259 -0.00219442 0.00401679 0.0139725 0.0158384
internal_weight=4800 1976 2824 2011 475 1501 1480 541 939 134 40 244 63 813 805 258 181 158 547 114 94 71 1289 722 604 511 254 134 53 361
internal_count=4800 1976 2824 2011 475 1501 1480 541 939 134 40 244 63 813 805 258 181 158 547 114 94 71 1289 722 604 511 254 134 53 361
is_linear=0
shrinkage=0.03


Tree=16
num_leaves=31
num_cat=0
split_feature=5 4 4 4 4 5 24 25 3 14 13 30 29 19 12 11 26 2 23 13 11 32 25 30 2 2 30 3 9 2
split_gain=251.801 67.8006 58.3297 11.8345 10.3398 8.92491 9.528 8.7192 10.9719 7.60017 9.50526 8.71492 9.97863 7.74027 9.38635 10.7193 9.55489 8.16528 7.7812 8.17626 10.0824 7.63885 7.56933 7.39275 7.25199 7.37412 7.11298 7.06071 7.04823 6.98885
threshold=0.97562021912886576 -313.90339403345052 262.68146809312094 118.94828134498654 -461.91138232577845 0.87940015675550698 27.500000000000004 21.500000000000004 2049.1806530931613 11.500000000000002 5.5000000000000009 1.1466188331463683 0.48333333333333339 0.99621508234510325 9.5000000000000018 8.5000000000000018 -10.499999999999998 1785.3400094930951 2.5500000000000003 7.5000000000000009 6.5000000000000009 -1.1947211415795034 24.500000000000004 1.3630528564638009 1811.8545622827294 1762.2301228396984 2.0036116349982827 1869.603208497158 7.5000000000000009 1730.0126741156112
decision_type=2 2 2 2 2 2 2 2 2 2 2 2 2 2 2 2 2 2 2 2 2 2 2 2 2 2 2 2 2 2
left_child=1 4 3 26 7 24 9 8 -1 10 11 12 21 14 15 16 -12 28 19 20 -18 -7 -8 -11 25 -3 -2 -16 -17 -6
right_child=2 5 -4 -5 29 6 22 -9 -10 23 13 -13 -14 -15 27 17 18 -19 -20 -21 -22 -23 -24 -25 -26 -27 -28 -29 -30 -31
leaf_value=0.044785723237655471 -0.0011273580602025877 0.0089464907407802476 -0.013599175177952822 -0.0061533644409163995 0.016739347328589511 0.012571060866117477 0.0017128110560478192 0.01324901888200215 0.022011090136588887 0.004085485106706619 -0.0011208098381757735 -0.014841737991029565 0.015670137946542942 -0.0017088384022203723 -0.018251738525927066 0.0099751786608248943 0.025159113438323489 0.0046572793818808892 0.024919245855675804 0.0035341399592639755 0.0017688486807876163 -0.0040120207831263544 -0.0094946334878467532 0.026346862937869697 0.026418231680989265 -0.0085804852389770991 -0.014854291927934225 0.0046113356611421031 0.027409478805959221 0.0028082631528377529
leaf_weight=32 1159 356 680 855 325 30 211 35 47 25 105 33 38 89 20 32 43 37 27 137 27 150 73 29 20 23 35 31 60 36
leaf_count=32 1159 356 680 855 325 30 211 35 47 25 105 33 38 89 20 32 43 37 27 137 27 150 73 29 20 23 35 31 60 36
internal_value=-7.18333e-11 0.00788753 -0.00598574 -0.00345907 0.0178374 0.00492626 0.00363103 0.0257139 0.0312363 0.00512382 0.00443755 -0.000474037 0.00170089 0.00646519 0.0078669 0.00919873 0.00639797 0.0165589 0.00977178 0.00779603 0.0161372 -0.00124817 -0.00116798 0.0160407 0.00881194 0.00788285 -0.00152974 -0.00435458 0.0213454 0.0153501
internal_weight=4800 2071 2729 2049 475 1596 1197 114 79 913 859 251 218 608 519 468 339 129 234 207 70 180 284 54 399 379 1194 51 92 361
internal_count=4800 2071 2729 2049 475 1596 1197 114 79 913 859 251 218 608 519 468 339 129 234 207 70 180 284 54 399 379 1194 51 92 361
is_linear=0
shrinkage=0.03


Tree=17
num_leaves=31
num_cat=0
split_feature=4 4 5 4 4 29 26 3 29 23 29 3 32 33 29 4 13 19 15 13 22 5 5 10 3 30 31 26 25 30
split_gain=237.048 60.511 57.7916 9.72869 9.66548 8.44089 13.5721 18.8686 8.06625 10.811 10.7541 10.7079 10.0323 8.49165 15.6769 8.02934 7.91495 11.9934 10.139 13.3659 12.2283 9.95101 8.21739 9.84797 8.9467 8.73807 9.14838 7.42398 9.33296 7.29796
threshold=-54.7598184073696 -313.90339403345052 1.1416803770879045 -461.91138232577845 86.029680924754885 -0.41666666666666657 -8.4999999999999982 2055.3352797328248 1.5166666666666668 2.2250000000000005 1.1166666666666669 1781.6515592061508 -2.7125448644291938 1.0800000000000003 3.0166666666666671 426.3751347389653 5.5000000000000009 1.064115852924634 4.5000000000000009 9.5000000000000018 0.93095238095238109 0.96237375249310608 0.94559359085965367 11.500000000000002 1814.7676120518865 -0.67737341606193568 0.14402721351674899 48.500000000000007 1.0000000180025095e-35 0.41450190915456214
decision_type=2 2 2 2 2 2 2 2 2 2 2 2 2 2 2 2 2 2 2 2 2 2 2 2 2 2 2 2 2 2
left_child=1 3 4 5 27 -1 -7 -8 10 11 12 -10 29 14 -13 -4 21 18 19 22 -20 -14 23 25 -24 26 -18 28 -2 -3
right_child=2 8 15 -5 -6 6 7 -9 9 -11 -12 13 16 -15 -16 -17 17 -19 20 -21 -22 -23 24 -25 -26 -27 -28 -29 -30 -31
leaf_value=0.013622057953706154 0.012088577028583078 0.026742660581104215 -0.010850477615474826 0.014889594892715814 -0.0050479488864601883 0.015624980931320498 0.063061646662652487 0.023607125300914047 -0.0030889678145608595 0.028834558129310607 -0.0079178665555440474 0.036386230896259177 -0.00060651813282585536 0.0061888687126338479 0.008556954149080781 -0.018317693046949527 0.024927589488029478 -0.0078493036751477226 0.036709640111242017 -0.0014812616968648672 0.0099300394168025576 0.020628870342458996 -0.014571450336111916 0.025309598807777677 0.0098508132497469592 0.0050757346409697861 0.0072726038683738024 -0.014472342441124574 -0.0010763102965859266 0.0047074687294661995
leaf_weight=39 51 31 648 361 953 31 20 24 62 24 65 29 366 120 49 162 50 53 21 169 57 21 27 35 27 215 56 35 975 24
leaf_count=39 51 31 648 361 953 31 20 24 62 24 65 29 366 120 49 162 50 53 21 169 57 21 27 35 27 215 56 35 975 24
internal_value=-6.18438e-11 0.00796998 -0.00557673 0.0173023 -0.00285507 0.0249424 0.030829 0.041541 0.00501673 0.00956926 0.00395434 0.00779092 0.00462422 0.0111978 0.0189037 -0.0123439 0.00399735 0.0058787 0.00698613 0.00561826 0.0171399 0.00054579 0.00854465 0.0101988 -0.00236032 0.00855118 0.0156004 -0.000885407 -0.000421915 0.0171273
internal_weight=4800 1976 2824 475 2014 114 75 44 1501 284 1217 260 1152 198 78 810 1097 710 657 579 78 387 410 356 54 321 106 1061 1026 55
internal_count=4800 1976 2824 475 2014 114 75 44 1501 284 1217 260 1152 198 78 810 1097 710 657 579 78 387 410 356 54 321 106 1061 1026 55
is_linear=0
shrinkage=0.03


Tree=18
num_leaves=31
num_cat=0
split_feature=5 4 4 4 4 24 5 30 9 29 26 3 4 29 29 29 4 19 30 2 32 13 30 18 5 10 29 16 18 5
split_gain=223.045 59.9962 51.8589 10.5151 9.15372 8.41333 12.6847 8.4266 8.3952 7.94203 12.77 17.7535 7.15132 8.79086 18.8242 9.7888 7.95589 7.43681 6.61728 6.58375 8.19917 11.0842 10.0886 10.4827 8.73376 8.35649 6.2609 7.51346 10.3634 6.13111
threshold=0.97562021912886576 -313.90339403345052 262.68146809312094 118.94828134498654 -461.91138232577845 27.500000000000004 0.85318869529656105 -0.99071699983617567 11.500000000000002 -0.41666666666666657 -8.4999999999999982 2055.3352797328248 -196.85755929089507 1.7500000000000002 3.1166666666666676 1.3166666666666669 -44.837253449651364 1.064115852924634 2.0036116349982827 1733.5676771139258 -1.9231834561256085 5.5000000000000009 5.4692008276113944 0.90454545454545465 0.81648524354544338 10.500000000000002 -1.8166666666666662 5.5000000000000009 0.59411764705882364 0.84408182920653618
decision_type=2 2 2 2 2 2 2 2 2 2 2 2 2 2 2 2 2 2 2 2 2 2 2 2 2 2 2 2 2 2
left_child=1 4 3 18 9 12 -7 8 -8 -1 -11 -12 29 15 -15 16 17 -14 -2 20 -6 22 23 24 -22 -23 27 28 -9 -3
right_child=2 5 -4 -5 19 6 7 26 -10 10 11 -13 13 14 -16 -17 -18 -19 -20 -21 21 25 -24 -25 -26 -27 -28 -29 -30 -31
leaf_value=0.013213396221399307 -0.0010444761941436843 -0.0034973232820630072 -0.012812316784306483 -0.0057908572877446805 0.0080147365828355157 0.018047193825244903 0.011634084725216643 -0.00075487254127379387 -0.0098902498398508332 0.015156231580242034 0.061169797327369442 0.022898911144584415 0.0043321803905329304 0.029410616187630471 0.00080379509069818133 -0.012812932303005998 0.022558928981423376 -0.0070046174487001017 -0.014284458887630275 0.0016701660914854571 0.027689625816419719 0.0087080225997632089 0.010875126190723911 0.01476914244890213 0.051355052715539931 0.028401483334600925 -0.0064996270819714192 -0.011213823322738918 0.026944013223052024 0.010181602836249673
leaf_weight=39 1159 32 680 855 90 35 73 31 21 31 20 24 603 37 47 33 20 57 35 33 32 101 31 25 25 24 190 21 20 376
leaf_count=39 1159 32 680 855 90 35 73 31 21 31 20 24 603 37 47 33 20 57 35 33 32 101 31 25 25 24 190 21 20 376
internal_value=-1.22687e-11 0.0074235 -0.00563359 -0.00325119 0.0167832 0.00463787 0.000814078 -0.000880189 0.00682546 0.0241942 0.0299042 0.0402948 0.00587862 0.00422505 0.0134044 0.00314361 0.00391797 0.00335309 -0.00143258 0.0144429 0.015728 0.0186447 0.025454 0.0309655 0.0380692 0.0124892 -0.00364481 0.00388874 0.0101074 0.00910875
internal_weight=4800 2071 2729 2049 475 1596 391 356 94 114 75 44 1205 797 84 713 680 660 1194 361 328 238 113 82 57 125 262 72 51 408
internal_count=4800 2071 2729 2049 475 1596 391 356 94 114 75 44 1205 797 84 713 680 660 1194 361 328 238 113 82 57 125 262 72 51 408
is_linear=0
shrinkage=0.03


Tree=19
num_leaves=31
num_cat=0
split_feature=4 4 4 5 4 3 22 2 30 4 15 30 31 30 23 24 29 32 4 3 3 5 26 11 11 32 0 10 4 3
split_gain=210.273 53.4793 51.31 8.62923 8.45944 7.70448 7.56404 11.4689 8.17904 7.48799 7.3995 8.96352 13.5886 11.6516 8.57778 13.6212 13.2904 10.5454 8.44312 9.6237 9.81006 10.6174 9.52842 8.39462 8.76668 7.36139 7.29346 10.1934 7.53841 7.48216
threshold=-54.7598184073696 -313.90339403345052 233.75067293496764 0.77113501396106077 118.94828134498654 2110.7475579012339 0.74166666666666681 1537.4207529117743 4.0988070503510441 426.3751347389653 10.500000000000002 -1.1254006776206571 1.0000000180025095e-35 -1.4927182735657409 0.63961038961038974 12.500000000000002 0.14999999999999999 -0.044148203850659942 -60.60685705209675 1786.4115960173929 1798.4916718833767 0.85146871289349935 12.500000000000002 9.5000000000000018 6.5000000000000009 -2.1032980188370232 1.0000000180025095e-35 11.500000000000002 -372.78343484636929 1915.3835578541541
decision_type=2 2 2 2 2 2 2 2 2 2 2 2 2 2 2 2 2 2 2 2 2 2 2 2 2 2 2 2 2 2
left_child=1 3 4 6 -2 10 8 -8 -1 -4 11 12 13 25 15 16 23 -18 19 -16 -21 22 -22 24 -13 -3 28 29 -5 -28
right_child=2 5 9 26 -6 -7 7 -9 -10 -11 -12 14 -14 -15 18 -17 17 -19 -20 20 21 -23 -24 -25 -26 -27 27 -29 -30 -31
leaf_value=0.026415027749279268 -0.0012249615074668579 0.024825194557862619 -0.01017601946806578 0.012870232848560108 -0.0052810089511081248 0.022773645009313309 0.043661204040050507 0.018988638566090506 0.00082896313206716021 -0.01738379265423174 -0.013649957299232483 0.0059912499412894246 0.0032401918061077594 0.030315461307764052 0.00068454067196164808 -0.0061042841644056382 0.031629398453235626 0.0066696246426839094 0.023451817540282551 0.02674842269524284 0.008823802759570459 0.0044780624230591629 0.035383367925882342 0.010604902856490191 -0.017416394228736559 0.0078193856527407971 0.0010774927905627658 0.028836196275620625 0.032847532936755346 0.012926132100731577
leaf_weight=23 1289 28 651 34 722 21 30 39 22 162 20 24 204 34 315 186 25 39 22 23 31 313 20 34 36 126 63 29 34 201
leaf_count=23 1289 28 651 34 722 21 30 39 22 162 20 24 204 34 315 186 25 39 22 23 31 313 20 34 36 126 63 29 34 201
internal_value=5.72811e-11 0.00750639 -0.00525235 0.0162797 -0.00268119 0.00473002 0.0234752 0.0297158 0.0139063 -0.0116123 0.004474 0.00472227 0.00860223 0.0144206 0.00329817 -0.000602268 0.00587479 0.0164195 0.00515141 0.0045779 0.00774691 0.00654626 0.0192393 -0.00130461 -0.00805334 0.0109114 0.0140074 0.0119532 0.0228589 0.0100986
internal_weight=4800 1976 2824 475 2011 1501 114 69 45 813 1480 1460 392 188 1068 344 158 64 724 702 387 364 51 94 60 154 361 293 68 264
internal_count=4800 1976 2824 475 2011 1501 114 69 45 813 1480 1460 392 188 1068 344 158 64 724 702 387 364 51 94 60 154 361 293 68 264
is_linear=0
shrinkage=0.03


Tree=20
num_leaves=31
num_cat=0
split_feature=4 4 4 4 2 23 19 25 24 23 3 23 26 9 5 2 25 26 22 11 32 25 29 26 26 3 25 2 2 30
split_gain=197.846 50.3187 48.4358 10.305 8.53184 9.2721 9.10731 9.28663 11.7625 10.2166 7.24914 7.17906 13.1167 7.97395 6.85646 6.90814 12.2353 9.05465 8.37936 9.20391 9.91418 9.11339 7.75635 6.82052 8.91464 15.637 12.75 7.39873 9.02295 6.93702
threshold=-54.7598184073696 -313.90339403345052 262.68146809312094 118.94828134498654 1730.0126741156112 0.32291666666666669 0.65609319448308456 1.0000000180025095e-35 49.500000000000007 0.48333333333333339 2110.7475579012339 2.5500000000000003 -2.4999999999999996 5.5000000000000009 0.87400418887989317 1513.6250335363809 12.500000000000002 38.500000000000007 1.4365079365079367 5.5000000000000009 -1.733161256279826 11.500000000000002 0.8500000000000002 48.500000000000007 29.500000000000004 1754.876268601864 5.5000000000000009 2025.8831375063269 1994.8581520929829 2.0036116349982827
decision_type=2 2 2 2 2 2 2 2 2 2 2 2 2 2 2 2 2 2 2 2 2 2 2 2 2 2 2 2 2 2
left_child=1 4 3 23 5 -1 7 -7 9 -9 11 14 -13 -14 15 16 -3 18 19 21 -21 -17 -22 24 27 26 -26 28 29 -2
right_child=2 10 -4 -5 -6 6 -8 8 -10 -11 -12 12 13 -15 -16 17 -18 -19 -20 20 22 -23 -24 -25 25 -27 -28 -29 -30 -31
leaf_value=0.035484872576983073 -0.0010770047726941282 0.011710916283455762 -0.012071152341059025 -0.0054358579350488358 0.0017510124295949936 0.036163425133986904 0.0010389297718510909 0.0019786933590384094 -0.003765077805519104 0.019327648361754969 0.022090435773134232 0.00095288288525559675 0.011637419066999269 0.036900656250390143 0.0026482889135883625 -0.0081387803863201824 -0.020710070729255674 -0.009643378172601972 0.00042171833867376499 0.037484465113707947 0.010948993069284102 0.013019810240223723 0.031713422656059261 -0.012935252507152252 0.03290892740977662 -0.0049974599281946818 0.0031104882247745989 0.010136756879522741 -0.015826535257624414 -0.015954383534604103
leaf_weight=23 1032 22 680 855 36 22 34 34 25 301 21 44 23 22 1066 28 20 21 55 21 85 53 20 43 28 45 24 47 41 29
leaf_count=23 1032 22 680 855 36 22 34 34 25 301 21 44 23 22 1066 28 20 21 55 21 85 53 20 43 28 45 24 47 41 29
internal_value=-1.21398e-11 0.0072812 -0.00509478 -0.00288212 0.0157913 0.0169427 0.0159175 0.0172418 0.0160855 0.0175669 0.00458812 0.00433978 0.0126 0.0239883 0.00381126 0.00762582 -0.00372765 0.00931079 0.01083 0.0135955 0.0186675 0.00570573 0.0149041 -0.00118821 -0.000782817 0.00795068 0.0191558 -0.00152011 -0.00201727 -0.00148364
internal_weight=4800 1976 2824 2144 475 439 416 382 360 335 1501 1480 89 45 1391 325 42 283 262 207 126 81 105 1289 1246 97 52 1149 1102 1061
internal_count=4800 1976 2824 2144 475 439 416 382 360 335 1501 1480 89 45 1391 325 42 283 262 207 126 81 105 1289 1246 97 52 1149 1102 1061
is_linear=0
shrinkage=0.03


Tree=21
num_leaves=31
num_cat=0
split_feature=4 4 4 4 4 26 24 5 29 23 29 3 32 33 29 13 19 15 13 22 5 5 10 3 18 32 23 10 30 31
split_gain=186.153 47.3448 45.5732 9.69598 8.14889 7.56644 12.3909 8.03328 7.04071 9.89252 9.85789 9.74085 8.93275 8.00071 14.2721 7.3755 10.9063 9.54025 12.2248 11.4266 9.27627 7.53946 9.15999 8.38031 8.0967 7.31309 8.26064 6.76829 6.59275 6.56271
threshold=-54.7598184073696 -313.90339403345052 262.68146809312094 118.94828134498654 -461.91138232577845 -10.499999999999998 17.500000000000004 0.7493023644156952 1.5166666666666668 2.2250000000000005 1.1166666666666669 1781.6515592061508 -2.7125448644291938 1.0800000000000003 3.0166666666666671 5.5000000000000009 1.064115852924634 4.5000000000000009 9.5000000000000018 0.93095238095238109 0.96237375249310608 0.94559359085965367 11.500000000000002 1814.7676120518865 0.43650793650793651 -1.5676780372478307 0.57738095238095244 6.5000000000000009 0.41450190915456214 1.0000000180025095e-35
decision_type=2 2 2 2 2 2 2 2 2 2 2 2 2 2 2 2 2 2 2 2 2 2 2 2 2 2 2 2 2 2
left_child=1 4 3 -2 5 -1 7 -7 10 11 12 -10 28 14 -13 20 17 18 21 -19 -14 22 24 -23 -17 -26 -27 -15 -3 -20
right_child=2 8 -4 -5 -6 6 -8 -9 9 -11 -12 13 15 27 -16 16 -18 19 29 -21 -22 23 -24 -25 25 26 -28 -29 -30 -31
leaf_value=0.010933408824106056 -0.0011525664894411355 0.025036298142325494 -0.011709017520441728 -0.0052727820908756952 0.013109464319706624 0.026256644230173983 0.01430734479853085 0.052253634810447695 -0.0033743013970313532 0.027132550533860923 -0.0079088548009212199 0.034412732936184985 -0.00093665355847018651 6.5804247732286327e-05 0.0078595815386090957 -0.0097177818214351473 -0.0077672397949785556 0.035146710659776412 -0.0079721391499042501 0.0092597827080049006 0.019566149285861423 -0.01441198772854275 0.024009618375982554 0.0092245738208293904 0.023735835946031979 -0.0038030610946898761 0.010030682500052663 0.014924195741498192 0.0040927885100245469 0.0038682535474889737
leaf_weight=36 1289 31 680 855 361 23 35 20 62 24 65 29 366 77 49 22 53 21 80 57 21 27 35 27 28 47 224 43 24 89
leaf_count=36 1289 31 680 855 361 23 35 20 62 24 65 29 366 77 49 22 53 21 80 57 21 27 35 27 28 47 224 43 24 89
internal_value=4.48708e-11 0.00706276 -0.00494193 -0.00279566 0.0153176 0.02231 0.0275607 0.0383483 0.00445048 0.00870377 0.00345793 0.00700265 0.00409928 0.010252 0.0177319 0.00350777 0.00532387 0.00637992 0.00505306 0.0162293 0.000175902 0.00785175 0.00943617 -0.00259371 0.00784717 0.00913957 0.00763147 0.00539006 0.0158973 -0.00173667
internal_weight=4800 1976 2824 2144 475 114 78 43 1501 284 1217 260 1152 198 78 1097 710 657 579 78 387 410 356 54 321 299 271 120 55 169
internal_count=4800 1976 2824 2144 475 114 78 43 1501 284 1217 260 1152 198 78 1097 710 657 579 78 387 410 356 54 321 299 271 120 55 169
is_linear=0
shrinkage=0.03


Tree=22
num_leaves=31
num_cat=0
split_feature=5 4 5 4 2 23 19 25 24 23 24 5 30 9 12 13 13 23 3 15 14 12 4 14 24 25 15 4 14 4
split_gain=175.281 46.9213 41.1913 10.9212 7.9497 8.72445 8.47882 8.70623 10.9945 9.7103 7.84684 11.0355 7.52364 7.60705 6.85672 6.55619 12.28 9.35603 10.9287 8.95289 7.87859 7.75205 11.6305 6.77632 6.6029 6.33405 11.4639 10.1305 9.18628 8.93454
threshold=0.97562021912886576 -313.90339403345052 1.1818569134066401 118.94828134498654 1730.0126741156112 0.32291666666666669 0.65609319448308456 1.0000000180025095e-35 49.500000000000007 0.48333333333333339 27.500000000000004 0.85318869529656105 -0.99071699983617567 11.500000000000002 13.500000000000002 5.5000000000000009 9.5000000000000018 0.73863636363636376 1723.4666724443985 4.5000000000000009 12.500000000000002 9.5000000000000018 -290.29124303145107 8.5000000000000018 15.500000000000002 15.500000000000002 -1.0000000180025095e-35 -461.91138232577845 9.5000000000000018 -515.90195601894402
decision_type=2 2 2 2 2 2 2 2 2 2 2 2 2 2 2 2 2 2 2 2 2 2 2 2 2 2 2 2 2 2
left_child=1 4 3 -2 5 -1 7 -7 9 -9 14 -12 13 -13 15 20 21 19 24 -18 -3 22 -17 -23 -19 27 -27 29 -29 -11
right_child=2 10 -4 -5 -6 6 -8 8 -10 25 11 12 -14 -15 -16 16 17 18 -20 -21 -22 23 -24 -25 -26 26 -28 28 -30 -31
leaf_value=0.033955711456744565 -0.0012835860266127907 0.00059752491400551395 -0.012719410870798491 -0.0055007074735162684 0.0013051980237166086 0.034573580852963706 0.00061898707466966963 0.0013683376855709972 -0.0040583470165729517 0.021416442077606918 0.01649836377586637 0.010702678979667897 -0.0037680696369013717 -0.0097863908644233426 0.021910201896998015 0.032956694573163983 0.0028399455183889806 0.00087010789323936806 -0.0083846456454031992 0.026224925524514654 0.016355724392398713 -0.014505702672260149 0.009568666154119285 0.0062071009759198537 0.019245315631851553 0.018747447440805642 -0.0014251329558236259 0.021321871362204821 1.931048252365806e-05 0.047884334901517084
leaf_weight=23 1194 362 506 1029 36 22 34 34 25 24 35 73 262 21 22 20 41 66 108 23 31 21 443 44 24 92 35 106 22 22
leaf_count=23 1194 362 506 1029 36 22 34 34 25 24 35 73 262 21 22 20 41 66 108 23 31 21 443 44 24 92 35 106 22 22
internal_value=3.75891e-11 0.00658081 -0.00499408 -0.00323564 0.0148581 0.0159695 0.014975 0.0162528 0.0151332 0.0165654 0.00411734 0.000424526 -0.00115577 0.00612533 0.00531559 0.00500698 0.00658219 0.00127246 -0.00195064 0.0112439 0.00184054 0.00921694 0.0105789 -0.000484728 0.00577016 0.018282 0.0131881 0.022 0.0176605 0.034075
internal_weight=4800 2071 2729 2223 475 439 416 382 360 335 1596 391 356 94 1205 1183 790 262 198 64 393 528 463 65 90 301 127 174 128 46
internal_count=4800 2071 2729 2223 475 439 416 382 360 335 1596 391 356 94 1205 1183 790 262 198 64 393 528 463 65 90 301 127 174 128 46
is_linear=0
shrinkage=0.03


Tree=23
num_leaves=31
num_cat=0
split_feature=4 4 5 4 3 32 18 3 31 25 3 25 29 24 25 4 15 9 2 15 25 26 26 26 26 3 12 3 15 30
split_gain=164.979 41.8751 40.6836 7.72072 8.6395 10.175 10.4718 13.7621 15.5835 10.6488 9.67404 11.15 9.25292 8.00457 7.69009 6.78024 6.9251 7.62431 8.59068 9.07129 9.67471 6.98681 10.3089 6.79168 13.5486 14.0678 7.3466 6.67912 6.8426 8.00989
threshold=-54.7598184073696 -313.90339403345052 1.1416803770879045 -535.10375758070882 2065.5508150582687 -1.693026651205906 0.90454545454545465 1972.6145718565356 0.18718078870676799 13.500000000000002 2094.5417108613506 12.500000000000002 2.1166666666666671 6.5000000000000009 18.500000000000004 86.029680924754885 -3.4999999999999996 13.500000000000002 1984.1364057868652 2.5000000000000004 54.500000000000007 -1.4999999999999998 -13.499999999999998 42.500000000000007 29.500000000000004 1754.876268601864 4.5000000000000009 2110.7475579012339 10.500000000000002 -1.1254006776206571
decision_type=2 2 2 2 2 2 2 2 2 2 2 2 2 2 2 2 2 2 2 2 2 2 2 2 2 2 2 2 2 2
left_child=1 3 15 -1 5 12 7 13 9 -9 -6 -12 -5 -7 -8 23 -17 18 19 20 -18 22 -20 24 -2 -26 -25 28 29 -3
right_child=2 27 -4 4 10 6 14 8 -10 -11 11 -13 -14 -15 -16 16 17 -19 21 -21 -22 -23 -24 26 25 -27 -28 -29 -30 -31
leaf_value=0.027382679591445545 -0.001074377880984191 0.0078603329539907209 -0.010330266503686153 0.0049971440771840649 -0.010066755480236476 0.00049774769693613054 0.015984020924793098 0.053291548706831469 0.01253520250968311 0.025213861249387265 0.025894720380504926 7.2009212830487413e-05 0.026376831301233986 0.0215750796854496 -0.0058480814248323435 -0.015309790306491778 -0.0020364751723032483 -0.013515270266395348 0.00019027641235754407 -0.0074421922384849369 0.017750858026556671 -0.0013178538032441159 0.026478155305981636 0.00063381147868931298 0.026821253685788676 -0.0013227744136125811 -0.021740687650495343 0.020992296955415178 -0.013474766258150339 0.0028463548882288877
leaf_weight=38 944 392 810 106 27 24 53 31 23 20 27 34 22 50 20 48 303 65 29 370 24 89 25 25 33 31 28 21 20 1068
leaf_count=38 944 392 810 106 27 24 53 31 23 20 27 34 22 50 20 48 303 65 29 370 24 89 25 25 33 31 28 21 20 1068
internal_value=4.32643e-11 0.00664896 -0.00465239 0.0144123 0.0132845 0.0154026 0.019301 0.0238873 0.0330355 0.0422807 0.00488413 0.0115017 0.00867178 0.0147392 0.0100026 -0.00236883 -0.00420548 -0.00361652 -0.00285055 -0.00422474 -0.000584194 0.00384743 0.0123606 -0.000719144 -0.000168767 0.013189 -0.0111867 0.00419221 0.00395383 0.00419257
internal_weight=4800 1976 2824 475 437 349 221 148 74 51 88 61 128 74 73 2014 953 905 840 697 327 143 54 1061 1008 64 53 1501 1480 1460
internal_count=4800 1976 2824 475 437 349 221 148 74 51 88 61 128 74 73 2014 953 905 840 697 327 143 54 1061 1008 64 53 1501 1480 1460
is_linear=0
shrinkage=0.03


Tree=24
num_leaves=31
num_cat=0
split_feature=4 5 5 4 18 2 25 3 3 2 32 22 15 9 29 2 23 3 29 3 22 10 15 24 16 22 22 23 26 2
split_gain=155.305 46.4356 33.4444 10.2448 10.0089 9.59951 10.7416 8.9594 12.1233 8.65016 8.59197 8.50349 8.21872 7.85418 7.8489 7.32573 10.0762 9.19249 12.801 11.1095 19.5337 10.7446 9.33163 7.98701 7.29339 12.7462 8.3498 6.89344 8.72157 6.70014
threshold=-13.736393221890465 0.85579765774666927 1.1818569134066401 -419.86114968101009 0.24264705882352941 1607.05870462244 16.500000000000004 2041.2423569807891 2016.2974797566073 1524.4580068427119 0.53835203406092913 0.70294117647058829 10.500000000000002 7.5000000000000009 0.083333333333333315 1545.6653349380028 0.73863636363636376 2041.2423569807891 0.81666666666666676 1984.323612298228 0.93095238095238109 6.5000000000000009 -1.4999999999999998 6.5000000000000009 7.5000000000000009 1.6833333333333336 1.1180555555555558 2.5500000000000003 -2.4999999999999996 1576.3174831128285
decision_type=2 2 2 2 2 2 2 2 2 2 2 2 2 2 2 2 2 2 2 2 2 2 2 2 2 2 2 2 2 2
left_child=1 3 5 9 -5 6 13 8 27 11 15 -1 -7 14 -2 16 -6 18 19 21 -21 -17 -23 -18 25 26 -9 -3 -29 -11
right_child=2 7 -4 4 10 12 -8 24 -10 29 -12 -13 -14 -15 -16 17 23 -19 -20 20 -22 22 -24 -25 -26 -27 -28 28 -30 -31
leaf_value=0.016770391758531334 0.0078571857405560358 0.0023780757862173086 -0.012027920204188983 0.029561081139937689 0.019304786730896341 -0.0033410156621273197 -0.0055584525943119471 0.0023904922672293399 -0.011144260254345442 0.0068803706675254067 0.025324148482510023 0.039358206324279311 -0.010892537758552602 -0.0020156466979533434 0.033794857823689066 -0.0090886019743405839 -0.018555767795313958 0.0017988119591027497 0.024975412341300397 0.042718166410923006 0.0054818519158288835 0.0021326057540207374 0.025686301849782468 0.0022858024502204637 0.024752887917889488 -0.0067935050589342906 0.026723123274743556 0.0013317953336697359 0.01832176626120743 0.021636514486569277
leaf_weight=30 21 1372 506 23 22 1765 47 22 57 58 28 30 140 20 21 39 23 80 64 21 32 41 24 59 27 36 30 52 57 53
leaf_count=30 21 1372 506 23 22 1765 47 22 57 58 28 30 140 20 21 39 23 80 64 21 32 41 24 59 27 36 30 52 57 53
internal_value=1.7893e-11 0.00567318 -0.00513287 0.0126247 0.0102764 -0.00340055 0.0052581 0.00303638 0.00243244 0.0188869 0.00925207 0.0280643 -0.00389598 0.0134577 0.020826 0.00814091 0.00127678 0.0105126 0.0136669 0.00905703 0.0202359 0.00336012 0.0108294 -0.00356 0.0111134 0.00692862 0.0164285 0.00295497 0.0102165 0.0139261
internal_weight=4800 2280 2520 627 456 2014 109 1653 1538 171 433 60 1905 62 42 405 104 301 221 157 53 104 65 82 115 88 52 1481 109 111
internal_count=4800 2280 2520 627 456 2014 109 1653 1538 171 433 60 1905 62 42 405 104 301 221 157 53 104 65 82 115 88 52 1481 109 111
is_linear=0
shrinkage=0.03


Tree=25
num_leaves=31
num_cat=0
split_feature=4 4 5 4 4 3 32 22 25 30 11 3 25 25 29 9 29 23 29 26 23 32 13 19 5 15 13 22 23 3
split_gain=146.564 37.2055 36.3509 8.71908 7.06185 7.98822 9.40031 9.69537 11.6253 12.4178 9.30708 9.11223 10.3398 8.99885 8.59606 8.46222 6.37018 9.25062 9.18433 8.81438 8.84257 8.23359 6.46914 10.229 8.86799 8.56803 10.7568 10.5777 7.03993 9.26349
threshold=-54.7598184073696 -313.90339403345052 1.118696292054687 341.57802789035003 -535.10375758070882 2065.5508150582687 -1.693026651205906 0.62019230769230782 21.500000000000004 1.1466188331463683 4.5000000000000009 2094.5417108613506 12.500000000000002 8.5000000000000018 2.1166666666666671 6.5000000000000009 1.5166666666666668 1.8452380952380951 1.1166666666666669 19.500000000000004 0.73863636363636376 -2.7125448644291938 5.5000000000000009 1.064115852924634 0.96237375249310608 4.5000000000000009 9.5000000000000018 0.93095238095238109 2.5500000000000003 1732.3340618959276
decision_type=2 2 2 2 2 2 2 2 2 2 2 2 2 2 2 2 2 2 2 2 2 2 2 2 2 2 2 2 2 2
left_child=1 4 -2 -4 -1 6 14 13 9 -9 -11 -7 -13 -8 -6 -10 18 19 21 20 -18 -3 24 25 -23 26 28 -27 29 -24
right_child=2 16 3 -5 5 11 7 8 15 10 -12 12 -14 -15 -16 -17 17 -19 -20 -21 -22 22 23 -25 -26 27 -28 -29 -30 -31
leaf_value=0.025989197847482406 -0.001827677385462319 0.014953038454055786 -0.0068639930193729369 -0.012669626547644535 0.004531369359706933 -0.010081818368699815 -0.0026342902153555768 0.019405859252911502 0.021083930624382834 0.02563599072396755 0.053618289828300476 0.024711243576473658 -0.00015563486253514008 0.018830990057725174 0.025138222331350497 -0.0044660165458917621 0.018487614208065408 0.022207781448960302 -0.0079645146406613875 -0.0011225852247365971 0.0038959279620503807 -0.0011500020502287834 -0.0045953402802592419 -0.0079189841336799113 0.018896529844829014 0.033316954204014371 -0.00184461722712545 0.0084102381295279461 0.022257146674853102 0.0081516618680658719
leaf_weight=38 1805 55 659 360 106 27 32 59 28 20 23 27 34 39 22 20 68 36 65 97 83 366 61 53 21 21 169 57 26 323
leaf_count=38 1805 55 659 360 106 27 32 59 28 20 23 27 34 39 22 20 68 36 65 97 83 366 61 53 21 21 169 57 26 323
internal_value=4.59768e-11 0.0062669 -0.00438505 -0.00891505 0.0135846 0.0125059 0.0145427 0.0182897 0.0226128 0.028342 0.0406033 0.00442844 0.010851 0.0091565 0.00807317 0.0104381 0.00395117 0.00799686 0.00300707 0.00593399 0.010467 0.00362612 0.00305823 0.00475908 -6.22057e-05 0.00578182 0.00452438 0.0151159 0.00714965 0.00612675
internal_weight=4800 1976 2824 1019 475 437 349 221 150 102 43 88 61 71 128 48 1501 284 1217 248 151 1152 1097 710 387 657 579 78 410 384
internal_count=4800 1976 2824 1019 475 437 349 221 150 102 43 88 61 71 128 48 1501 284 1217 248 151 1152 1097 710 387 657 579 78 410 384
is_linear=0
shrinkage=0.03


Tree=26
num_leaves=31
num_cat=0
split_feature=5 5 5 18 4 25 16 29 16 22 15 23 3 3 2 25 13 3 3 23 4 26 32 16 22 22 2 23 26 10
split_gain=137.985 41.2361 29.7132 9.65241 9.15994 11.0949 11.7274 9.11987 9.97287 9.15757 8.77542 8.34685 8.32812 11.4006 7.39291 10.7586 7.60095 7.1651 16.0899 11.5342 9.09924 7.04993 8.43911 6.83963 11.9032 7.74735 6.43152 6.29499 8.0373 6.25856
threshold=0.9916469634861832 0.85579765774666927 1.1818569134066401 0.24264705882352941 -409.78246939045056 20.500000000000004 1.5000000000000002 1.9833333333333334 -1.0000000180025095e-35 0.38675213675213677 10.500000000000002 0.40588235294117653 2041.2423569807891 2016.2974797566073 1607.05870462244 16.500000000000004 10.500000000000002 1925.5771254431561 2029.9623228964945 1.1180555555555558 -327.0603553687875 12.500000000000002 -1.3753440063076685 7.5000000000000009 1.6833333333333336 1.1180555555555558 1527.5280044748097 2.5500000000000003 -2.4999999999999996 6.5000000000000009
decision_type=2 2 2 2 2 2 2 2 2 2 2 2 2 2 2 2 2 2 2 2 2 2 2 2 2 2 2 2 2 2
left_child=1 3 10 -1 5 6 -5 9 -9 -6 14 -11 13 27 15 16 -2 21 19 20 -19 22 -13 24 25 -14 -7 -3 -29 -20
right_child=2 12 -4 4 7 26 -8 8 -10 11 -12 17 23 -15 -16 -17 -18 18 29 -21 -22 -23 -24 -25 -26 -27 -28 28 -30 -31
leaf_value=0.025615882746182206 0.022038054242730139 0.0022358431569544958 -0.011337248056596918 0.03337021735508415 -0.010584702056187849 0.018722762433545929 0.013942902400922864 0.035196988406506445 0.010458929643712259 -0.0054808464887979866 -0.010450495624116488 -0.011547659116131918 0.0022557047415863382 -0.010885393611694636 -0.0031300808135432609 -0.006037267019729251 0.00075112219326771217 0.020314095283930116 0.0096414887494054319 0.007974165029622414 0.044105686927619181 0.015031242283379159 0.0070463638538021149 0.02385833574665917 -0.0066631471614042913 0.025694089703261851 -0.0023931712657213212 0.0011972448630974842 0.017507119574829151 -0.011577925126660954
leaf_weight=43 36 1372 506 48 26 21 67 22 44 37 140 35 22 57 1766 46 26 39 29 37 23 41 59 27 36 30 34 52 57 22
leaf_count=43 36 1372 506 48 26 21 67 22 44 37 140 35 22 57 1766 46 26 39 29 37 23 41 59 27 36 30 34 52 57 22
internal_value=6.59998e-13 0.00534748 -0.0048382 0.0118983 0.0108883 0.0167515 0.0220517 0.00848066 0.0187049 0.00654158 -0.00320537 0.00792444 0.00286269 0.00228041 -0.00266411 0.00495542 0.0131113 0.00966478 0.0141774 0.0212295 0.02914 0.00465073 0.000123057 0.01065 0.00659744 0.0157778 0.00566928 0.00278713 0.00972626 0.000488016
internal_weight=4800 2280 2520 627 584 170 115 414 66 348 2014 322 1653 1538 1874 108 62 285 150 99 62 135 94 115 88 52 55 1481 109 51
internal_count=4800 2280 2520 627 584 170 115 414 66 348 2014 322 1653 1538 1874 108 62 285 150 99 62 135 94 115 88 52 55 1481 109 51
is_linear=0
shrinkage=0.03


Tree=27
num_leaves=31
num_cat=0
split_feature=4 4 5 5 25 24 4 3 19 5 4 2 24 15 25 15 12 24 16 29 3 15 30 31 30 23 24 29 32 4
split_gain=130.203 33.1305 32.5536 7.71904 6.44889 7.62903 8.20455 6.62166 8.08696 8.06294 14.5044 9.657 6.9424 7.66943 9.31275 11.6205 6.78461 9.7863 6.52249 5.98264 5.95743 6.30913 7.50447 12.1725 11.1858 7.83007 11.8733 11.955 9.76095 7.79319
threshold=-54.7598184073696 -313.90339403345052 1.118696292054687 1.2077314829259154 1.0000000180025095e-35 49.500000000000007 -535.10375758070882 2065.5508150582687 -0.25683934637419847 0.82674146905640089 -366.32085674073022 1698.69189705086 1.5000000000000002 -4.4999999999999991 13.500000000000002 -1.4999999999999998 7.5000000000000009 11.500000000000002 2.5000000000000004 -1.0000000180025095e-35 2110.7475579012339 10.500000000000002 -1.1254006776206571 1.0000000180025095e-35 -1.4927182735657409 0.63961038961038974 12.500000000000002 0.14999999999999999 -0.044148203850659942 -60.60685705209675
decision_type=2 2 2 2 2 2 2 2 2 2 2 2 2 2 2 2 2 2 2 2 2 2 2 2 2 2 2 2 2 2
left_child=1 4 -2 -4 -1 6 -6 9 -9 10 12 19 -8 -14 18 -16 17 -12 -15 -11 21 22 23 24 -3 26 27 -24 -29 -27
right_child=2 20 3 -5 5 -7 7 8 -10 11 16 -13 13 14 15 -17 -18 -19 -20 -21 -22 -23 25 -25 -26 29 -28 28 -30 -31
leaf_value=0.027338370560453486 -0.0017129504702694408 0.0093442955109980207 -0.0064148517036552617 -0.011820092974674134 0.026939447317804607 -0.0023885658551608363 0.0009486043453216552 -0.01054601464420557 0.010444136815110468 0.019318440299481151 -0.0035861881375312803 0.0060857822746038437 0.0072147107714166242 0.040107930526137349 0.028459002388560251 -0.0016977112999428871 -0.0099674411646781431 0.022424026235290193 0.019019651260565627 0.041753273567427758 0.019588063572134291 -0.013239015944302083 -0.0020659145253135803 0.0022008671458153164 0.028356536381384904 0.0036422387959483341 -0.0064408315249508425 0.029377423632144926 0.0053639519100005806 0.021775175299156797
leaf_weight=26 1805 154 641 378 35 31 22 24 53 20 30 20 36 33 23 23 31 23 22 23 21 20 94 204 34 702 186 25 39 22
leaf_count=26 1805 154 641 378 35 31 22 24 53 20 30 20 36 33 23 23 31 23 22 23 21 20 94 204 34 702 186 25 39 22
internal_value=-3.31293e-11 0.00590678 -0.00413307 -0.00841994 0.0128121 0.011971 0.0130359 0.0117653 0.00390175 0.0137441 0.0112645 0.0233081 0.0165918 0.0191039 0.0233416 0.0133806 0.00118067 0.00770126 0.0316726 0.0313185 0.00372154 0.00349641 0.00372566 0.00727582 0.0127827 0.00242261 -0.00130396 0.00474325 0.0147442 0.00419324
internal_weight=4800 1976 2824 1019 475 449 418 383 77 306 243 63 159 137 101 46 84 53 55 43 1501 1480 1460 392 188 1068 344 158 64 724
internal_count=4800 1976 2824 1019 475 449 418 383 77 306 243 63 159 137 101 46 84 53 55 43 1501 1480 1460 392 188 1068 344 158 64 724
is_linear=0
shrinkage=0.03


Tree=28
num_leaves=31
num_cat=0
split_feature=4 5 5 18 2 25 4 2 30 25 24 4 29 16 14 3 3 22 15 22 25 14 31 14 26 32 25 23 22 18
split_gain=122.59 36.6888 26.3761 8.95581 8.37714 9.48445 8.13596 10.2375 9.35158 9.51216 10.3993 8.94064 8.42895 9.23843 8.89498 7.76698 10.4735 7.50471 7.19089 6.52708 10.7089 8.9682 7.82148 7.49085 6.51097 9.58909 11.4716 8.45323 8.13255 7.02923
threshold=-13.736393221890465 0.85579765774666927 1.1818569134066401 0.24264705882352941 1607.05870462244 16.500000000000004 -409.78246939045056 1524.4580068427119 5.4692008276113944 18.500000000000004 22.500000000000004 -492.13444252138351 1.9833333333333334 -1.0000000180025095e-35 3.5000000000000004 2041.2423569807891 2016.2974797566073 0.45804195804195807 10.500000000000002 1.8090909090909093 7.5000000000000009 8.5000000000000018 0.21953930818276932 8.5000000000000018 -27.499999999999996 -1.3912282093758079 19.500000000000004 0.48333333333333339 1.1339285714285716 0.42261904761904762
decision_type=2 2 2 2 2 2 2 2 2 2 2 2 2 2 2 2 2 2 2 2 2 2 2 2 2 2 2 2 2 2
left_child=1 3 4 -1 5 17 7 11 9 10 -9 -5 14 -14 -8 16 -3 -2 19 -6 23 22 -22 -21 -16 28 27 -27 -26 -29
right_child=2 15 -4 6 18 -7 12 8 -10 -11 -12 -13 13 -15 24 -17 -18 -19 -20 20 21 -23 -24 -25 25 26 -28 29 -30 -31
leaf_value=0.024432744787962628 0.027896829346194862 0.0026199207581129426 -0.010683547515171789 0.016365743139964143 -0.0035134579376415349 -0.0050972110532382696 -0.0068328556311982019 0.032027741100047587 -0.0028936882689595219 -0.00070995841513980514 0.0055959412029811311 0.040583815364086111 0.033679994629188019 0.0098702573166652152 0.024011363940579549 0.010216945508899896 -0.01048489362001419 0.0055691126481230771 -0.010029169380332209 -0.018310285247862337 0.0069481586981564756 -0.0017190904342211208 0.029925313051789998 0.0042828107513487338 0.0055182296899147333 -0.0016586770117282866 -0.0035168848223984237 0.0024657152051275428 -0.012467506879142352 0.021195971233025194
leaf_weight=43 20 1481 506 34 1619 47 42 37 33 22 21 23 22 44 21 115 57 42 140 28 30 39 24 25 64 24 40 22 35 100
leaf_count=43 20 1481 506 34 1619 47 42 37 33 22 21 23 22 44 21 115 57 42 140 28 30 39 24 25 64 24 40 22 35 100
internal_value=4.80693e-11 0.00504035 -0.00456031 0.0112194 -0.0030219 0.0050667 0.0102465 0.0157723 0.0105436 0.0160865 0.0224576 0.0261379 0.00797747 0.0178068 0.00611328 0.00269656 0.00213424 0.0127716 -0.00348472 -0.00296561 0.00310952 0.00924309 0.0171602 -0.00765316 0.0078902 0.00670233 0.010717 0.0146167 -0.000840364 0.0178184
internal_weight=4800 2280 2520 627 2014 109 584 170 113 80 58 57 414 66 348 1653 1538 62 1905 1765 146 93 54 53 306 285 186 146 99 122
internal_count=4800 2280 2520 627 2014 109 584 170 113 80 58 57 414 66 348 1653 1538 62 1905 1765 146 93 54 53 306 285 186 146 99 122
is_linear=0
shrinkage=0.03


Tree=29
num_leaves=31
num_cat=0
split_feature=4 4 5 4 32 19 4 26 25 24 10 22 9 3 29 29 9 2 24 25 2 32 2 32 3 32 13 30 26 2
split_gain=115.68 29.3902 29.085 7.08466 5.98642 9.02693 8.43865 8.67245 7.91765 9.04611 6.35884 7.3017 5.89478 8.3042 6.88365 7.09531 8.44582 8.37577 7.51397 6.59335 6.44393 5.75228 7.55054 10.9355 13.386 7.67107 10.6938 9.61917 8.59852 7.3601
threshold=-54.7598184073696 -313.90339403345052 1.118696292054687 426.3751347389653 0.53835203406092913 0.65609319448308456 -419.86114968101009 21.500000000000004 21.500000000000004 12.500000000000002 6.5000000000000009 0.69615384615384623 8.5000000000000018 1997.9579009056222 -1.3499999999999999 -0.41666666666666657 6.5000000000000009 1551.6327023364443 4.5000000000000009 17.500000000000004 1641.3695550778882 -0.044148203850659942 1648.8909292981316 -0.8045141537747228 1543.9520839220229 -0.46393098589845466 7.5000000000000009 -0.22628857403257763 26.500000000000004 1760.3511186141002
decision_type=2 2 2 2 2 2 2 2 2 2 2 2 2 2 2 2 2 2 2 2 2 2 2 2 2 2 2 2 2 2
left_child=1 4 21 -4 5 6 7 8 10 -10 -1 -12 14 -14 -8 -16 17 -17 -19 -18 -20 22 23 24 -2 26 28 -27 29 -24
right_child=2 -3 3 -5 -6 -7 12 -9 9 -11 11 -13 13 -15 15 16 19 18 20 -21 -22 -23 25 -25 -26 27 -28 -29 -30 -31
leaf_value=0.040145297676486814 0.0010003158710896968 0.0035094216018220254 -0.0068602261801066619 -0.013701230420006646 0.028135307286400346 -0.0035037925220368538 0.019388901906354086 0.0032607292977225935 -0.0031695507679666791 0.024676108174026011 0.0077727073507214122 0.029196687261687546 0.033574923802167173 0.0080701127648353573 -0.011112819537520408 -0.00055636797701158827 0.006564519128629139 0.029843248539796932 0.021828031562268733 -0.013607342648506163 -0.0022541906777769328 -0.0027943000554808504 -0.0079412488436157048 -0.00048949137133987323 0.033928532776236531 0.022238164432346819 -0.0087310237649574195 0.0015910269341706722 -0.01553248646034097 0.0081159713326407409
leaf_weight=23 20 1501 857 162 20 34 35 29 21 21 22 41 20 27 22 31 35 29 20 25 20 1211 33 57 25 24 165 132 22 116
leaf_count=23 20 1501 857 162 20 34 35 29 21 21 22 41 20 27 22 31 35 29 20 25 20 1211 33 57 25 24 165 132 22 116
internal_value=3.80387e-11 0.00556761 -0.00389575 -0.0079478 0.0120715 0.0113654 0.0125662 0.0180739 0.02143 0.0107533 0.0266443 0.0217153 0.00929083 0.0189232 0.00720455 0.00486141 0.00705786 0.0123968 0.0182164 -0.00184042 0.00978692 -0.00160819 0.000809946 0.00823842 0.0192938 -0.000730103 -0.00328257 0.00476751 0.00197472 0.00455967
internal_weight=4800 1976 2824 1019 475 455 421 157 128 42 86 63 264 47 217 182 160 100 69 60 40 1805 594 102 45 492 336 156 171 149
internal_count=4800 1976 2824 1019 475 455 421 157 128 42 86 63 264 47 217 182 160 100 69 60 40 1805 594 102 45 492 336 156 171 149
is_linear=0
shrinkage=0.03


Tree=30
num_leaves=31
num_cat=0
split_feature=4 4 5 25 24 4 3 5 4 2 19 12 24 24 15 25 15 32 25 32 25 30 19 10 30 31 32 17 15 32
split_gain=108.843 27.6533 27.4266 5.90155 6.91084 7.53311 6.24483 7.76286 12.9274 8.72323 7.33143 6.48383 8.95416 6.32126 7.13853 8.25138 10.9239 6.13044 5.72236 10.7591 11.3689 10.5412 10.3301 9.20977 8.99679 8.88853 7.96207 7.57501 8.6338 7.53866
threshold=-54.7598184073696 -313.90339403345052 1.1416803770879045 1.0000000180025095e-35 49.500000000000007 -535.10375758070882 2065.5508150582687 0.82674146905640089 -366.32085674073022 1698.69189705086 -0.25683934637419847 7.5000000000000009 11.500000000000002 1.5000000000000002 -4.4999999999999991 13.500000000000002 -1.4999999999999998 -1.1325569265719815 15.500000000000002 1.6572439299142057 14.500000000000002 2.424358665831424 0.11157177565710506 9.5000000000000018 3.2367500284317048 0.16638387565714299 1.8921688625291113 -4.4999999999999991 1.5000000000000002 -0.58856710567471537
decision_type=2 2 2 2 2 2 2 2 2 2 2 2 2 2 2 2 2 2 2 2 2 2 2 2 2 2 2 2 2 2
left_child=1 3 -2 -1 5 -5 7 8 13 -9 -8 12 -10 -7 -15 17 -17 -16 19 20 21 22 25 24 -23 27 -20 -3 -29 -27
right_child=2 18 -4 4 -6 6 10 9 11 -11 -12 -13 -14 14 15 16 -18 -19 26 -21 -22 23 -24 -25 -26 29 -28 28 -30 -31
leaf_value=0.025605489393123067 -0.0019039387373847771 -0.02178349762477658 -0.008440768226429269 0.025240748379911696 -0.0027622495207094378 0.00029177884486588566 -0.010692087728530168 0.029620015934802766 -0.0037529673576354983 0.0056382627412676807 0.009293515388414544 -0.010228672085269805 0.021126846398996271 0.0061455543215076132 0.038358909850940107 0.02694756681666426 -0.0022913910788686376 0.018163075451739129 0.0018916268127771158 0.023615911685758165 0.022838075674813368 0.019362534517049789 0.0059426167851953362 0.029890987277030944 -0.0069421192190863871 0.016484827237824597 -0.015728280264884233 0.0011881722119592483 -0.01305789126862179 0.00059539277387677498
leaf_weight=26 2014 22 810 35 31 22 24 43 30 20 53 31 23 36 31 23 23 24 603 27 29 25 402 24 22 36 24 126 55 106
leaf_count=26 2014 22 810 35 31 22 24 43 30 20 53 31 23 36 31 23 23 24 603 27 29 25 402 24 22 36 24 126 55 106
internal_value=-4.32977e-11 0.00540058 -0.00377888 0.0117094 0.0109047 0.0119183 0.0107008 0.0126224 0.0101894 0.0220068 0.00306424 0.000669519 0.00704393 0.0152188 0.0176159 0.0217043 0.0123281 0.0295462 0.00340414 0.00497304 0.00437876 0.00372434 0.00267441 0.0147707 0.00704972 -0.00113376 0.00121718 -0.00516114 -0.00314074 0.0046237
internal_weight=4800 1976 2824 475 449 418 383 306 243 63 77 84 53 159 137 101 46 55 1501 874 847 818 747 71 47 345 627 203 181 142
internal_count=4800 1976 2824 475 449 418 383 306 243 63 77 84 53 159 137 101 46 55 1501 874 847 818 747 71 47 345 627 203 181 142
is_linear=0
shrinkage=0.03


Tree=31
num_leaves=31
num_cat=0
split_feature=5 5 5 18 17 2 25 3 3 30 25 3 2 29 22 9 29 2 2 30 29 0 26 3 23 13 2 16 22 22
split_gain=102.578 30.8869 22.5903 8.14301 7.96146 7.53809 8.58515 7.3125 9.81604 7.21928 7.17346 7.39939 8.82828 9.95333 7.29904 8.65059 13.1001 14.7359 10.9179 12.2377 9.78326 7.07864 7.27141 6.7853 6.76522 6.76364 6.50875 6.4522 11.0662 7.3817
threshold=0.9916469634861832 0.85579765774666927 1.1818569134066401 0.24264705882352941 11.500000000000002 1607.05870462244 16.500000000000004 2041.2423569807891 2016.2974797566073 6.2237208795753007 1.0000000180025095e-35 1819.0645048266158 1508.4163244339945 -3.566666666666666 0.38675213675213677 4.5000000000000009 -1.05 1737.1211170259812 1615.9645089888547 4.0988070503510441 -1.8166666666666662 1.0000000180025095e-35 -12.499999999999998 1696.2209114208256 0.88194444444444453 10.500000000000002 1646.2889240748714 7.5000000000000009 1.6833333333333336 1.1180555555555558
decision_type=2 2 2 2 2 2 2 2 2 2 2 2 2 2 2 2 2 2 2 2 2 2 2 2 2 2 2 2 2 2
left_child=1 3 4 -1 5 6 25 8 -3 -7 -5 -12 -13 -14 -15 24 20 18 19 21 -17 -18 -23 -11 -16 -2 -20 28 29 -9
right_child=2 7 -4 10 -6 9 -8 27 -10 23 11 12 13 14 15 16 17 -19 26 -21 -22 22 -24 -25 -26 -27 -28 -29 -30 -31
leaf_value=0.022879577331721433 0.021060318811796604 0.0023847054770174841 -0.0098383054929406279 0.023640479713678358 -0.01307628647034737 -0.003143006730121366 -0.0046103784632445738 0.0014736420458013361 -0.01030211222014929 0.022046618834137915 -0.003685281850942751 0.020690143616183806 -0.0052274071276187896 -0.0057502444776204916 0.011341873744677286 0.010634849197231233 0.022346849292516707 -0.015700387734174731 0.026906206780113278 -0.01881841715052724 0.038673304105177525 0.018457623083483088 -0.0010438057568065728 -0.0013971210569143295 0.031171862999908626 0.00049998325062915682 0.010868472210308419 0.022585968093739615 -0.006964784165223439 0.024352219387888906
leaf_weight=43 36 1481 506 30 65 1800 44 22 57 20 41 57 45 26 32 24 21 25 32 20 21 22 79 25 30 24 79 27 36 30
leaf_count=43 36 1481 506 30 65 1800 44 22 57 20 41 57 45 26 32 24 21 25 32 20 21 22 79 25 30 24 79 27 36 30
internal_value=1.02002e-11 0.00461063 -0.00417152 0.0102801 -0.00274779 -0.00240333 0.00545495 0.00246014 0.00191452 -0.00284629 0.00935241 0.00857869 0.00955885 0.00816744 0.00963403 0.010673 0.00870278 0.00627202 0.0084432 0.00293326 0.0237195 0.00649911 0.00320403 0.00902232 0.020937 0.0128362 0.015492 0.00975718 0.00582107 0.0146728
internal_weight=4800 2280 2520 627 2014 1949 104 1653 1538 1845 584 554 513 456 411 385 323 278 253 142 45 122 101 45 62 60 111 115 88 52
internal_count=4800 2280 2520 627 2014 1949 104 1653 1538 1845 584 554 513 456 411 385 323 278 253 142 45 122 101 45 62 60 111 115 88 52
is_linear=0
shrinkage=0.03


Tree=32
num_leaves=31
num_cat=0
split_feature=5 5 5 24 18 4 14 25 4 32 3 4 22 29 29 19 33 12 26 24 25 29 3 2 2 30 16 23 12 5
split_gain=96.6642 25.8324 23.4949 10.3724 7.66176 7.21201 7.16182 7.67753 7.33382 7.0537 9.19523 7.47093 7.1836 7.48207 19.2459 7.88892 6.9298 7.53738 7.33685 8.47172 6.74951 6.96644 7.43841 8.71027 6.61629 7.88957 6.29013 6.28134 15.2894 8.02418
threshold=0.97562021912886576 0.85579765774666927 1.1818569134066401 27.500000000000004 0.24264705882352941 118.94828134498654 11.500000000000002 11.500000000000002 -44.837253449651364 -2.9771533285304952 1955.616461500487 -196.85755929089507 1.8660714285714286 1.7500000000000002 3.1166666666666676 1.064115852924634 1.0800000000000003 4.5000000000000009 34.500000000000007 58.500000000000007 1.0000000180025095e-35 -2.7666666666666662 1819.0645048266158 1737.1211170259812 1773.6351718884391 0.24629016530117923 -5.4999999999999991 0.46410256410256417 10.500000000000002 0.84635136256177002
decision_type=2 2 2 2 2 2 2 2 2 2 2 2 2 2 2 2 2 2 2 2 2 2 2 2 2 2 2 2 2 2
left_child=1 4 5 6 -1 -2 8 -8 9 -3 11 -11 13 15 -15 24 18 -18 -5 -20 -6 -22 -23 26 25 -13 -24 28 -28 -29
right_child=2 3 -4 16 20 -7 7 -9 -10 10 -12 12 -14 14 -16 -17 17 -19 19 -21 21 22 23 -25 -26 -27 27 29 -30 -31
leaf_value=0.022193189846828231 -0.00079436127500065684 0.017702355086803435 -0.0095431568606097715 -0.001671857602894306 0.022931264922022819 -0.0042213228025742462 0.0041426459072451838 0.023922008953311223 0.021469794988632201 0.010129698660969735 -0.0033105249330401421 0.0044559522007948877 -0.011398387027363623 0.032996924840486969 -0.00049976853555754616 -0.0088482618145644659 0.0024844110789982708 -0.0098919366901432434 0.026247686615044421 0.0017380600348114966 -0.0008263228156349875 -0.0033726896224795162 -0.0045861611118307331 -0.0037540781519242688 0.01260014766887311 -0.0049837085696042708 -0.0088279554309944313 0.012605017177304442 0.021036480783174431 0.027087324777474771
leaf_weight=43 1194 29 506 105 30 1029 38 33 20 150 186 321 31 26 38 52 68 127 22 30 66 37 20 35 62 106 36 294 27 39
leaf_count=43 1194 29 506 105 30 1029 38 33 20 150 186 321 31 26 38 52 68 127 22 30 66 37 20 35 62 106 36 294 27 39
internal_value=-5.83896e-11 0.00488703 -0.0037087 0.00267921 0.00997171 -0.00238066 0.00412278 0.0133359 0.0034821 0.00312271 0.00268772 0.00410715 0.00268674 0.00340846 0.0131083 0.00226097 -0.00179912 -0.00557608 0.00289201 0.0121075 0.00907184 0.00832133 0.00955851 0.0106194 0.00344232 0.00211262 0.0118287 0.0126577 0.00397109 0.0143011
internal_weight=4800 2071 2729 1444 627 2223 1092 71 1021 1001 972 786 636 605 64 541 352 195 157 52 584 554 488 451 489 427 416 396 63 333
internal_count=4800 2071 2729 1444 627 2223 1092 71 1021 1001 972 786 636 605 64 541 352 195 157 52 584 554 488 451 489 427 416 396 63 333
is_linear=0
shrinkage=0.03


Tree=33
num_leaves=31
num_cat=0
split_feature=4 5 4 4 32 19 4 26 25 24 3 15 3 9 3 29 29 9 26 32 23 26 9 3 32 2 24 17 25 2
split_gain=91.2691 23.5109 23.1492 6.13056 5.68056 8.23564 7.34302 7.71258 7.20439 8.36578 6.06243 13.0289 9.0885 5.72244 7.55457 6.23931 6.62071 7.78953 8.02233 6.04091 5.45978 10.7088 6.99517 6.16912 12.0605 7.7591 9.43528 8.80937 10.1697 7.64389
threshold=-54.7598184073696 1.118696292054687 -313.90339403345052 426.3751347389653 0.53835203406092913 0.65609319448308456 -419.86114968101009 21.500000000000004 21.500000000000004 12.500000000000002 2049.1806530931613 -3.4999999999999996 2094.5417108613506 8.5000000000000018 1997.9579009056222 -1.3499999999999999 -0.41666666666666657 6.5000000000000009 -4.4999999999999991 -1.778536180646326 2.5500000000000003 -2.4999999999999996 5.5000000000000009 1786.4115960173929 0.50621291865094853 1698.69189705086 13.500000000000002 -3.4999999999999996 11.500000000000002 1690.7143172094482
decision_type=2 2 2 2 2 2 2 2 2 2 2 2 2 2 2 2 2 2 2 2 2 2 2 2 2 2 2 2 2 2
left_child=2 -2 4 -3 5 6 7 8 10 -10 11 -1 -12 15 -15 -8 -17 18 -18 -19 23 -22 -23 24 -4 29 27 28 -27 -25
right_child=1 3 20 -5 -6 -7 13 -9 9 -11 12 -13 -14 14 -16 16 17 19 -20 -21 21 22 -24 25 -26 26 -28 -29 -30 -31
