{
  "features_info":
    {
      "float_features":
        [
          {
            "borders":
              [
                0.5
              ],
            "feature_id":"is_home",
            "feature_index":0,
            "flat_feature_index":0,
            "has_nans":false,
            "nan_value_treatment":"AsIs"
          },
          {
            "borders":
              [
                0.5
              ],
            "feature_id":"neutral",
            "feature_index":1,
            "flat_feature_index":1,
            "has_nans":false,
            "nan_value_treatment":"AsIs"
          },
          {
            "borders":
              [
                1510.869873046875,
                1539.616943359375,
                1553.40478515625,
                1561.89111328125,
                1573.734619140625,
                1591.9759521484375,
                1602.755615234375,
                1605.01708984375,
                1614.046142578125,
                1618.260986328125,
                1628.62255859375,
                1630.90283203125,
                1633.152099609375,
                1641.6484375,
                1646.7569580078125,
                1649.137939453125,
                1658.492431640625,
                1660.943359375,
                1678.197265625,
                1684.3446044921875,
                1690.159423828125,
                1692.27294921875,
                1694.6527099609375,
                1700.08349609375,
                1707.197509765625,
                1713.069580078125,
                1721.316650390625,
                1726.08154296875,
                1732.6810302734375,
                1736.27685546875,
                1739.908203125,
                1764.572021484375,
                1822.375244140625,
                1857.60205078125,
                1875.6707763671875,
                1879.10986328125,
                1883.5130615234375,
                1886.67724609375,
                1896.68017578125,
                1979.9176025390625
              ],
            "feature_id":"elo_team",
            "feature_index":2,
            "flat_feature_index":2,
            "has_nans":false,
            "nan_value_treatment":"AsIs"
          },
          {
            "borders":
              [
                1549.730224609375,
                1566.644287109375,
                1710.247314453125,
                1714.91650390625,
                1739.571044921875,
                1755.7041015625,
                1772.642333984375,
                1783.43359375,
                1790.339111328125,
                1792.5078125,
                1794.790283203125,
                1804.17041015625,
                1809.84619140625,
                1812.987060546875,
                1820.62890625,
                1823.871826171875,
                1829.129150390625,
                1832.3660888671875,
                1893.4700927734375,
                1898.1563720703125,
                1911.8419189453125,
                1916.50146484375,
                1918.4332275390625,
                1921.87939453125,
                1936.356689453125,
                1956.4215087890625,
                1962.12109375,
                1976.4443359375,
                1978.487060546875,
                1986.7001953125,
                2012.18994140625,
                2020.14697265625,
                2027.362548828125,
                2030.691162109375,
                2035.169189453125,
                2039.99609375,
                2046.5635986328125,
                2051.54541015625,
                2093.25732421875
              ],
            "feature_id":"elo_opponent",
            "feature_index":3,
            "flat_feature_index":3,
            "has_nans":false,
            "nan_value_treatment":"AsIs"
          },
          {
            "borders":
              [
                -538.0155029296875,
                -492.81097412109375,
                -463.46795654296875,
                -450.41015625,
                -432.95199584960938,
                -410.59225463867188,
                -402.34393310546875,
                -392.9100341796875,
                -362.35958862304688,
                -345.1259765625,
                -338.02975463867188,
                -321.08489990234375,
                -316.65829467773438,
                -300.25802612304688,
                -296.91738891601563,
                -281.4429931640625,
                -278.41574096679688,
                -265.23458862304688,
                -258.11245727539063,
                -226.41374206542969,
                -211.14170837402344,
                -202.40847778320313,
                -96.900543212890625,
                -61.516929626464844,
                -55.910285949707031,
                -54.169605255126953,
                -51.666477203369141,
                -38.550765991210938,
                -31.688739776611328,
                -26.716306686401367,
                -24.688840866088867,
                -15.098586082458496,
                -12.814685821533203,
                -0.75336021184921265,
                75.522689819335938,
                81.761398315429688,
                83.036705017089844,
                90.29290771484375,
                94.440719604492188,
                101.87818908691406,
                108.48475646972656,
                112.89990234375,
                115.69929504394531,
                118.3701171875,
                132.78297424316406,
                137.65121459960938,
                166.3597412109375,
                175.5828857421875,
                186.31707763671875,
                207.37799072265625,
                230.84689331054688,
                239.61344909667969,
                243.69290161132813,
                250.99063110351563,
                263.97052001953125,
                268.82550048828125,
                270.8199462890625,
                282.164794921875,
                298.56646728515625,
                307.8287353515625,
                334.72821044921875,
                348.781982421875,
                361.85873413085938,
                393.5234375,
                410.22097778320313
              ],
            "feature_id":"elo_diff",
            "feature_index":4,
            "flat_feature_index":4,
            "has_nans":false,
            "nan_value_treatment":"AsIs"
          },
          {
            "borders":
              [
                0.77087283134460449,
                0.77631223201751709,
                0.79656285047531128,
                0.80120480060577393,
                0.80975985527038574,
                0.83553659915924072,
                0.84533047676086426,
                0.84727823734283447,
                0.85492897033691406,
                0.86482846736907959,
                0.86688804626464844,
                0.87001019716262817,
                0.87105584144592285,
                0.87250584363937378,
                0.88049590587615967,
                0.88200664520263672,
                0.89112138748168945,
                0.8972703218460083,
                0.89894282817840576,
                0.91087162494659424,
                0.92755985260009766,
                0.9454188346862793,
                0.9649205207824707,
                0.96638524532318115,
                0.96804732084274292,
                0.96942329406738281,
                0.97094184160232544,
                0.97817707061767578,
                0.98134720325469971,
                0.98741734027862549,
                1.0142557621002197,
                1.0267994403839111,
                1.0285575389862061,
                1.0491695404052734,
                1.0509724617004395,
                1.0527651309967041,
                1.0539181232452393,
                1.0584216117858887,
                1.0674819946289063,
                1.0740666389465332,
                1.0814154148101807,
                1.092296838760376,
                1.0966587066650391,
                1.1126624345779419,
                1.1233036518096924,
                1.1262069940567017,
                1.1285773515701294,
                1.1301689147949219,
                1.1371434926986694,
                1.1420600414276123,
                1.1440973281860352,
                1.1516191959381104,
                1.1654291152954102,
                1.176744818687439,
                1.1784418821334839,
                1.1817407608032227,
                1.2086844444274902,
                1.224855899810791,
                1.2402920722961426,
                1.246349573135376,
                1.2517579793930054,
                1.2672703266143799
              ],
            "feature_id":"elo_ratio",
            "feature_index":5,
            "flat_feature_index":5,
            "has_nans":false,
            "nan_value_treatment":"AsIs"
          },
          {
            "borders":
              [
                0.564797043800354,
                0.5682564377784729,
                0.57147258520126343,
                0.5745394229888916,
                0.58587527275085449,
                0.5907747745513916,
                0.59437042474746704,
                0.61151027679443359,
                0.61371332406997681,
                0.6148371696472168,
                0.6156919002532959,
                0.61654889583587646,
                0.61784636974334717,
                0.62046349048614502,
                0.62516742944717407,
                0.62841224670410156,
                0.63153553009033203,
                0.63315939903259277,
                0.64129734039306641,
                0.6475595235824585,
                0.64964145421981812,
                0.65276634693145752,
                0.66203147172927856,
                0.66719579696655273,
                0.67386090755462646,
                0.67545181512832642,
                0.67619693279266357,
                0.67704182863235474,
                0.67774081230163574,
                0.68131101131439209,
                0.68217575550079346,
                0.68534344434738159,
                0.68683600425720215,
                0.6908954381942749,
                0.69326913356781006,
                0.71655011177062988,
                0.71918773651123047,
                0.72548532485961914,
                0.72879314422607422,
                0.72951120138168335,
                0.73437762260437012,
                0.74260669946670532,
                0.74698173999786377,
                0.75092166662216187,
                0.75545382499694824,
                0.75620126724243164,
                0.76032763719558716,
                0.76176798343658447,
                0.77085971832275391,
                0.77637624740600586,
                0.77860987186431885,
                0.78180968761444092,
                0.78661251068115234,
                0.79017472267150879,
                0.79350388050079346
              ],
            "feature_id":"elo_ratio_log",
            "feature_index":6,
            "flat_feature_index":6,
            "has_nans":false,
            "nan_value_treatment":"AsIs"
          },
          {
            "borders":
              [
                0.5
              ],
            "feature_id":"team_has_history",
            "feature_index":7,
            "flat_feature_index":7,
            "has_nans":false,
            "nan_value_treatment":"AsIs"
          },
          {
            "borders":
              [
                0.5
              ],
            "feature_id":"opp_has_history",
            "feature_index":8,
            "flat_feature_index":8,
            "has_nans":false,
            "nan_value_treatment":"AsIs"
          },
          {
            "borders":
              [
                2.5,
                3.5,
                5.5,
                11.5,
                12.5,
                13.5,
                16.5
              ],
            "feature_id":"team_last5_scored",
            "feature_index":9,
            "flat_feature_index":9,
            "has_nans":false,
            "nan_value_treatment":"AsIs"
          },
          {
            "borders":
              [
                1.5,
                3.5,
                4.5,
                5.5,
                6.5,
                7.5,
                8.5,
                9.5,
                10.5,
                11.5,
                16.5
              ],
            "feature_id":"team_last5_conceded",
            "feature_index":10,
            "flat_feature_index":10,
            "has_nans":false,
            "nan_value_treatment":"AsIs"
          },
          {
            "borders":
              [
                1.5,
                3.5,
                4.5,
                5.5,
                6.5,
                7.5,
                9.5,
                11.5,
                12.5,
                14
              ],
            "feature_id":"team_last5_points",
            "feature_index":11,
            "flat_feature_index":11,
            "has_nans":false,
            "nan_value_treatment":"AsIs"
          },
          {
            "borders":
              [
                0.5,
                3.5,
                4.5,
                5.5,
                7.5,
                8.5,
                9.5,
                10.5,
                12.5,
                13.5,
                14.5,
                15.5,
                18.5
              ],
            "feature_id":"opp_last5_scored",
            "feature_index":12,
            "flat_feature_index":12,
            "has_nans":false,
            "nan_value_treatment":"AsIs"
          },
          {
            "borders":
              [
                1.5,
                2.5,
                3.5,
                4.5,
                5.5,
                6.5,
                9.5,
                10.5,
                12.5,
                13.5,
                15.5,
                17.5,
                20.5
              ],
            "feature_id":"opp_last5_conceded",
            "feature_index":13,
            "flat_feature_index":13,
            "has_nans":false,
            "nan_value_treatment":"AsIs"
          },
          {
            "borders":
              [
                0.5,
                2.5,
                3.5,
                4.5,
                5.5,
                6.5,
                7.5,
                8.5,
                9.5,
                10.5,
                11.5,
                12.5,
                14
              ],
            "feature_id":"opp_last5_points",
            "feature_index":14,
            "flat_feature_index":14,
            "has_nans":false,
            "nan_value_treatment":"AsIs"
          },
          {
            "borders":
              [
                -14.5,
                -12.5,
                -11.5,
                -10.5,
                -4.5,
                -3.5,
                0.5,
                4.5,
                7.5,
                8.5,
                10.5,
                12.5,
                16.5
              ],
            "feature_id":"team_last5_gd",
            "feature_index":15,
            "flat_feature_index":15,
            "has_nans":false,
            "nan_value_treatment":"AsIs"
          },
          {
            "borders":
              [
                -6.5,
                -3.5,
                -2.5,
                -1.5,
                -0.5,
                1.5,
                3.5,
                5.5,
                6.5,
                7.5,
                9.5,
                10.5,
                11.5,
                12.5
              ],
            "feature_id":"opp_last5_gd",
            "feature_index":16,
            "flat_feature_index":16,
            "has_nans":false,
            "nan_value_treatment":"AsIs"
          },
          {
            "borders":
              [
                -11.5,
                -10.5,
                -9.5,
                -8.5,
                -7.5,
                -6.5,
                -3.5,
                2.5,
                10.5,
                11.5,
                13.5
              ],
            "feature_id":"form_diff",
            "feature_index":17,
            "flat_feature_index":17,
            "has_nans":false,
            "nan_value_treatment":"AsIs"
          },
          {
            "borders":
              [
                0.24264705181121826,
                0.26969698071479797,
                0.32051283121109009,
                0.40588235855102539,
                0.74166667461395264,
                0.80909091234207153,
                1.174242377281189,
                1.7638888359069824,
                2.2249999046325684,
                3.0999999046325684,
                3.2916665077209473,
                5.75
              ],
            "feature_id":"form_ratio",
            "feature_index":18,
            "flat_feature_index":18,
            "has_nans":false,
            "nan_value_treatment":"AsIs"
          },
          {
            "borders":
              [
                -1.1913139820098877,
                -1.1709029674530029,
                -0.9962151050567627,
                -0.65609323978424072,
                -0.58157539367675781,
                -0.54930615425109863,
                -0.23215280473232269,
                0.091160774230957031,
                0.1606023907661438,
                0.19149613380432129,
                0.2568393349647522,
                0.39007925987243652,
                0.46099436283111572,
                0.65609323978424072,
                0.81880438327789307,
                1.8317809104919434
              ],
            "feature_id":"form_ratio_log",
            "feature_index":19,
            "flat_feature_index":19,
            "has_nans":false,
            "nan_value_treatment":"AsIs"
          },
          {
            "borders":
              [
                1.0138062238693237,
                1.0297126770019531,
                1.0613173246383667,
                1.063266396522522,
                1.0803189277648926,
                1.0857483148574829,
                1.0994253158569336,
                1.1015065908432007,
                1.1160006523132324,
                1.1217107772827148,
                1.1281819343566895,
                1.1297684907913208,
                1.1310646533966064,
                1.1320309638977051,
                1.1333889961242676,
                1.134333610534668,
                1.1351163387298584,
                1.1362590789794922,
                1.1402356624603271,
                1.1430690288543701,
                1.1475445032119751,
                1.2057244777679443,
                1.2066422700881958,
                1.2302451133728027,
                1.2644534111022949,
                1.3240268230438232,
                1.3299053907394409
              ],
            "feature_id":"team_strength_proxy",
            "feature_index":20,
            "flat_feature_index":20,
            "has_nans":false,
            "nan_value_treatment":"AsIs"
          },
          {
            "borders":
              [
                1.0299769639968872,
                1.1376855373382568,
                1.1562142372131348,
                1.166959285736084,
                1.1689083576202393,
                1.1763330698013306,
                1.1898714303970337,
                1.1950051784515381,
                1.1965267658233643,
                1.2001643180847168,
                1.2040135860443115,
                1.209728479385376,
                1.2234776020050049,
                1.2246763706207275,
                1.2298887968063354,
                1.2335209846496582,
                1.2428112030029297,
                1.2497134208679199,
                1.2541093826293945,
                1.2572050094604492,
                1.2681493759155273,
                1.2998404502868652,
                1.3176295757293701,
                1.3244668245315552,
                1.3300266265869141,
                1.3374841213226318,
                1.3395116329193115,
                1.3414599895477295,
                1.3599975109100342,
                1.3619265556335449,
                1.4120597839355469
              ],
            "feature_id":"opp_strength_proxy",
            "feature_index":21,
            "flat_feature_index":21,
            "has_nans":false,
            "nan_value_treatment":"AsIs"
          },
          {
            "borders":
              [
                0.12916666269302368,
                0.17156863212585449,
                0.36038962006568909,
                0.3779761791229248,
                0.44097220897674561,
                0.57518798112869263,
                0.59411764144897461,
                0.60555553436279297,
                0.61324787139892578,
                0.62828946113586426,
                0.6449580192565918,
                0.6899038553237915,
                0.74166667461395264,
                1.174242377281189,
                1.2111110687255859,
                1.4772727489471436,
                1.7386363744735718,
                1.894444465637207,
                2.3095238208770752,
                4.75,
                5.5833330154418945,
                5.8333330154418945
              ],
            "feature_id":"attack_strength",
            "feature_index":22,
            "flat_feature_index":22,
            "has_nans":false,
            "nan_value_treatment":"AsIs"
          },
          {
            "borders":
              [
                0.32291668653488159,
                0.3452380895614624,
                0.37980771064758301,
                0.4226190447807312,
                0.56696426868438721,
                0.60769236087799072,
                0.62019228935241699,
                0.63068181276321411,
                0.6396104097366333,
                0.6547619104385376,
                0.71008408069610596,
                0.73863637447357178,
                0.85164833068847656,
                0.90454542636871338,
                1.0750000476837158,
                1.5277777910232544,
                1.5634920597076416,
                1.7321429252624512,
                1.8166666030883789,
                1.8452380895614624,
                2.6333332061767578
              ],
            "feature_id":"defense_pressure",
            "feature_index":23,
            "flat_feature_index":23,
            "has_nans":false,
            "nan_value_treatment":"AsIs"
          },
          {
            "borders":
              [
                4.5,
                7.5,
                9.5,
                10.5,
                12.5,
                13.5,
                15.5,
                16.5,
                17.5,
                18.5,
                19.5,
                22.5,
                24.5,
                26.5,
                29.5,
                31.5,
                36.5,
                37.5,
                38.5,
                48.5,
                50.5,
                51.5,
                52.5,
                53.5,
                56.5,
                57.5,
                59.5
              ],
            "feature_id":"team_rest_days",
            "feature_index":24,
            "flat_feature_index":24,
            "has_nans":false,
            "nan_value_treatment":"AsIs"
          },
          {
            "borders":
              [
                0.5,
                1.5,
                5.5,
                7.5,
                10.5,
                13.5,
                15.5,
                16.5,
                17.5,
                18.5,
                20.5,
                23.5,
                26.5,
                28.5,
                29.5,
                31.5,
                33.5,
                35.5,
                39.5,
                42.5,
                49.5,
                54.5,
                55.5
              ],
            "feature_id":"opp_rest_days",
            "feature_index":25,
            "flat_feature_index":25,
            "has_nans":false,
            "nan_value_treatment":"AsIs"
          },
          {
            "borders":
              [
                -50.5,
                -45.5,
                -36.5,
                -33.5,
                -20.5,
                -14.5,
                -7.5,
                -6.5,
                -0.5,
                12.5,
                14.5,
                18.5,
                20.5,
                25.5,
                28.5,
                30.5,
                36.5,
                50.5
              ],
            "feature_id":"rest_diff",
            "feature_index":26,
            "flat_feature_index":26,
            "has_nans":false,
            "nan_value_treatment":"AsIs"
          },
          {
            "borders":
              [
                0.5
              ],
            "feature_id":"rest_advantage",
            "feature_index":27,
            "flat_feature_index":27,
            "has_nans":false,
            "nan_value_treatment":"AsIs"
          },
          {
            "borders":
              [
                -1.5499999523162842,
                -1.4166666269302368,
                -0.78333330154418945,
                -0.51666665077209473,
                -0.11666667461395264,
                0.21666666865348816,
                0.35000002384185791,
                0.51666665077209473,
                0.61666667461395264,
                0.88333332538604736,
                1.1499999761581421,
                1.1833333969116211,
                1.2166666984558105,
                1.6833333969116211
              ],
            "feature_id":"rest_diff_scaled",
            "feature_index":28,
            "flat_feature_index":28,
            "has_nans":false,
            "nan_value_treatment":"AsIs"
          },
          {
            "borders":
              [
                -10.233333587646484,
                -3.9833333492279053,
                -2.4333333969116211,
                -1.5166666507720947,
                -0.75,
                -0.58333337306976318,
                0.050000004470348358,
                0.44999998807907104,
                0.91666662693023682,
                1.2833333015441895,
                1.5166666507720947,
                1.5833333730697632,
                1.8833333253860474,
                2.1166667938232422,
                2.3166666030883789,
                2.8166666030883789,
                7.4333333969116211,
                8.0833339691162109
              ],
            "feature_id":"rest_x_form",
            "feature_index":29,
            "flat_feature_index":29,
            "has_nans":false,
            "nan_value_treatment":"AsIs"
          },
          {
            "borders":
              [
                -1.9026755094528198,
                -1.5761336088180542,
                -1.1182610988616943,
                -1.0727906227111816,
                -0.94132614135742188,
                -0.8021094799041748,
                -0.76534402370452881,
                -0.74631261825561523,
                -0.68881601095199585,
                -0.57133853435516357,
                0.31054133176803589,
                0.36620095372200012,
                0.98627960681915283,
                1.0214200019836426,
                1.3684266805648804,
                1.6881833076477051,
                1.9321843385696411,
                2.0917015075683594,
                2.578211784362793,
                2.6464118957519531,
                3.5836982727050781,
                3.6418285369873047,
                4.8276333808898926,
                5.6320476531982422,
                7.5669212341308594,
                8.6344242095947266,
                10.946660995483398,
                11.104043960571289,
                12.274503707885742,
                13.420507431030273
              ],
            "feature_id":"form_x_elo",
            "feature_index":30,
            "flat_feature_index":30,
            "has_nans":false,
            "nan_value_treatment":"AsIs"
          },
          {
            "borders":
              [
                0.057025361806154251,
                0.12783056497573853,
                0.14402720332145691,
                0.16638386249542236,
                0.19283553957939148,
                0.25097006559371948,
                0.26471808552742004,
                0.32225194573402405,
                0.38641321659088135,
                0.42677798867225647,
                0.45249933004379272,
                0.46495932340621948,
                0.49578973650932312,
                0.5165138840675354,
                0.57322204113006592,
                0.59734040498733521,
                0.87216943502426147
              ],
            "feature_id":"h2h_weighted_win_rate",
            "feature_index":31,
            "flat_feature_index":31,
            "has_nans":false,
            "nan_value_treatment":"AsIs"
          },
          {
            "borders":
              [
                -5.1931757926940918,
                -4.0587053298950195,
                -2.8102502822875977,
                -2.6869373321533203,
                -2.2651128768920898,
                -1.9591590166091919,
                -1.7785360813140869,
                -1.7331612110137939,
                -1.5257667303085327,
                -1.3493564128875732,
                -1.0476672649383545,
                -1.0003242492675781,
                -0.66124224662780762,
                -0.52677744626998901,
                -0.23547369241714478,
                -0.069578662514686584,
                -0.039388284087181091,
                0.66828173398971558,
                0.72152698040008545,
                0.86828100681304932,
                1.048650860786438,
                1.0932538509368896,
                1.4735262393951416
              ],
            "feature_id":"h2h_weighted_gd",
            "feature_index":32,
            "flat_feature_index":32,
            "has_nans":false,
            "nan_value_treatment":"AsIs"
          },
          {
            "borders":
              [
                1.0800000429153442,
                1.5,
                1.8999999761581421
              ],
            "feature_id":"tournament_weight",
            "feature_index":33,
            "flat_feature_index":33,
            "has_nans":false,
            "nan_value_treatment":"AsIs"
          },
          {
            "borders":
              [
                0.5
              ],
            "feature_id":"is_major_tournament",
            "feature_index":34,
            "flat_feature_index":34,
            "has_nans":false,
            "nan_value_treatment":"AsIs"
          }
        ]
    },
  "model_info":
    {
      "catboost_version_info":"Git info:\n    Commit: b1bd2a6d77219e82a1acfcedfccb8e6f6c1ee084\n    Branch: tags/v1.2.10\n    Author: akhropov <akhropov@yandex-team.com>\n    Summary: CatBoost release 1.2.10. commit_hash:f8e0038b19555d36a9ba7b81b6730254b352960d\n    git-svn info:\n    Last Changed Rev: 9293085\n\nOther info:\n    Build by: Unknown user\n    Top src dir: /src/catboost\n",
      "model_guid":"996e71ec-b4e3d7c6-a4a46c62-c9ab6997",
      "output_options":"{\"name\":\"experiment\",\"verbose\":0,\"test_error_log\":\"test_error.tsv\",\"json_log\":\"catboost_training.json\",\"result_model_file\":\"model\",\"roc_file\":\"\",\"eval_file_name\":\"\",\"use_best_model\":true,\"allow_writing_files\":true,\"prediction_type\":[\"RawFormulaVal\"],\"fstr_internal_file\":\"\",\"output_columns\":[\"SampleId\",\"RawFormulaVal\",\"Label\"],\"snapshot_interval\":600,\"time_left_log\":\"time_left.tsv\",\"fstr_type\":\"FeatureImportance\",\"profile_log\":\"catboost_profile.log\",\"train_dir\":\"catboost_info\",\"learn_error_log\":\"learn_error.tsv\",\"training_options_file\":\"\",\"snapshot_file\":\"experiment.cbsnapshot\",\"save_snapshot\":false,\"model_format\":[\"CatboostBinary\"],\"final_feature_calcer_computation_mode\":\"Default\",\"metric_period\":1,\"output_borders\":\"\",\"final_ctr_computation_mode\":\"Default\",\"best_model_min_trees\":1,\"fstr_regular_file\":\"\"}",
      "params":
        {
          "boosting_options":
            {
              "approx_on_full_history":false,
              "boost_from_average":true,
              "boosting_type":"Plain",
              "fold_len_multiplier":2,
              "fold_permutation_block":0,
              "iterations":1000,
              "learning_rate":0.029999999329447743,
              "model_shrink_mode":"Constant",
              "model_shrink_rate":0,
              "od_config":
                {
                  "stop_pvalue":0,
                  "type":"None",
                  "wait_iterations":20
                },
              "permutation_count":4,
              "posterior_sampling":false
            },
          "cat_feature_params":
            {
              "combinations_ctrs":
                [
                  {
                    "ctr_binarization":
                      {
                        "border_count":15,
                        "border_type":"Uniform"
                      },
                    "ctr_type":"Borders",
                    "prior_estimation":"No",
                    "priors":
                      [
                        [
                          0,
                          1
                        ],
                        [
                          0.5,
                          1
                        ],
                        [
                          1,
                          1
                        ]
                      ],
                    "target_binarization":
                      {
                        "border_count":1,
                        "border_type":"MinEntropy"
                      }
                  },
                  {
                    "ctr_binarization":
                      {
                        "border_count":15,
                        "border_type":"Uniform"
                      },
                    "ctr_type":"Counter",
                    "prior_estimation":"No",
                    "priors":
                      [
                        [
                          0,
                          1
                        ]
                      ]
                  }
                ],
              "counter_calc_method":"SkipTest",
              "ctr_leaf_count_limit":18446744073709551615,
              "max_ctr_complexity":4,
              "one_hot_max_size":2,
              "per_feature_ctrs":
                {
                },
              "simple_ctrs":
                [
                  {
                    "ctr_binarization":
                      {
                        "border_count":15,
                        "border_type":"Uniform"
                      },
                    "ctr_type":"Borders",
                    "prior_estimation":"No",
                    "priors":
                      [
                        [
                          0,
                          1
                        ],
                        [
                          0.5,
                          1
                        ],
                        [
                          1,
                          1
                        ]
                      ],
                    "target_binarization":
                      {
                        "border_count":1,
                        "border_type":"MinEntropy"
                      }
                  },
                  {
                    "ctr_binarization":
                      {
                        "border_count":15,
                        "border_type":"Uniform"
                      },
                    "ctr_type":"Counter",
                    "prior_estimation":"No",
                    "priors":
                      [
                        [
                          0,
                          1
                        ]
                      ]
                  }
                ],
              "store_all_simple_ctr":false,
              "target_binarization":
                {
                  "border_count":1,
                  "border_type":"MinEntropy"
                }
            },
          "data_processing_options":
            {
              "allow_const_label":false,
              "auto_class_weights":"None",
              "class_names":
                [
                ],
              "class_weights":
                [
                ],
              "classes_count":0,
              "dev_default_value_fraction_for_sparse":0.82999998331069946,
              "dev_group_features":false,
              "dev_leafwise_scoring":false,
              "dev_sparse_array_indexing":"Indices",
              "embedding_processing_options":
                {
                  "embedding_processing":
                    {
                      "default":
                        [
                          "LDA",
                          "KNN"
                        ]
                    }
                },
              "eval_fraction":0,
              "float_features_binarization":
                {
                  "border_count":254,
                  "border_type":"GreedyLogSum",
                  "dev_max_subset_size_for_build_borders":200000,
                  "nan_mode":"Min"
                },
              "force_unit_auto_pair_weights":false,
              "has_time":false,
              "ignored_features":
                [
                ],
              "per_float_feature_quantization":
                {
                },
              "target_border":null,
              "text_processing_options":
                {
                  "dictionaries":
                    [
                      {
                        "dictionary_id":"BiGram",
                        "end_of_sentence_token_policy":"Skip",
                        "end_of_word_token_policy":"Insert",
                        "gram_order":"2",
                        "max_dictionary_size":"50000",
                        "occurrence_lower_bound":"5",
                        "skip_step":"0",
                        "start_token_id":"0",
                        "token_level_type":"Word"
                      },
                      {
                        "dictionary_id":"Word",
                        "end_of_sentence_token_policy":"Skip",
                        "end_of_word_token_policy":"Insert",
                        "gram_order":"1",
                        "max_dictionary_size":"50000",
                        "occurrence_lower_bound":"5",
                        "skip_step":"0",
                        "start_token_id":"0",
                        "token_level_type":"Word"
                      }
                    ],
                  "feature_processing":
                    {
                      "default":
                        [
                          {
                            "dictionaries_names":
                              [
                                "BiGram",
                                "Word"
                              ],
                            "feature_calcers":
                              [
                                "BoW"
                              ],
                            "tokenizers_names":
                              [
                                "Space"
                              ]
                          }
                        ]
                    },
                  "tokenizers":
                    [
                      {
                        "delimiter":" ",
                        "languages":
                          [
                          ],
                        "lemmatizing":"0",
                        "lowercasing":"0",
                        "number_process_policy":"LeaveAsIs",
                        "number_token":"🔢",
                        "separator_type":"ByDelimiter",
                        "skip_empty":"1",
                        "split_by_set":"0",
                        "subtokens_policy":"SingleToken",
                        "token_types":
                          [
                            "Number",
                            "Unknown",
                            "Word"
                          ],
                        "tokenizer_id":"Space"
                      }
                    ]
                }
            },
          "detailed_profile":false,
          "flat_params":
            {
              "depth":6,
              "iterations":1000,
              "learning_rate":0.029999999999999999,
              "loss_function":"RMSE",
              "random_seed":42,
              "verbose":0
            },
          "logging_level":"Silent",
          "loss_function":
            {
              "params":
                {
                },
              "type":"RMSE"
            },
          "metadata":
            {
            },
          "metrics":
            {
              "custom_metrics":
                [
                ],
              "eval_metric":
                {
                  "params":
                    {
                    },
                  "type":"RMSE"
                },
              "objective_metric":
                {
                  "params":
                    {
                    },
                  "type":"RMSE"
                }
            },
          "pool_metainfo_options":
            {
              "tags":
                {
                }
            },
          "random_seed":42,
          "system_options":
            {
              "file_with_hosts":"hosts.txt",
              "node_port":0,
              "node_type":"SingleHost",
              "thread_count":1,
              "used_ram_limit":""
            },
          "task_type":"CPU",
          "tree_learner_options":
            {
              "bayesian_matrix_reg":0.10000000149011612,
              "bootstrap":
                {
                  "mvs_reg":null,
                  "subsample":0.80000001192092896,
                  "type":"MVS"
                },
              "depth":6,
              "dev_efb_max_buckets":1024,
              "dev_leafwise_approxes":false,
              "dev_score_calc_obj_block_size":5000000,
              "grow_policy":"SymmetricTree",
              "l2_leaf_reg":3,
              "leaf_estimation_backtracking":"AnyImprovement",
              "leaf_estimation_iterations":1,
              "leaf_estimation_method":"Newton",
              "max_leaves":64,
              "min_data_in_leaf":1,
              "model_size_reg":0.5,
              "monotone_constraints":
                {
                },
              "penalties":
                {
                  "feature_weights":
                    {
                    },
                  "first_feature_use_penalties":
                    {
                    },
                  "penalties_coefficient":1,
                  "per_object_feature_penalties":
                    {
                    }
                },
              "random_score_type":"NormalWithModelSizeDecrease",
              "random_strength":1,
              "rsm":1,
              "sampling_frequency":"PerTree",
              "score_function":"Cosine",
              "sparse_features_conflict_fraction":0
            }
        },
      "train_finish_time":"2026-06-19T10:47:24Z",
      "training":"{\"metrics\":{\"best_iteration\":151,\"learn_best_error\":{\"RMSE\":0.8064777582181025},\"test_metrics_history\":[[{\"RMSE\":1.2122517688239873}],[{\"RMSE\":1.2055946710703944}],[{\"RMSE\":1.1993960010149076}],[{\"RMSE\":1.1940832378708437}],[{\"RMSE\":1.1883395564762655}],[{\"RMSE\":1.1828347492022941}],[{\"RMSE\":1.1775999498771081}],[{\"RMSE\":1.1726985485048127}],[{\"RMSE\":1.1679919061888073}],[{\"RMSE\":1.1632130458309924}],[{\"RMSE\":1.1586422135547796}],[{\"RMSE\":1.1547665799349514}],[{\"RMSE\":1.1507596051622668}],[{\"RMSE\":1.1474299530817151}],[{\"RMSE\":1.143850737963985}],[{\"RMSE\":1.14041773326378}],[{\"RMSE\":1.1374531845443634}],[{\"RMSE\":1.1341861325874238}],[{\"RMSE\":1.1311105790337022}],[{\"RMSE\":1.1282928102488734}],[{\"RMSE\":1.1257177680292263}],[{\"RMSE\":1.1234690774051421}],[{\"RMSE\":1.1209989314090238}],[{\"RMSE\":1.1189753054756835}],[{\"RMSE\":1.1168623109775189}],[{\"RMSE\":1.1147789177894234}],[{\"RMSE\":1.1130511582173408}],[{\"RMSE\":1.1113973550966352}],[{\"RMSE\":1.1095783173918214}],[{\"RMSE\":1.1077303524942028}],[{\"RMSE\":1.1057221807658986}],[{\"RMSE\":1.1042599556846013}],[{\"RMSE\":1.1028029018871552}],[{\"RMSE\":1.1013396588275244}],[{\"RMSE\":1.1001001094501577}],[{\"RMSE\":1.098832487747085}],[{\"RMSE\":1.0976752515385038}],[{\"RMSE\":1.0967284360276917}],[{\"RMSE\":1.095503586891834}],[{\"RMSE\":1.0944468389177981}],[{\"RMSE\":1.0934231483513017}],[{\"RMSE\":1.092401452124237}],[{\"RMSE\":1.0915320309439327}],[{\"RMSE\":1.0906134505638718}],[{\"RMSE\":1.089752825769872}],[{\"RMSE\":1.0888508767868117}],[{\"RMSE\":1.0881563296615377}],[{\"RMSE\":1.087558636814517}],[{\"RMSE\":1.086903635800853}],[{\"RMSE\":1.0863155628682828}],[{\"RMSE\":1.0857354328566882}],[{\"RMSE\":1.0851118687526295}],[{\"RMSE\":1.0844544761579813}],[{\"RMSE\":1.0840043315028323}],[{\"RMSE\":1.0834393227027432}],[{\"RMSE\":1.082933650947591}],[{\"RMSE\":1.082446745182606}],[{\"RMSE\":1.0818792593170623}],[{\"RMSE\":1.0815139973973182}],[{\"RMSE\":1.0812202478834974}],[{\"RMSE\":1.0808183364556394}],[{\"RMSE\":1.0804746438954727}],[{\"RMSE\":1.080290820055551}],[{\"RMSE\":1.079913256690468}],[{\"RMSE\":1.0796926113014733}],[{\"RMSE\":1.079373471828387}],[{\"RMSE\":1.0789280671222816}],[{\"RMSE\":1.0786058710440727}],[{\"RMSE\":1.0786510584338775}],[{\"RMSE\":1.0783687618116486}],[{\"RMSE\":1.0781124162748028}],[{\"RMSE\":1.077975857521978}],[{\"RMSE\":1.077789846815246}],[{\"RMSE\":1.077737081051303}],[{\"RMSE\":1.0776693067087333}],[{\"RMSE\":1.0775986696501088}],[{\"RMSE\":1.077522498868571}],[{\"RMSE\":1.0772909994596997}],[{\"RMSE\":1.0769871495471943}],[{\"RMSE\":1.0768815011740456}],[{\"RMSE\":1.0767086224083897}],[{\"RMSE\":1.076512522594188}],[{\"RMSE\":1.0763843471899632}],[{\"RMSE\":1.076245337073864}],[{\"RMSE\":1.0761146668275243}],[{\"RMSE\":1.075868027126522}],[{\"RMSE\":1.0755113359747723}],[{\"RMSE\":1.0755271729433367}],[{\"RMSE\":1.0753857522558656}],[{\"RMSE\":1.0752249074221323}],[{\"RMSE\":1.074915980442909}],[{\"RMSE\":1.0749604800066985}],[{\"RMSE\":1.0748728776395948}],[{\"RMSE\":1.0748977338876227}],[{\"RMSE\":1.0748305186247378}],[{\"RMSE\":1.074675276913393}],[{\"RMSE\":1.0744770737233167}],[{\"RMSE\":1.0742064496653891}],[{\"RMSE\":1.0742764965940061}],[{\"RMSE\":1.07417979045126}],[{\"RMSE\":1.0740068055764114}],[{\"RMSE\":1.0740454894581166}],[{\"RMSE\":1.0740234278300005}],[{\"RMSE\":1.073766021084226}],[{\"RMSE\":1.0738975613310662}],[{\"RMSE\":1.0738493122011228}],[{\"RMSE\":1.0737557443748333}],[{\"RMSE\":1.0738467197829888}],[{\"RMSE\":1.0738735811453621}],[{\"RMSE\":1.0737140794519646}],[{\"RMSE\":1.0735936150821006}],[{\"RMSE\":1.0736071630956565}],[{\"RMSE\":1.0734890970069453}],[{\"RMSE\":1.0734662644977984}],[{\"RMSE\":1.0734345533794205}],[{\"RMSE\":1.0733416814635224}],[{\"RMSE\":1.0732686056085066}],[{\"RMSE\":1.0730915516682886}],[{\"RMSE\":1.0730132984589875}],[{\"RMSE\":1.072929720708018}],[{\"RMSE\":1.0727919150180496}],[{\"RMSE\":1.0727921065989798}],[{\"RMSE\":1.0727243565798552}],[{\"RMSE\":1.0726853772604126}],[{\"RMSE\":1.0727435136218657}],[{\"RMSE\":1.0728038732803444}],[{\"RMSE\":1.0727231249410774}],[{\"RMSE\":1.0726181074319796}],[{\"RMSE\":1.0725277080785227}],[{\"RMSE\":1.0724185361352772}],[{\"RMSE\":1.0724289688673423}],[{\"RMSE\":1.0725688876700448}],[{\"RMSE\":1.0723412934887115}],[{\"RMSE\":1.0722671784158504}],[{\"RMSE\":1.0722336347989723}],[{\"RMSE\":1.0723051469272327}],[{\"RMSE\":1.0723348711515572}],[{\"RMSE\":1.0723195391010147}],[{\"RMSE\":1.0724152457645004}],[{\"RMSE\":1.0724061006130914}],[{\"RMSE\":1.072500018888306}],[{\"RMSE\":1.072522252589589}],[{\"RMSE\":1.0725888622679238}],[{\"RMSE\":1.0724675458226185}],[{\"RMSE\":1.0724728132280381}],[{\"RMSE\":1.0724147682619378}],[{\"RMSE\":1.0724137596803138}],[{\"RMSE\":1.072346623776552}],[{\"RMSE\":1.0722528908764428}],[{\"RMSE\":1.072060933420063}],[{\"RMSE\":1.0720282237032275}],[{\"RMSE\":1.0720154625153082}],[{\"RMSE\":1.0721189781340517}],[{\"RMSE\":1.0720242202739358}],[{\"RMSE\":1.072153983809942}],[{\"RMSE\":1.0723088881863192}],[{\"RMSE\":1.072241836762223}],[{\"RMSE\":1.0723774746864847}],[{\"RMSE\":1.0724310689897278}],[{\"RMSE\":1.0725689761382988}],[{\"RMSE\":1.0726997535972804}],[{\"RMSE\":1.072538946161354}],[{\"RMSE\":1.0725718771225}],[{\"RMSE\":1.072740560725894}],[{\"RMSE\":1.0727476467445014}],[{\"RMSE\":1.0728582603436043}],[{\"RMSE\":1.0725872366888267}],[{\"RMSE\":1.0726944915692278}],[{\"RMSE\":1.072802157781502}],[{\"RMSE\":1.0729901540304159}],[{\"RMSE\":1.0728555130832609}],[{\"RMSE\":1.0728634934609707}],[{\"RMSE\":1.072881488548461}],[{\"RMSE\":1.0730247338352412}],[{\"RMSE\":1.0729863513194127}],[{\"RMSE\":1.072903535583979}],[{\"RMSE\":1.0729826117372117}],[{\"RMSE\":1.0728997791500943}],[{\"RMSE\":1.0729378261495357}],[{\"RMSE\":1.073067309266015}],[{\"RMSE\":1.0731453867786223}],[{\"RMSE\":1.0731751644422696}],[{\"RMSE\":1.0731308429062099}],[{\"RMSE\":1.0730481363282671}],[{\"RMSE\":1.0730752008109365}],[{\"RMSE\":1.0732754427144537}],[{\"RMSE\":1.0733667115287513}],[{\"RMSE\":1.0734045055772146}],[{\"RMSE\":1.0734047983563866}],[{\"RMSE\":1.07357560417387}],[{\"RMSE\":1.0737590879681302}],[{\"RMSE\":1.0738288204557866}],[{\"RMSE\":1.0738056742426771}],[{\"RMSE\":1.0738626357146563}],[{\"RMSE\":1.0739717480536417}],[{\"RMSE\":1.0737096620344095}],[{\"RMSE\":1.0735696237542582}],[{\"RMSE\":1.073643027202368}],[{\"RMSE\":1.0735514197889953}],[{\"RMSE\":1.0733848778713049}],[{\"RMSE\":1.0734164110188025}],[{\"RMSE\":1.0733888961831566}],[{\"RMSE\":1.073363826800454}],[{\"RMSE\":1.0733058848356225}],[{\"RMSE\":1.073492483007205}],[{\"RMSE\":1.0735536811494408}],[{\"RMSE\":1.0735757945871163}],[{\"RMSE\":1.0736041721428045}],[{\"RMSE\":1.0737672588602925}],[{\"RMSE\":1.0739093619486488}],[{\"RMSE\":1.0738930186221547}],[{\"RMSE\":1.0739333299529192}],[{\"RMSE\":1.0740326392847999}],[{\"RMSE\":1.0740497278925456}],[{\"RMSE\":1.0740185118846914}],[{\"RMSE\":1.074109686386138}],[{\"RMSE\":1.0740673151561577}],[{\"RMSE\":1.0741668595029141}],[{\"RMSE\":1.0742208109477267}],[{\"RMSE\":1.0742920537414942}],[{\"RMSE\":1.0742580204445145}],[{\"RMSE\":1.074433211904647}],[{\"RMSE\":1.0744992506032154}],[{\"RMSE\":1.0745413684153051}],[{\"RMSE\":1.0743765784649304}],[{\"RMSE\":1.0743454898562068}],[{\"RMSE\":1.0743020279092994}],[{\"RMSE\":1.0743493304267686}],[{\"RMSE\":1.074413275012207}],[{\"RMSE\":1.0744891445288072}],[{\"RMSE\":1.0744519603472076}],[{\"RMSE\":1.0746931440215564}],[{\"RMSE\":1.0746997686652953}],[{\"RMSE\":1.0749969005598965}],[{\"RMSE\":1.0749976994592627}],[{\"RMSE\":1.075052259390588}],[{\"RMSE\":1.0748760305688632}],[{\"RMSE\":1.0746953378868724}],[{\"RMSE\":1.0747678625085912}],[{\"RMSE\":1.0748991524682372}],[{\"RMSE\":1.0751170674822463}],[{\"RMSE\":1.075150257064443}],[{\"RMSE\":1.075328747113869}],[{\"RMSE\":1.0753424822215392}],[{\"RMSE\":1.0751922807175345}],[{\"RMSE\":1.0752640003257972}],[{\"RMSE\":1.0754400963118502}],[{\"RMSE\":1.0754902626251261}],[{\"RMSE\":1.075562045898197}],[{\"RMSE\":1.075477410262716}],[{\"RMSE\":1.075502633876075}],[{\"RMSE\":1.0757274044271388}],[{\"RMSE\":1.0757703694260592}],[{\"RMSE\":1.0758412193250118}],[{\"RMSE\":1.075972197210637}],[{\"RMSE\":1.0761082125273866}],[{\"RMSE\":1.07627278661804}],[{\"RMSE\":1.0762284129734858}],[{\"RMSE\":1.076184632118659}],[{\"RMSE\":1.0762222550405012}],[{\"RMSE\":1.076074797377031}],[{\"RMSE\":1.0761243497579354}],[{\"RMSE\":1.0760624050711334}],[{\"RMSE\":1.0761083387446688}],[{\"RMSE\":1.0761385305176345}],[{\"RMSE\":1.0762034419665667}],[{\"RMSE\":1.0762775645667082}],[{\"RMSE\":1.076252877665804}],[{\"RMSE\":1.0760741486229486}],[{\"RMSE\":1.0761154073861134}],[{\"RMSE\":1.0760814124933986}],[{\"RMSE\":1.0760746706202124}],[{\"RMSE\":1.0762537638388743}],[{\"RMSE\":1.0763522142257937}],[{\"RMSE\":1.0764208069444274}],[{\"RMSE\":1.0764576160515977}],[{\"RMSE\":1.0764678631025406}],[{\"RMSE\":1.0766006909244206}],[{\"RMSE\":1.0766424592765274}],[{\"RMSE\":1.0767857416882987}],[{\"RMSE\":1.0768857278836768}],[{\"RMSE\":1.0768869032541302}],[{\"RMSE\":1.077056630168348}],[{\"RMSE\":1.0771007053229729}],[{\"RMSE\":1.0770690436118857}],[{\"RMSE\":1.0771854234354499}],[{\"RMSE\":1.0772053265931008}],[{\"RMSE\":1.076945972481483}],[{\"RMSE\":1.0769813805215938}],[{\"RMSE\":1.0769899627289659}],[{\"RMSE\":1.0772262918353788}],[{\"RMSE\":1.0773437711095575}],[{\"RMSE\":1.0773821660617648}],[{\"RMSE\":1.0773789934541376}],[{\"RMSE\":1.0775018988191838}],[{\"RMSE\":1.0775248227955447}],[{\"RMSE\":1.0777815025208006}],[{\"RMSE\":1.0779219589228135}],[{\"RMSE\":1.0780751609523929}],[{\"RMSE\":1.07812365991762}],[{\"RMSE\":1.0783772211111415}],[{\"RMSE\":1.0784851115769538}],[{\"RMSE\":1.0784027924305382}],[{\"RMSE\":1.0785115471218687}],[{\"RMSE\":1.0785536082193747}],[{\"RMSE\":1.078584331490907}],[{\"RMSE\":1.0786601687737667}],[{\"RMSE\":1.0787264823568297}],[{\"RMSE\":1.0786845407952872}],[{\"RMSE\":1.0788539960597239}],[{\"RMSE\":1.0789138123383064}],[{\"RMSE\":1.078917225915567}],[{\"RMSE\":1.0789195763022585}],[{\"RMSE\":1.078730651169692}],[{\"RMSE\":1.0788088677906298}],[{\"RMSE\":1.0788057505861761}],[{\"RMSE\":1.0787960368658098}],[{\"RMSE\":1.0787638067520982}],[{\"RMSE\":1.0787735516714796}],[{\"RMSE\":1.078736903338051}],[{\"RMSE\":1.0786785904028422}],[{\"RMSE\":1.0787538949396345}],[{\"RMSE\":1.0787843769351886}],[{\"RMSE\":1.0789025688048648}],[{\"RMSE\":1.0788209842184295}],[{\"RMSE\":1.0787364780454085}],[{\"RMSE\":1.0787797005389026}],[{\"RMSE\":1.0787443085239452}],[{\"RMSE\":1.078876421683576}],[{\"RMSE\":1.0788953766861655}],[{\"RMSE\":1.0790221916522535}],[{\"RMSE\":1.0790478117063496}],[{\"RMSE\":1.0790063889702004}],[{\"RMSE\":1.0788721197365851}],[{\"RMSE\":1.0788231445137875}],[{\"RMSE\":1.078760709305462}],[{\"RMSE\":1.078800231274338}],[{\"RMSE\":1.0788969294644717}],[{\"RMSE\":1.078859258538079}],[{\"RMSE\":1.0788057134688225}],[{\"RMSE\":1.0788543291782275}],[{\"RMSE\":1.078833267181791}],[{\"RMSE\":1.0788060168894362}],[{\"RMSE\":1.079049715012533}],[{\"RMSE\":1.0792224032353617}],[{\"RMSE\":1.079272649641769}],[{\"RMSE\":1.079604302562903}],[{\"RMSE\":1.0795973405398986}],[{\"RMSE\":1.0798015965102872}],[{\"RMSE\":1.0798447629634718}],[{\"RMSE\":1.079880409357676}],[{\"RMSE\":1.0799234542359184}],[{\"RMSE\":1.0800271040265037}],[{\"RMSE\":1.0800230287678794}],[{\"RMSE\":1.0801339245844392}],[{\"RMSE\":1.0802123135316493}],[{\"RMSE\":1.0803405624584066}],[{\"RMSE\":1.08044439764524}],[{\"RMSE\":1.0805646376943923}],[{\"RMSE\":1.0805080160277574}],[{\"RMSE\":1.0806296092169858}],[{\"RMSE\":1.080662926684455}],[{\"RMSE\":1.0804872984481633}],[{\"RMSE\":1.0801413953915129}],[{\"RMSE\":1.0802454016029372}],[{\"RMSE\":1.0803806453952838}],[{\"RMSE\":1.0803818879217553}],[{\"RMSE\":1.080490378129225}],[{\"RMSE\":1.0804958805397238}],[{\"RMSE\":1.08051275375316}],[{\"RMSE\":1.0806124152787635}],[{\"RMSE\":1.0806658747782347}],[{\"RMSE\":1.0806780453804885}],[{\"RMSE\":1.080824529292043}],[{\"RMSE\":1.080742558470894}],[{\"RMSE\":1.0805469605186104}],[{\"RMSE\":1.080625947088726}],[{\"RMSE\":1.0807511927359208}],[{\"RMSE\":1.0810295297507337}],[{\"RMSE\":1.081107348106519}],[{\"RMSE\":1.08127672473739}],[{\"RMSE\":1.0813647339493304}],[{\"RMSE\":1.0814512772927047}],[{\"RMSE\":1.0813978821683687}],[{\"RMSE\":1.0815343245296418}],[{\"RMSE\":1.0816645658346664}],[{\"RMSE\":1.0816194272840696}],[{\"RMSE\":1.0815885790176991}],[{\"RMSE\":1.0815512258137188}],[{\"RMSE\":1.0816400648550915}],[{\"RMSE\":1.0816926343169473}],[{\"RMSE\":1.0818880699547615}],[{\"RMSE\":1.0819006915791347}],[{\"RMSE\":1.0818928427857215}],[{\"RMSE\":1.08183424491888}],[{\"RMSE\":1.0818263119316753}],[{\"RMSE\":1.0819787681133006}],[{\"RMSE\":1.0820292201741732}],[{\"RMSE\":1.08229267546607}],[{\"RMSE\":1.082248490010119}],[{\"RMSE\":1.0823221306185271}],[{\"RMSE\":1.0823935865789187}],[{\"RMSE\":1.0824635156960973}],[{\"RMSE\":1.0825894449261175}],[{\"RMSE\":1.0826952421089988}],[{\"RMSE\":1.082646981982138}],[{\"RMSE\":1.0826171952090295}],[{\"RMSE\":1.0827678671246819}],[{\"RMSE\":1.0827013466792321}],[{\"RMSE\":1.0828301851450424}],[{\"RMSE\":1.0828761805171636}],[{\"RMSE\":1.0827228347921203}],[{\"RMSE\":1.082876187869985}],[{\"RMSE\":1.082910988093805}],[{\"RMSE\":1.082999205823955}],[{\"RMSE\":1.0830270731444303}],[{\"RMSE\":1.082776020233177}],[{\"RMSE\":1.0828183379488137}],[{\"RMSE\":1.0827736717561336}],[{\"RMSE\":1.082830792916234}],[{\"RMSE\":1.0829181300286097}],[{\"RMSE\":1.0828190186025657}],[{\"RMSE\":1.0828837548322912}],[{\"RMSE\":1.0829854497627007}],[{\"RMSE\":1.0831062955375377}],[{\"RMSE\":1.083131478707801}],[{\"RMSE\":1.0830602460750713}],[{\"RMSE\":1.0831636725440887}],[{\"RMSE\":1.0833253708151356}],[{\"RMSE\":1.0833038941817699}],[{\"RMSE\":1.0833029749722793}],[{\"RMSE\":1.0832059906115368}],[{\"RMSE\":1.0832138204000465}],[{\"RMSE\":1.0835055369311255}],[{\"RMSE\":1.0835464601805898}],[{\"RMSE\":1.0834473197476109}],[{\"RMSE\":1.0834039076264126}],[{\"RMSE\":1.083603090510805}],[{\"RMSE\":1.0836459477256588}],[{\"RMSE\":1.083691895140606}],[{\"RMSE\":1.08373589264951}],[{\"RMSE\":1.0837697387406386}],[{\"RMSE\":1.0838514316784917}],[{\"RMSE\":1.083998124102158}],[{\"RMSE\":1.084015794707589}],[{\"RMSE\":1.0840733025412146}],[{\"RMSE\":1.0840621631156615}],[{\"RMSE\":1.0841693836552477}],[{\"RMSE\":1.0841807916344317}],[{\"RMSE\":1.0842708955462812}],[{\"RMSE\":1.0843202394228932}],[{\"RMSE\":1.084269775340109}],[{\"RMSE\":1.0842275589276327}],[{\"RMSE\":1.0842589223298171}],[{\"RMSE\":1.0843391439044943}],[{\"RMSE\":1.0842882502892275}],[{\"RMSE\":1.0843125953249872}],[{\"RMSE\":1.084344965137561}],[{\"RMSE\":1.0844016399509226}],[{\"RMSE\":1.0847016897667399}],[{\"RMSE\":1.084864261971094}],[{\"RMSE\":1.084841572626722}],[{\"RMSE\":1.0849895030604666}],[{\"RMSE\":1.0850151298730295}],[{\"RMSE\":1.0850699016273635}],[{\"RMSE\":1.0851217544879737}],[{\"RMSE\":1.0850687587386416}],[{\"RMSE\":1.085053715815683}],[{\"RMSE\":1.0849938119655351}],[{\"RMSE\":1.0851465111085559}],[{\"RMSE\":1.0851401012828983}],[{\"RMSE\":1.0850848659089665}],[{\"RMSE\":1.0849471174550542}],[{\"RMSE\":1.0850291853876066}],[{\"RMSE\":1.0852055589638856}],[{\"RMSE\":1.0852274017602581}],[{\"RMSE\":1.0851704865277019}],[{\"RMSE\":1.085160173671264}],[{\"RMSE\":1.0851419699914673}],[{\"RMSE\":1.0852402363733495}],[{\"RMSE\":1.0852053710838763}],[{\"RMSE\":1.0853285521136224}],[{\"RMSE\":1.085417006460812}],[{\"RMSE\":1.0853617351075628}],[{\"RMSE\":1.0854848386177436}],[{\"RMSE\":1.085367027348081}],[{\"RMSE\":1.085246037987469}],[{\"RMSE\":1.085209065540207}],[{\"RMSE\":1.085239139864361}],[{\"RMSE\":1.0852943765816379}],[{\"RMSE\":1.0853599277351695}],[{\"RMSE\":1.0854055988980893}],[{\"RMSE\":1.0853938653759965}],[{\"RMSE\":1.0855541983049177}],[{\"RMSE\":1.0856203636489055}],[{\"RMSE\":1.0857583834513762}],[{\"RMSE\":1.0856498873935034}],[{\"RMSE\":1.0857111211689805}],[{\"RMSE\":1.0855739409697136}],[{\"RMSE\":1.0856349033340857}],[{\"RMSE\":1.0857534034249867}],[{\"RMSE\":1.0857160781047395}],[{\"RMSE\":1.0857011760898627}],[{\"RMSE\":1.0857872978425738}],[{\"RMSE\":1.0858290170893847}],[{\"RMSE\":1.0857819448843342}],[{\"RMSE\":1.0858417756967078}],[{\"RMSE\":1.0859381351642925}],[{\"RMSE\":1.0858662703715924}],[{\"RMSE\":1.0860132337061938}],[{\"RMSE\":1.086135517845611}],[{\"RMSE\":1.0861421633313593}],[{\"RMSE\":1.0860771005932233}],[{\"RMSE\":1.0860824300005152}],[{\"RMSE\":1.0861031579679241}],[{\"RMSE\":1.0861996562473524}],[{\"RMSE\":1.0862681506055778}],[{\"RMSE\":1.0863075665469788}],[{\"RMSE\":1.0862627002063712}],[{\"RMSE\":1.0863562998794827}],[{\"RMSE\":1.0863335589625729}],[{\"RMSE\":1.0863883957827851}],[{\"RMSE\":1.0863878468624448}],[{\"RMSE\":1.0864795890735437}],[{\"RMSE\":1.0865167899569899}],[{\"RMSE\":1.086448120093576}],[{\"RMSE\":1.0864043740023241}],[{\"RMSE\":1.0865649522471155}],[{\"RMSE\":1.0865203103091106}],[{\"RMSE\":1.0865108713451632}],[{\"RMSE\":1.0865068313098292}],[{\"RMSE\":1.0864883965908996}],[{\"RMSE\":1.0865738336583866}],[{\"RMSE\":1.0865857082391217}],[{\"RMSE\":1.0864577979326908}],[{\"RMSE\":1.0864916308742258}],[{\"RMSE\":1.0865497730051328}],[{\"RMSE\":1.0865064589820528}],[{\"RMSE\":1.0864466157477275}],[{\"RMSE\":1.0863166758744418}],[{\"RMSE\":1.086175159806137}],[{\"RMSE\":1.0860625243441746}],[{\"RMSE\":1.0860134232218654}],[{\"RMSE\":1.086088866872043}],[{\"RMSE\":1.086146341932397}],[{\"RMSE\":1.086066465078888}],[{\"RMSE\":1.0861007236922957}],[{\"RMSE\":1.0861011337677715}],[{\"RMSE\":1.0861583938116188}],[{\"RMSE\":1.0862745710563235}],[{\"RMSE\":1.0860831743628738}],[{\"RMSE\":1.086015243622524}],[{\"RMSE\":1.0860317764169773}],[{\"RMSE\":1.0860317045613073}],[{\"RMSE\":1.0860359124349908}],[{\"RMSE\":1.0860930676052367}],[{\"RMSE\":1.086106501480031}],[{\"RMSE\":1.086134174739503}],[{\"RMSE\":1.0862329246575526}],[{\"RMSE\":1.086168705867635}],[{\"RMSE\":1.0862362190208124}],[{\"RMSE\":1.0862627398829572}],[{\"RMSE\":1.0863782750483495}],[{\"RMSE\":1.0862733772350357}],[{\"RMSE\":1.0863826649765926}],[{\"RMSE\":1.0863333085563307}],[{\"RMSE\":1.0865190873497068}],[{\"RMSE\":1.0864285806680354}],[{\"RMSE\":1.0865332689026705}],[{\"RMSE\":1.086584961586978}],[{\"RMSE\":1.0864710779328572}],[{\"RMSE\":1.0864753678831036}],[{\"RMSE\":1.0864152780588665}],[{\"RMSE\":1.0864253805626114}],[{\"RMSE\":1.0864580936667567}],[{\"RMSE\":1.086431205045161}],[{\"RMSE\":1.0864729092821008}],[{\"RMSE\":1.0865461449479301}],[{\"RMSE\":1.0866950755358284}],[{\"RMSE\":1.0867702457626545}],[{\"RMSE\":1.0867933035955302}],[{\"RMSE\":1.0869684517330416}],[{\"RMSE\":1.0870016927270625}],[{\"RMSE\":1.0869834604101722}],[{\"RMSE\":1.0869708238305085}],[{\"RMSE\":1.0869456321108986}],[{\"RMSE\":1.0869789050820227}],[{\"RMSE\":1.0867224213559812}],[{\"RMSE\":1.0868298325102468}],[{\"RMSE\":1.08702720092653}],[{\"RMSE\":1.0871646793234673}],[{\"RMSE\":1.087017597236998}],[{\"RMSE\":1.087011249180715}],[{\"RMSE\":1.0870790911657282}],[{\"RMSE\":1.087079858653776}],[{\"RMSE\":1.087109715689134}],[{\"RMSE\":1.0871931359788296}],[{\"RMSE\":1.0871500227541262}],[{\"RMSE\":1.0871547787018478}],[{\"RMSE\":1.0870901604653747}],[{\"RMSE\":1.0870968293000736}],[{\"RMSE\":1.087114834602674}],[{\"RMSE\":1.0870729704685562}],[{\"RMSE\":1.0871214967943543}],[{\"RMSE\":1.0871338864845443}],[{\"RMSE\":1.0871455397861574}],[{\"RMSE\":1.087082099088568}],[{\"RMSE\":1.0871062750446117}],[{\"RMSE\":1.0873070069033552}],[{\"RMSE\":1.0873219919661679}],[{\"RMSE\":1.0874418481124213}],[{\"RMSE\":1.0874578282188063}],[{\"RMSE\":1.0874814876570957}],[{\"RMSE\":1.087472371298523}],[{\"RMSE\":1.0874215242056857}],[{\"RMSE\":1.0874174024114502}],[{\"RMSE\":1.0875171302641289}],[{\"RMSE\":1.0875301535591317}],[{\"RMSE\":1.0875125010695763}],[{\"RMSE\":1.087560595308323}],[{\"RMSE\":1.0876569931998898}],[{\"RMSE\":1.087677923610987}],[{\"RMSE\":1.0877570110823696}],[{\"RMSE\":1.08773976530245}],[{\"RMSE\":1.087760196005377}],[{\"RMSE\":1.0878143657746826}],[{\"RMSE\":1.0880187891734805}],[{\"RMSE\":1.0880919836134242}],[{\"RMSE\":1.088280472978785}],[{\"RMSE\":1.0883067580668018}],[{\"RMSE\":1.0883595831813464}],[{\"RMSE\":1.0886444823996264}],[{\"RMSE\":1.088720092518843}],[{\"RMSE\":1.0887758821598545}],[{\"RMSE\":1.088758412218237}],[{\"RMSE\":1.0888700310060426}],[{\"RMSE\":1.0890243343944923}],[{\"RMSE\":1.0891834973401833}],[{\"RMSE\":1.0892205828634196}],[{\"RMSE\":1.0892858482888208}],[{\"RMSE\":1.089354450776987}],[{\"RMSE\":1.0894094351339478}],[{\"RMSE\":1.089453388175294}],[{\"RMSE\":1.089407199794102}],[{\"RMSE\":1.0895411631773266}],[{\"RMSE\":1.089540032092313}],[{\"RMSE\":1.0895229361844112}],[{\"RMSE\":1.0896598993892772}],[{\"RMSE\":1.0895870060014248}],[{\"RMSE\":1.0896237520612833}],[{\"RMSE\":1.089692678388738}],[{\"RMSE\":1.0897268757827068}],[{\"RMSE\":1.0897322935808416}],[{\"RMSE\":1.0897907181356863}],[{\"RMSE\":1.0896308450781844}],[{\"RMSE\":1.0898068707377675}],[{\"RMSE\":1.0898137422543237}],[{\"RMSE\":1.0897621091293141}],[{\"RMSE\":1.0898910353880567}],[{\"RMSE\":1.0898822578591219}],[{\"RMSE\":1.089866286555635}],[{\"RMSE\":1.0899883298809419}],[{\"RMSE\":1.0900270675145565}],[{\"RMSE\":1.0899965198256831}],[{\"RMSE\":1.090173167041614}],[{\"RMSE\":1.0902547047066864}],[{\"RMSE\":1.0902023224022777}],[{\"RMSE\":1.0902298176983878}],[{\"RMSE\":1.09044902438862}],[{\"RMSE\":1.0906109349325772}],[{\"RMSE\":1.090681596636472}],[{\"RMSE\":1.0907492517524218}],[{\"RMSE\":1.0906677111669136}],[{\"RMSE\":1.09062150946096}],[{\"RMSE\":1.090617814555735}],[{\"RMSE\":1.0906098334144798}],[{\"RMSE\":1.0906569866018727}],[{\"RMSE\":1.0906231559555242}],[{\"RMSE\":1.0906786738694778}],[{\"RMSE\":1.0906972044396999}],[{\"RMSE\":1.0905807603123383}],[{\"RMSE\":1.0906610133822474}],[{\"RMSE\":1.0906829908854265}],[{\"RMSE\":1.0907213243943623}],[{\"RMSE\":1.090660147949373}],[{\"RMSE\":1.0906710751227728}],[{\"RMSE\":1.0906015055590106}],[{\"RMSE\":1.090720209951746}],[{\"RMSE\":1.090667291296962}],[{\"RMSE\":1.0906839110876343}],[{\"RMSE\":1.0908441312301291}],[{\"RMSE\":1.090875333241032}],[{\"RMSE\":1.09091937736338}],[{\"RMSE\":1.090801530025515}],[{\"RMSE\":1.0908764349417612}],[{\"RMSE\":1.0909575323684775}],[{\"RMSE\":1.0909339621933063}],[{\"RMSE\":1.0908332299530528}],[{\"RMSE\":1.0908847291496033}],[{\"RMSE\":1.0910562521038885}],[{\"RMSE\":1.0910955819474688}],[{\"RMSE\":1.0910239554755954}],[{\"RMSE\":1.0908271005503463}],[{\"RMSE\":1.0908364647761084}],[{\"RMSE\":1.0908179240746365}],[{\"RMSE\":1.0907076479280704}],[{\"RMSE\":1.0907031316469917}],[{\"RMSE\":1.0907541673979044}],[{\"RMSE\":1.090798179976988}],[{\"RMSE\":1.0907758833007866}],[{\"RMSE\":1.090674672469718}],[{\"RMSE\":1.090604574984801}],[{\"RMSE\":1.0907153189843228}],[{\"RMSE\":1.090858977746182}],[{\"RMSE\":1.0907904001584052}],[{\"RMSE\":1.0908327037281016}],[{\"RMSE\":1.0909173693392715}],[{\"RMSE\":1.0911100682432995}],[{\"RMSE\":1.0910728600160473}],[{\"RMSE\":1.0910248785316314}],[{\"RMSE\":1.091049369071264}],[{\"RMSE\":1.0910798241052053}],[{\"RMSE\":1.091137799347407}],[{\"RMSE\":1.0911755493026678}],[{\"RMSE\":1.091252713752009}],[{\"RMSE\":1.0912927626823137}],[{\"RMSE\":1.0914239615881813}],[{\"RMSE\":1.091562919333763}],[{\"RMSE\":1.0915841448189476}],[{\"RMSE\":1.0916812710433437}],[{\"RMSE\":1.0917469380693587}],[{\"RMSE\":1.0917376687413332}],[{\"RMSE\":1.091897704750986}],[{\"RMSE\":1.0919049313976892}],[{\"RMSE\":1.0919079767892248}],[{\"RMSE\":1.0920151965985185}],[{\"RMSE\":1.092218192738424}],[{\"RMSE\":1.0924651550864277}],[{\"RMSE\":1.092554286528615}],[{\"RMSE\":1.092636495399272}],[{\"RMSE\":1.0926438755844634}],[{\"RMSE\":1.0926919152978107}],[{\"RMSE\":1.0926453080261203}],[{\"RMSE\":1.0926928119087151}],[{\"RMSE\":1.0926677337590665}],[{\"RMSE\":1.092827353502241}],[{\"RMSE\":1.0928388290014455}],[{\"RMSE\":1.0929192128706462}],[{\"RMSE\":1.0929461877021998}],[{\"RMSE\":1.092908057500137}],[{\"RMSE\":1.092982452001056}],[{\"RMSE\":1.0930306286694043}],[{\"RMSE\":1.092997654940406}],[{\"RMSE\":1.0930426973125131}],[{\"RMSE\":1.0930962798591026}],[{\"RMSE\":1.0931417956868703}],[{\"RMSE\":1.0931744092900113}],[{\"RMSE\":1.093099993363226}],[{\"RMSE\":1.0931548329390601}],[{\"RMSE\":1.0931840036256486}],[{\"RMSE\":1.0931800924999875}],[{\"RMSE\":1.0930488685753272}],[{\"RMSE\":1.0930691873550578}],[{\"RMSE\":1.0930907898798985}],[{\"RMSE\":1.0931318694141396}],[{\"RMSE\":1.0930565653258928}],[{\"RMSE\":1.092855775456777}],[{\"RMSE\":1.0928418529661095}],[{\"RMSE\":1.0927101601120717}],[{\"RMSE\":1.0925245699616764}],[{\"RMSE\":1.092508054331623}],[{\"RMSE\":1.0925064510099114}],[{\"RMSE\":1.092364908511299}],[{\"RMSE\":1.0924492396546743}],[{\"RMSE\":1.092481229524227}],[{\"RMSE\":1.092544664517817}],[{\"RMSE\":1.0925676609787431}],[{\"RMSE\":1.0926748449664248}],[{\"RMSE\":1.0926499012427278}],[{\"RMSE\":1.092647399130627}],[{\"RMSE\":1.0927531745399044}],[{\"RMSE\":1.0928898947223271}],[{\"RMSE\":1.0929798928621717}],[{\"RMSE\":1.0932446880554518}],[{\"RMSE\":1.0933126318229511}],[{\"RMSE\":1.0934315457321027}],[{\"RMSE\":1.0934923063888746}],[{\"RMSE\":1.0934764089133886}],[{\"RMSE\":1.093763105424952}],[{\"RMSE\":1.0939678242633266}],[{\"RMSE\":1.0939702300661565}],[{\"RMSE\":1.0940761819705982}],[{\"RMSE\":1.0941341897692214}],[{\"RMSE\":1.0941485590343092}],[{\"RMSE\":1.0942272938858268}],[{\"RMSE\":1.0942104799480115}],[{\"RMSE\":1.0942162767044654}],[{\"RMSE\":1.0942147040526131}],[{\"RMSE\":1.0941234349563485}],[{\"RMSE\":1.0941169880385893}],[{\"RMSE\":1.0941191171498066}],[{\"RMSE\":1.094158407697121}],[{\"RMSE\":1.0940956586210921}],[{\"RMSE\":1.0941213431480807}],[{\"RMSE\":1.0941624117449398}],[{\"RMSE\":1.0942443918995874}],[{\"RMSE\":1.0942851671402152}],[{\"RMSE\":1.0942391338922262}],[{\"RMSE\":1.0943632689554337}],[{\"RMSE\":1.0944348609875405}],[{\"RMSE\":1.09441717324464}],[{\"RMSE\":1.0944247645499516}],[{\"RMSE\":1.0944203954937388}],[{\"RMSE\":1.0944457334544884}],[{\"RMSE\":1.0943866385907732}],[{\"RMSE\":1.0944452479658098}],[{\"RMSE\":1.0944517976724624}],[{\"RMSE\":1.0945803442859634}],[{\"RMSE\":1.094689484929118}],[{\"RMSE\":1.0946767436566034}],[{\"RMSE\":1.0947113567533144}],[{\"RMSE\":1.0947243126309611}],[{\"RMSE\":1.0947541712310043}],[{\"RMSE\":1.0945869952518057}],[{\"RMSE\":1.094644485693264}],[{\"RMSE\":1.0946478092060843}],[{\"RMSE\":1.0946896229490712}],[{\"RMSE\":1.0947512287671475}],[{\"RMSE\":1.0947318644066464}],[{\"RMSE\":1.09478068902369}],[{\"RMSE\":1.0947588043720673}],[{\"RMSE\":1.0945824806758}],[{\"RMSE\":1.0946176766790474}],[{\"RMSE\":1.0946854855477124}],[{\"RMSE\":1.0948031023226583}],[{\"RMSE\":1.0947547207367938}],[{\"RMSE\":1.094721210668927}],[{\"RMSE\":1.0946952341945475}],[{\"RMSE\":1.0947564640497607}],[{\"RMSE\":1.0948509774483315}],[{\"RMSE\":1.0949188777364005}],[{\"RMSE\":1.0950365006614398}],[{\"RMSE\":1.0949716363479183}],[{\"RMSE\":1.0949963676584338}],[{\"RMSE\":1.095021911570572}],[{\"RMSE\":1.0951102597489553}],[{\"RMSE\":1.0951053742497523}],[{\"RMSE\":1.0952049235348307}],[{\"RMSE\":1.0952037982780833}],[{\"RMSE\":1.095269299035069}],[{\"RMSE\":1.0953549442641684}],[{\"RMSE\":1.0953689060604597}],[{\"RMSE\":1.0954401848000643}],[{\"RMSE\":1.0954034319060941}],[{\"RMSE\":1.0953241797092519}],[{\"RMSE\":1.0953096744092845}],[{\"RMSE\":1.0953191800198392}],[{\"RMSE\":1.0953653510342591}],[{\"RMSE\":1.0954802892893112}],[{\"RMSE\":1.0955329413736863}],[{\"RMSE\":1.0954893481180246}],[{\"RMSE\":1.0955759766797635}],[{\"RMSE\":1.0956037019244007}],[{\"RMSE\":1.0955654784213582}],[{\"RMSE\":1.09563727916774}],[{\"RMSE\":1.0956936317793062}],[{\"RMSE\":1.0957343386815934}],[{\"RMSE\":1.095816354512642}],[{\"RMSE\":1.0958584557136322}],[{\"RMSE\":1.0959231809624055}],[{\"RMSE\":1.0959364175002502}],[{\"RMSE\":1.096052650403869}],[{\"RMSE\":1.0960150111124383}],[{\"RMSE\":1.095987835464511}],[{\"RMSE\":1.0958895686555594}],[{\"RMSE\":1.0958759471433994}],[{\"RMSE\":1.0958793488970962}],[{\"RMSE\":1.0958025960444935}],[{\"RMSE\":1.0958891490762122}],[{\"RMSE\":1.0959627540220205}],[{\"RMSE\":1.0959186132342276}],[{\"RMSE\":1.0959676696914857}],[{\"RMSE\":1.0960085599901932}],[{\"RMSE\":1.0959611203627857}],[{\"RMSE\":1.0959633659865085}],[{\"RMSE\":1.095984399363716}],[{\"RMSE\":1.0960277371979095}],[{\"RMSE\":1.0959834784970872}],[{\"RMSE\":1.096051827074057}],[{\"RMSE\":1.0960584877265742}],[{\"RMSE\":1.096078451723275}],[{\"RMSE\":1.0960814375135226}],[{\"RMSE\":1.0961934272453995}],[{\"RMSE\":1.0962734228104523}],[{\"RMSE\":1.0964135221947324}],[{\"RMSE\":1.0964315185440667}],[{\"RMSE\":1.0964346871989847}],[{\"RMSE\":1.0964887314325074}],[{\"RMSE\":1.096455261214433}],[{\"RMSE\":1.0963531101275736}],[{\"RMSE\":1.096349740348341}],[{\"RMSE\":1.0964260941016433}],[{\"RMSE\":1.096181346386521}],[{\"RMSE\":1.0962076135258347}],[{\"RMSE\":1.0962269399944635}],[{\"RMSE\":1.096207053655817}],[{\"RMSE\":1.0960016592987516}],[{\"RMSE\":1.0959681637377032}],[{\"RMSE\":1.0959804709943288}],[{\"RMSE\":1.0958059960362667}],[{\"RMSE\":1.0958663259012869}],[{\"RMSE\":1.0959655655385563}],[{\"RMSE\":1.0959736890704124}],[{\"RMSE\":1.0959597062555373}],[{\"RMSE\":1.0959742474137835}],[{\"RMSE\":1.0959714863493557}],[{\"RMSE\":1.0960067071795732}],[{\"RMSE\":1.096072834375839}],[{\"RMSE\":1.0960632313827046}],[{\"RMSE\":1.0961415803766243}],[{\"RMSE\":1.09612220313198}],[{\"RMSE\":1.0959069565378976}],[{\"RMSE\":1.0958770413087628}],[{\"RMSE\":1.0959018686264959}],[{\"RMSE\":1.0959003919543129}],[{\"RMSE\":1.0958912131900773}],[{\"RMSE\":1.0959027794590783}],[{\"RMSE\":1.0961465731652955}],[{\"RMSE\":1.0960795599055424}],[{\"RMSE\":1.0960007135019783}],[{\"RMSE\":1.0960950461808425}],[{\"RMSE\":1.0960930250443277}],[{\"RMSE\":1.0960253971194314}],[{\"RMSE\":1.0959912467877078}],[{\"RMSE\":1.096027687272316}],[{\"RMSE\":1.0960345187965503}],[{\"RMSE\":1.0959984511053242}],[{\"RMSE\":1.0960166092616956}],[{\"RMSE\":1.0960463495110386}],[{\"RMSE\":1.096257171283591}],[{\"RMSE\":1.0962293377185266}],[{\"RMSE\":1.0962365004260168}],[{\"RMSE\":1.0962769446056113}],[{\"RMSE\":1.09625113955954}],[{\"RMSE\":1.0962306163309221}],[{\"RMSE\":1.0962774407785028}],[{\"RMSE\":1.0963285889461982}],[{\"RMSE\":1.0963907635457455}],[{\"RMSE\":1.09647612110806}],[{\"RMSE\":1.0964754756280957}],[{\"RMSE\":1.0963994054503912}],[{\"RMSE\":1.0964384351005936}],[{\"RMSE\":1.096420082719306}],[{\"RMSE\":1.0963599187094824}],[{\"RMSE\":1.0963735330610567}],[{\"RMSE\":1.0964565682670475}],[{\"RMSE\":1.0964602383201156}],[{\"RMSE\":1.0965390640441386}],[{\"RMSE\":1.096571426120908}],[{\"RMSE\":1.096532876858017}],[{\"RMSE\":1.096667860864554}],[{\"RMSE\":1.0966053750725588}],[{\"RMSE\":1.0966195113418766}],[{\"RMSE\":1.0966663319002914}],[{\"RMSE\":1.096769740648298}],[{\"RMSE\":1.0967652792909572}],[{\"RMSE\":1.0968510862762892}],[{\"RMSE\":1.096769713350739}],[{\"RMSE\":1.0968218088304547}],[{\"RMSE\":1.0968443690999168}],[{\"RMSE\":1.0969214118462312}],[{\"RMSE\":1.096915637028322}],[{\"RMSE\":1.097076570814757}],[{\"RMSE\":1.0968826982852173}],[{\"RMSE\":1.096946096210491}],[{\"RMSE\":1.0970414969278346}],[{\"RMSE\":1.0970820143592694}],[{\"RMSE\":1.0970414991031527}],[{\"RMSE\":1.0970531101650245}],[{\"RMSE\":1.097046779802636}],[{\"RMSE\":1.097038268376742}],[{\"RMSE\":1.0970406059891538}],[{\"RMSE\":1.097078046266862}],[{\"RMSE\":1.0970905935809698}],[{\"RMSE\":1.0971002800670089}],[{\"RMSE\":1.0971281855913417}],[{\"RMSE\":1.0971541603710837}],[{\"RMSE\":1.0971528653957123}],[{\"RMSE\":1.0972209683847538}],[{\"RMSE\":1.0971602915301852}],[{\"RMSE\":1.0972125248475606}],[{\"RMSE\":1.0974036222512678}],[{\"RMSE\":1.0974249748996472}],[{\"RMSE\":1.097428584037001}],[{\"RMSE\":1.0975054019862283}],[{\"RMSE\":1.0976037254057944}],[{\"RMSE\":1.0974587094576833}],[{\"RMSE\":1.097504424895357}],[{\"RMSE\":1.0975399499371572}],[{\"RMSE\":1.0976250343475957}]],\"learn_metrics_history\":[{\"RMSE\":1.1516413216565708},{\"RMSE\":1.146778333134059},{\"RMSE\":1.1425691331293062},{\"RMSE\":1.1384677718893075},{\"RMSE\":1.1342374069524337},{\"RMSE\":1.1302502865006814},{\"RMSE\":1.126185005599591},{\"RMSE\":1.1226622199913294},{\"RMSE\":1.119303786703851},{\"RMSE\":1.1158069369080248},{\"RMSE\":1.1125884576172502},{\"RMSE\":1.1097935494778377},{\"RMSE\":1.1069279528558031},{\"RMSE\":1.1041620295720997},{\"RMSE\":1.1014698476366682},{\"RMSE\":1.099097058651407},{\"RMSE\":1.0966576499016638},{\"RMSE\":1.0943535507839335},{\"RMSE\":1.0921996465732384},{\"RMSE\":1.0901926439879674},{\"RMSE\":1.0883347180866203},{\"RMSE\":1.0865027226622186},{\"RMSE\":1.0846446561498027},{\"RMSE\":1.0829891421865279},{\"RMSE\":1.081382204326164},{\"RMSE\":1.0798663326420088},{\"RMSE\":1.078391073941434},{\"RMSE\":1.076918943807307},{\"RMSE\":1.0756739905441166},{\"RMSE\":1.0743374723359058},{\"RMSE\":1.073027848701253},{\"RMSE\":1.0717413586927558},{\"RMSE\":1.0705953890403483},{\"RMSE\":1.0693169605334967},{\"RMSE\":1.06833265218665},{\"RMSE\":1.0672907222374284},{\"RMSE\":1.0663379623234062},{\"RMSE\":1.0653149063252723},{\"RMSE\":1.0642384043429547},{\"RMSE\":1.0634309418730228},{\"RMSE\":1.062658974403071},{\"RMSE\":1.061774400878667},{\"RMSE\":1.0608719378491553},{\"RMSE\":1.0599140906204925},{\"RMSE\":1.0592994853457556},{\"RMSE\":1.0586234521316817},{\"RMSE\":1.057810519065458},{\"RMSE\":1.0570670686260213},{\"RMSE\":1.0561867148843456},{\"RMSE\":1.0555132903077487},{\"RMSE\":1.0550593894126992},{\"RMSE\":1.054412524275269},{\"RMSE\":1.0538594465677709},{\"RMSE\":1.0533827726930525},{\"RMSE\":1.0528087163253352},{\"RMSE\":1.0522395273913283},{\"RMSE\":1.0517792531783918},{\"RMSE\":1.0513948189652034},{\"RMSE\":1.0509631654490914},{\"RMSE\":1.050604560690454},{\"RMSE\":1.0500594873945157},{\"RMSE\":1.049621733544991},{\"RMSE\":1.048912233256644},{\"RMSE\":1.0485631678493799},{\"RMSE\":1.048099986630045},{\"RMSE\":1.0475827461287532},{\"RMSE\":1.0470729737184714},{\"RMSE\":1.0464517568909153},{\"RMSE\":1.0458631058425576},{\"RMSE\":1.0454309237217678},{\"RMSE\":1.0450271316740474},{\"RMSE\":1.044589933683096},{\"RMSE\":1.0442483797979116},{\"RMSE\":1.0438788905576994},{\"RMSE\":1.0435196266230902},{\"RMSE\":1.042951043546257},{\"RMSE\":1.0425008532235263},{\"RMSE\":1.0421639243184493},{\"RMSE\":1.041694846667995},{\"RMSE\":1.0413207468937813},{\"RMSE\":1.041024614529396},{\"RMSE\":1.0404910563397132},{\"RMSE\":1.0401672637244057},{\"RMSE\":1.0399951182271965},{\"RMSE\":1.0397013575685314},{\"RMSE\":1.0392423418222068},{\"RMSE\":1.0390070280169807},{\"RMSE\":1.0386968714569542},{\"RMSE\":1.038350787341302},{\"RMSE\":1.037983581132384},{\"RMSE\":1.0376303298321183},{\"RMSE\":1.037201481844787},{\"RMSE\":1.036904128053186},{\"RMSE\":1.0365954192404834},{\"RMSE\":1.0363733902310692},{\"RMSE\":1.0361330102100372},{\"RMSE\":1.0358080361280517},{\"RMSE\":1.035525030016854},{\"RMSE\":1.0352969772728668},{\"RMSE\":1.035143372215494},{\"RMSE\":1.0347254524678722},{\"RMSE\":1.0344130039735904},{\"RMSE\":1.0341952783044088},{\"RMSE\":1.0339205217550989},{\"RMSE\":1.0336197885810416},{\"RMSE\":1.0332715445955893},{\"RMSE\":1.0329870033516564},{\"RMSE\":1.032777310748526},{\"RMSE\":1.032426762467917},{\"RMSE\":1.0322653650483322},{\"RMSE\":1.0319412006416149},{\"RMSE\":1.0316595439046008},{\"RMSE\":1.0314852167301665},{\"RMSE\":1.0312737443788007},{\"RMSE\":1.0308775805241093},{\"RMSE\":1.0305837486030867},{\"RMSE\":1.0303253464623447},{\"RMSE\":1.0301544023461342},{\"RMSE\":1.029948896336352},{\"RMSE\":1.0296514416805327},{\"RMSE\":1.0293195539167734},{\"RMSE\":1.0291122641986903},{\"RMSE\":1.02888502835041},{\"RMSE\":1.028510456264383},{\"RMSE\":1.0281450390520113},{\"RMSE\":1.0279157500770415},{\"RMSE\":1.0276531882870956},{\"RMSE\":1.0271684407062516},{\"RMSE\":1.026865867737734},{\"RMSE\":1.0266668233051217},{\"RMSE\":1.02649327826145},{\"RMSE\":1.026186375695411},{\"RMSE\":1.0260215445275762},{\"RMSE\":1.0257750258290077},{\"RMSE\":1.0256168197601319},{\"RMSE\":1.0254888086332632},{\"RMSE\":1.025309963232444},{\"RMSE\":1.0250275238902538},{\"RMSE\":1.02468852019546},{\"RMSE\":1.0244435506566913},{\"RMSE\":1.024213407621062},{\"RMSE\":1.0237535255947385},{\"RMSE\":1.0234273350027392},{\"RMSE\":1.023151823072101},{\"RMSE\":1.0227859189483757},{\"RMSE\":1.0225854171110087},{\"RMSE\":1.0223804505300185},{\"RMSE\":1.0219441479407603},{\"RMSE\":1.0216482745042923},{\"RMSE\":1.0213274844656233},{\"RMSE\":1.0210903105696914},{\"RMSE\":1.0208648705876542},{\"RMSE\":1.0205478316521932},{\"RMSE\":1.0203263925144241},{\"RMSE\":1.0200760481609545},{\"RMSE\":1.019664594542446},{\"RMSE\":1.0194920318132852},{\"RMSE\":1.019176340645836},{\"RMSE\":1.0190270145708822},{\"RMSE\":1.0186433051413704},{\"RMSE\":1.0183971062156059},{\"RMSE\":1.0180953716114232},{\"RMSE\":1.0179148532206026},{\"RMSE\":1.0175995912288605},{\"RMSE\":1.0172291868808223},{\"RMSE\":1.0170935591967738},{\"RMSE\":1.0167433472960672},{\"RMSE\":1.0165115359639039},{\"RMSE\":1.0161165655789832},{\"RMSE\":1.0158338673070058},{\"RMSE\":1.015648477218094},{\"RMSE\":1.0154912365945574},{\"RMSE\":1.0153564009262497},{\"RMSE\":1.0152337862039653},{\"RMSE\":1.0148398609894305},{\"RMSE\":1.0145984663727716},{\"RMSE\":1.0144066679175376},{\"RMSE\":1.0141655025744787},{\"RMSE\":1.0139916394615893},{\"RMSE\":1.0138447060254967},{\"RMSE\":1.013668225814588},{\"RMSE\":1.0135785755952162},{\"RMSE\":1.0134374511915252},{\"RMSE\":1.0132430753857462},{\"RMSE\":1.0129356228571698},{\"RMSE\":1.0127234029439804},{\"RMSE\":1.0125781337515687},{\"RMSE\":1.0123040094599167},{\"RMSE\":1.0120460626252847},{\"RMSE\":1.0119014910286324},{\"RMSE\":1.0116259044134956},{\"RMSE\":1.0114214896610663},{\"RMSE\":1.011159527900065},{\"RMSE\":1.010951469048557},{\"RMSE\":1.0106681547323055},{\"RMSE\":1.0103706179222112},{\"RMSE\":1.0101977344006714},{\"RMSE\":1.0098850797286691},{\"RMSE\":1.009608649314822},{\"RMSE\":1.0092786102521867},{\"RMSE\":1.0090506340555478},{\"RMSE\":1.0088063909845626},{\"RMSE\":1.0086333500510978},{\"RMSE\":1.008434460783821},{\"RMSE\":1.0079433199110266},{\"RMSE\":1.0076685916692085},{\"RMSE\":1.0074125572378656},{\"RMSE\":1.0073130767798095},{\"RMSE\":1.0070306493366172},{\"RMSE\":1.0068813759591435},{\"RMSE\":1.0065015091166714},{\"RMSE\":1.0061232058664322},{\"RMSE\":1.005919746201338},{\"RMSE\":1.0055382215395605},{\"RMSE\":1.0053498695246337},{\"RMSE\":1.0049489070239046},{\"RMSE\":1.0047545864911867},{\"RMSE\":1.0044250002853916},{\"RMSE\":1.0041969541983098},{\"RMSE\":1.0040428416951193},{\"RMSE\":1.0038403450923572},{\"RMSE\":1.003592455442271},{\"RMSE\":1.0032399368262497},{\"RMSE\":1.0030737106883951},{\"RMSE\":1.0028006078921932},{\"RMSE\":1.002430866484106},{\"RMSE\":1.0022057266000728},{\"RMSE\":1.001997119583488},{\"RMSE\":1.0016174384073293},{\"RMSE\":1.0013735542301128},{\"RMSE\":1.0013246796172774},{\"RMSE\":1.000900352384475},{\"RMSE\":1.000481348907024},{\"RMSE\":1.0002956093081379},{\"RMSE\":1.0000899746841727},{\"RMSE\":0.99961777550532},{\"RMSE\":0.9993852834600321},{\"RMSE\":0.9990996248060955},{\"RMSE\":0.9989263255999442},{\"RMSE\":0.9986257502933336},{\"RMSE\":0.9983112153595317},{\"RMSE\":0.9980871494493349},{\"RMSE\":0.9978630321262159},{\"RMSE\":0.9977020136061794},{\"RMSE\":0.9974786806692846},{\"RMSE\":0.9972461749635244},{\"RMSE\":0.9970459144723093},{\"RMSE\":0.9966429970293272},{\"RMSE\":0.996416014951033},{\"RMSE\":0.9959854513615164},{\"RMSE\":0.9957122806224864},{\"RMSE\":0.9954109762176131},{\"RMSE\":0.9951748333162986},{\"RMSE\":0.994930679225752},{\"RMSE\":0.9947480837685658},{\"RMSE\":0.99444505465943},{\"RMSE\":0.9941934843952603},{\"RMSE\":0.993984558097927},{\"RMSE\":0.9936856305961811},{\"RMSE\":0.9934558271670411},{\"RMSE\":0.9931181615027088},{\"RMSE\":0.9929783906927577},{\"RMSE\":0.9925939771822775},{\"RMSE\":0.992392104998829},{\"RMSE\":0.9922062284953598},{\"RMSE\":0.9919037139353919},{\"RMSE\":0.9916556024910055},{\"RMSE\":0.9913608714985944},{\"RMSE\":0.9909667340823163},{\"RMSE\":0.9906869040287969},{\"RMSE\":0.9903315293976391},{\"RMSE\":0.9899018710759548},{\"RMSE\":0.9897046220100535},{\"RMSE\":0.9894682205054033},{\"RMSE\":0.9892051792323276},{\"RMSE\":0.9890204413620127},{\"RMSE\":0.9888840436858175},{\"RMSE\":0.9885831473527875},{\"RMSE\":0.9882548333675085},{\"RMSE\":0.9879627801101669},{\"RMSE\":0.9876469502763758},{\"RMSE\":0.9872105802726013},{\"RMSE\":0.986835738810144},{\"RMSE\":0.9865891694620557},{\"RMSE\":0.9863341588042126},{\"RMSE\":0.9860943604836787},{\"RMSE\":0.9858201788701517},{\"RMSE\":0.9855517741440256},{\"RMSE\":0.9853662039525435},{\"RMSE\":0.9851666232438276},{\"RMSE\":0.9847044700010499},{\"RMSE\":0.9843901927571986},{\"RMSE\":0.9841284118498802},{\"RMSE\":0.9839385731674356},{\"RMSE\":0.9836555602130034},{\"RMSE\":0.9834309659717889},{\"RMSE\":0.983005882049971},{\"RMSE\":0.9826282811747544},{\"RMSE\":0.9824236458151255},{\"RMSE\":0.9822580084728507},{\"RMSE\":0.981823034752382},{\"RMSE\":0.9815622927947553},{\"RMSE\":0.9813904848217136},{\"RMSE\":0.9808928336725303},{\"RMSE\":0.9805339639798585},{\"RMSE\":0.9801864917787393},{\"RMSE\":0.9800683448137127},{\"RMSE\":0.9797778069352133},{\"RMSE\":0.9796505664243189},{\"RMSE\":0.9792710151792365},{\"RMSE\":0.9788788602855585},{\"RMSE\":0.9785412666593427},{\"RMSE\":0.9782505717422966},{\"RMSE\":0.9779075553769225},{\"RMSE\":0.97761725650637},{\"RMSE\":0.9773056793886631},{\"RMSE\":0.9771477386369175},{\"RMSE\":0.9768198031056228},{\"RMSE\":0.9764198539198856},{\"RMSE\":0.9762758730130917},{\"RMSE\":0.9761251772416298},{\"RMSE\":0.9759329841602268},{\"RMSE\":0.975607399526781},{\"RMSE\":0.9753305615317385},{\"RMSE\":0.9750586796167322},{\"RMSE\":0.9747525570651521},{\"RMSE\":0.9742682671067104},{\"RMSE\":0.9738815189565025},{\"RMSE\":0.9735523962383992},{\"RMSE\":0.9732193167858041},{\"RMSE\":0.9730199465805169},{\"RMSE\":0.972661606388385},{\"RMSE\":0.9725559035947633},{\"RMSE\":0.972287584079635},{\"RMSE\":0.9720553147852857},{\"RMSE\":0.9717557316975644},{\"RMSE\":0.9715057695652711},{\"RMSE\":0.9712065752285577},{\"RMSE\":0.9708273026307382},{\"RMSE\":0.9703960327943049},{\"RMSE\":0.9701338776703234},{\"RMSE\":0.9698997218106472},{\"RMSE\":0.969649126355708},{\"RMSE\":0.9693471012911641},{\"RMSE\":0.9690305919468957},{\"RMSE\":0.9688047332024545},{\"RMSE\":0.9684811367455438},{\"RMSE\":0.9682048010197393},{\"RMSE\":0.9679837322210374},{\"RMSE\":0.9677575369352519},{\"RMSE\":0.9674570106110832},{\"RMSE\":0.9671628766864986},{\"RMSE\":0.9668432897934081},{\"RMSE\":0.9664779395679128},{\"RMSE\":0.9661643755398324},{\"RMSE\":0.9658318800225989},{\"RMSE\":0.9656196130258811},{\"RMSE\":0.965261062011347},{\"RMSE\":0.9650249694686418},{\"RMSE\":0.9647916644120272},{\"RMSE\":0.9645027926853175},{\"RMSE\":0.964156741401255},{\"RMSE\":0.9639999452853081},{\"RMSE\":0.9636861684435402},{\"RMSE\":0.9633858714220641},{\"RMSE\":0.963113898996454},{\"RMSE\":0.9629384589793104},{\"RMSE\":0.9626150588928728},{\"RMSE\":0.9623734005916665},{\"RMSE\":0.9619254004291679},{\"RMSE\":0.9617941935129549},{\"RMSE\":0.96149628711325},{\"RMSE\":0.9612198786231727},{\"RMSE\":0.9609573331630022},{\"RMSE\":0.9605663950983209},{\"RMSE\":0.9601601099071289},{\"RMSE\":0.9596559016747964},{\"RMSE\":0.959392230215051},{\"RMSE\":0.9590848258157322},{\"RMSE\":0.9587490373777744},{\"RMSE\":0.9584279977004625},{\"RMSE\":0.9583169270038752},{\"RMSE\":0.9580665449476193},{\"RMSE\":0.9578736785953256},{\"RMSE\":0.9574465987262114},{\"RMSE\":0.9571606344449768},{\"RMSE\":0.9567673954281777},{\"RMSE\":0.9565679356332798},{\"RMSE\":0.9561789138570896},{\"RMSE\":0.9558265963628682},{\"RMSE\":0.9555083462197681},{\"RMSE\":0.9552793233497404},{\"RMSE\":0.9549902461537925},{\"RMSE\":0.9547471549879594},{\"RMSE\":0.9542776961401086},{\"RMSE\":0.9540592880792775},{\"RMSE\":0.9538160375874902},{\"RMSE\":0.9535191690412266},{\"RMSE\":0.9533286598766298},{\"RMSE\":0.953088859804355},{\"RMSE\":0.9529286330837425},{\"RMSE\":0.9527012377649524},{\"RMSE\":0.9523777354314186},{\"RMSE\":0.9521030191367793},{\"RMSE\":0.9517406564613822},{\"RMSE\":0.9512252176293247},{\"RMSE\":0.9509578023752004},{\"RMSE\":0.9505531139921077},{\"RMSE\":0.9502368772337706},{\"RMSE\":0.9499229765266495},{\"RMSE\":0.949571495229589},{\"RMSE\":0.9491379498707347},{\"RMSE\":0.9486742645854078},{\"RMSE\":0.9483567891191498},{\"RMSE\":0.9482399970781793},{\"RMSE\":0.9479652556452768},{\"RMSE\":0.9475150255011553},{\"RMSE\":0.9471293842906396},{\"RMSE\":0.9468674339136582},{\"RMSE\":0.9465140911523854},{\"RMSE\":0.9462971744517974},{\"RMSE\":0.9459012532806012},{\"RMSE\":0.9455995881216711},{\"RMSE\":0.9451869065273428},{\"RMSE\":0.945036904315054},{\"RMSE\":0.9448254205436635},{\"RMSE\":0.9445714052542018},{\"RMSE\":0.9442972887424086},{\"RMSE\":0.9441032665991301},{\"RMSE\":0.9438753266851765},{\"RMSE\":0.9436933855296662},{\"RMSE\":0.9433753022350228},{\"RMSE\":0.9430626774222294},{\"RMSE\":0.942710883825609},{\"RMSE\":0.9424988495672552},{\"RMSE\":0.9420767789517785},{\"RMSE\":0.9417160463670311},{\"RMSE\":0.9415828782354368},{\"RMSE\":0.9414185466397763},{\"RMSE\":0.941078487116067},{\"RMSE\":0.9410287447439348},{\"RMSE\":0.9408176425081357},{\"RMSE\":0.9405665847117368},{\"RMSE\":0.9404308483381033},{\"RMSE\":0.940186999835781},{\"RMSE\":0.9400111319071581},{\"RMSE\":0.939716492533432},{\"RMSE\":0.9395166361637297},{\"RMSE\":0.9391182612969308},{\"RMSE\":0.9388353374718701},{\"RMSE\":0.9385407770487072},{\"RMSE\":0.9381253944805285},{\"RMSE\":0.9378197134998311},{\"RMSE\":0.9375405769921579},{\"RMSE\":0.9372774840546877},{\"RMSE\":0.9369973951992646},{\"RMSE\":0.9366767347253105},{\"RMSE\":0.9364346798734763},{\"RMSE\":0.9360964279564161},{\"RMSE\":0.9357726066059454},{\"RMSE\":0.9354502848838272},{\"RMSE\":0.935110725454811},{\"RMSE\":0.9347514749689871},{\"RMSE\":0.9346484277551804},{\"RMSE\":0.9344737660696361},{\"RMSE\":0.9341815482013681},{\"RMSE\":0.9339255520644797},{\"RMSE\":0.9336375910623563},{\"RMSE\":0.9334051731387467},{\"RMSE\":0.9331089948954233},{\"RMSE\":0.9326117895907955},{\"RMSE\":0.9322508471026106},{\"RMSE\":0.9318140389357588},{\"RMSE\":0.9316321322688297},{\"RMSE\":0.9314539578860223},{\"RMSE\":0.9311326880232026},{\"RMSE\":0.9308463592966749},{\"RMSE\":0.9306828637966259},{\"RMSE\":0.9304318272858494},{\"RMSE\":0.9302099780655814},{\"RMSE\":0.9298995329739935},{\"RMSE\":0.9297314293750943},{\"RMSE\":0.9295462339966708},{\"RMSE\":0.929305814563987},{\"RMSE\":0.9291129053204576},{\"RMSE\":0.9287751779230278},{\"RMSE\":0.9284417473247608},{\"RMSE\":0.9281091153922922},{\"RMSE\":0.9278725192388735},{\"RMSE\":0.9273647480045738},{\"RMSE\":0.9271477990551338},{\"RMSE\":0.9268927640181344},{\"RMSE\":0.9266015970031589},{\"RMSE\":0.9262739240430521},{\"RMSE\":0.9260797453267898},{\"RMSE\":0.9258796278836235},{\"RMSE\":0.9256091331669756},{\"RMSE\":0.9251332807704276},{\"RMSE\":0.9250063060937102},{\"RMSE\":0.9248313229875714},{\"RMSE\":0.924735348577798},{\"RMSE\":0.9245896034223196},{\"RMSE\":0.9242582836910668},{\"RMSE\":0.9240371165447407},{\"RMSE\":0.9236964398185012},{\"RMSE\":0.9234399850127876},{\"RMSE\":0.923259020972179},{\"RMSE\":0.9229129696146517},{\"RMSE\":0.922541732830378},{\"RMSE\":0.9224504099624178},{\"RMSE\":0.9222180419627635},{\"RMSE\":0.9220555272031451},{\"RMSE\":0.921771118705144},{\"RMSE\":0.9214821170068084},{\"RMSE\":0.9211523395232613},{\"RMSE\":0.9209966648950024},{\"RMSE\":0.9207694895497999},{\"RMSE\":0.9204742256093624},{\"RMSE\":0.9201840762271506},{\"RMSE\":0.9198107301136111},{\"RMSE\":0.9194769340937368},{\"RMSE\":0.9191479757961168},{\"RMSE\":0.9189231960139062},{\"RMSE\":0.9188057315797665},{\"RMSE\":0.91846050087719},{\"RMSE\":0.9180440330983382},{\"RMSE\":0.9179731215416306},{\"RMSE\":0.9177427479887423},{\"RMSE\":0.9175833128551475},{\"RMSE\":0.9173874408522269},{\"RMSE\":0.9171876680481774},{\"RMSE\":0.9169455662284929},{\"RMSE\":0.9166832859941038},{\"RMSE\":0.9162448230976759},{\"RMSE\":0.915926390461777},{\"RMSE\":0.9157691116217008},{\"RMSE\":0.9155118560496056},{\"RMSE\":0.9153329406582287},{\"RMSE\":0.915006501030834},{\"RMSE\":0.9147955628810904},{\"RMSE\":0.9143997836384357},{\"RMSE\":0.9141346655212073},{\"RMSE\":0.9139037484837607},{\"RMSE\":0.913537515030638},{\"RMSE\":0.9131840408311159},{\"RMSE\":0.91272620590458},{\"RMSE\":0.9125937917163367},{\"RMSE\":0.9124346976368763},{\"RMSE\":0.9121613956843219},{\"RMSE\":0.9117614020360041},{\"RMSE\":0.9113233499790541},{\"RMSE\":0.9111181422699934},{\"RMSE\":0.9108940430704602},{\"RMSE\":0.910668869850005},{\"RMSE\":0.9103108235068033},{\"RMSE\":0.9099136276667993},{\"RMSE\":0.9097168098193881},{\"RMSE\":0.9095138630229443},{\"RMSE\":0.9091591455489574},{\"RMSE\":0.9087117212898412},{\"RMSE\":0.9083826516779503},{\"RMSE\":0.9081276814230742},{\"RMSE\":0.9080518272949135},{\"RMSE\":0.9077268149632447},{\"RMSE\":0.9075352791491402},{\"RMSE\":0.907185156897364},{\"RMSE\":0.9069870585126897},{\"RMSE\":0.9068150216909001},{\"RMSE\":0.9067136056039108},{\"RMSE\":0.9065433796333673},{\"RMSE\":0.90626414926168},{\"RMSE\":0.9060578433031663},{\"RMSE\":0.9057848687047476},{\"RMSE\":0.9055106686334742},{\"RMSE\":0.9054300741725843},{\"RMSE\":0.9051557415181467},{\"RMSE\":0.9048030427728403},{\"RMSE\":0.9043583729365505},{\"RMSE\":0.9041741894465497},{\"RMSE\":0.9039257309328215},{\"RMSE\":0.9036210587451216},{\"RMSE\":0.9032755440360567},{\"RMSE\":0.9030689975972694},{\"RMSE\":0.9027468585283793},{\"RMSE\":0.902333277292238},{\"RMSE\":0.9021222635530761},{\"RMSE\":0.9019539888077951},{\"RMSE\":0.901635570700625},{\"RMSE\":0.9013028944574627},{\"RMSE\":0.9010522840007738},{\"RMSE\":0.9007514350444232},{\"RMSE\":0.9004928053153218},{\"RMSE\":0.9002167104972658},{\"RMSE\":0.8999677025106236},{\"RMSE\":0.8996278222247284},{\"RMSE\":0.899453115430889},{\"RMSE\":0.8992091574429756},{\"RMSE\":0.8989348328048561},{\"RMSE\":0.8986307114989602},{\"RMSE\":0.898337162368951},{\"RMSE\":0.8981841448731129},{\"RMSE\":0.8978966700807927},{\"RMSE\":0.8976618983951018},{\"RMSE\":0.8974059265097714},{\"RMSE\":0.8972275161768789},{\"RMSE\":0.8969826605102091},{\"RMSE\":0.8967191511734419},{\"RMSE\":0.8964264575135386},{\"RMSE\":0.8960769153229546},{\"RMSE\":0.8957356125593054},{\"RMSE\":0.8953986621004395},{\"RMSE\":0.895181994659531},{\"RMSE\":0.8949723576186964},{\"RMSE\":0.8948195741361491},{\"RMSE\":0.8944702778266028},{\"RMSE\":0.8941879227816227},{\"RMSE\":0.8939869444636898},{\"RMSE\":0.8937620564842984},{\"RMSE\":0.8933636403439708},{\"RMSE\":0.8930585788217565},{\"RMSE\":0.8928844696138633},{\"RMSE\":0.8926208795871191},{\"RMSE\":0.8924606335047539},{\"RMSE\":0.8921199802018001},{\"RMSE\":0.891952946256646},{\"RMSE\":0.8918428261289296},{\"RMSE\":0.891606623234405},{\"RMSE\":0.8913542906559},{\"RMSE\":0.8911725462428248},{\"RMSE\":0.8908026776268702},{\"RMSE\":0.8906297458042728},{\"RMSE\":0.8903033412887139},{\"RMSE\":0.8899578426722661},{\"RMSE\":0.8897315323593223},{\"RMSE\":0.8896242268147392},{\"RMSE\":0.8893414448669974},{\"RMSE\":0.8891956616873785},{\"RMSE\":0.8889247479518928},{\"RMSE\":0.8886623456338459},{\"RMSE\":0.8884246022401938},{\"RMSE\":0.8882825937206218},{\"RMSE\":0.8881577136786337},{\"RMSE\":0.8879279680734091},{\"RMSE\":0.8877543525482876},{\"RMSE\":0.887648925030402},{\"RMSE\":0.8872464622664185},{\"RMSE\":0.8869870890812559},{\"RMSE\":0.8867042617302334},{\"RMSE\":0.8864315791412306},{\"RMSE\":0.88613528960679},{\"RMSE\":0.88597238940367},{\"RMSE\":0.885661336743392},{\"RMSE\":0.8855164276208844},{\"RMSE\":0.8851382459558359},{\"RMSE\":0.8849283501885851},{\"RMSE\":0.8848125307847916},{\"RMSE\":0.8845955696520152},{\"RMSE\":0.8843921566090764},{\"RMSE\":0.8841941664508834},{\"RMSE\":0.883838064787028},{\"RMSE\":0.8836361913228628},{\"RMSE\":0.8834191787373612},{\"RMSE\":0.8831889181622614},{\"RMSE\":0.8829822873432505},{\"RMSE\":0.8828123495049238},{\"RMSE\":0.8825599239309881},{\"RMSE\":0.8822440001686959},{\"RMSE\":0.8820681035447024},{\"RMSE\":0.8818532523184607},{\"RMSE\":0.8815426188845},{\"RMSE\":0.8813327691149754},{\"RMSE\":0.8809513666128461},{\"RMSE\":0.8807086698490454},{\"RMSE\":0.8804536264839156},{\"RMSE\":0.880192611877931},{\"RMSE\":0.8799411194188574},{\"RMSE\":0.8796734116836068},{\"RMSE\":0.879313960806382},{\"RMSE\":0.8791032432809737},{\"RMSE\":0.8788247252486889},{\"RMSE\":0.8786911030803242},{\"RMSE\":0.8784602512676021},{\"RMSE\":0.8783370703405883},{\"RMSE\":0.8781796951042765},{\"RMSE\":0.8777966310862952},{\"RMSE\":0.8774630291711669},{\"RMSE\":0.8771696900119107},{\"RMSE\":0.8769615175634531},{\"RMSE\":0.8767280317235667},{\"RMSE\":0.8765684084133065},{\"RMSE\":0.8762651337291035},{\"RMSE\":0.8760674127743441},{\"RMSE\":0.8759132368639148},{\"RMSE\":0.875513845962562},{\"RMSE\":0.8753359082929922},{\"RMSE\":0.8751769241956422},{\"RMSE\":0.8749675230592788},{\"RMSE\":0.8746796124650404},{\"RMSE\":0.8743250458619313},{\"RMSE\":0.8740245517687232},{\"RMSE\":0.8738913201022085},{\"RMSE\":0.8737587758321579},{\"RMSE\":0.8734365236451813},{\"RMSE\":0.8732997106543449},{\"RMSE\":0.8730981872604519},{\"RMSE\":0.8727289833007414},{\"RMSE\":0.8725387568351967},{\"RMSE\":0.8722361211823364},{\"RMSE\":0.8720744639501342},{\"RMSE\":0.87174275714237},{\"RMSE\":0.8715615574261751},{\"RMSE\":0.8714129619758679},{\"RMSE\":0.8710774904878159},{\"RMSE\":0.8707365043962247},{\"RMSE\":0.870566720856562},{\"RMSE\":0.8702991513405856},{\"RMSE\":0.8701050424344968},{\"RMSE\":0.8698385735436386},{\"RMSE\":0.8696893807907714},{\"RMSE\":0.8693672319080734},{\"RMSE\":0.8691753059227176},{\"RMSE\":0.8689406906417657},{\"RMSE\":0.8687881598042999},{\"RMSE\":0.8686984489750982},{\"RMSE\":0.8685134413415155},{\"RMSE\":0.8682764196834369},{\"RMSE\":0.8680724585030037},{\"RMSE\":0.8678209266296811},{\"RMSE\":0.8675399717305015},{\"RMSE\":0.8672413870940562},{\"RMSE\":0.8670359190707436},{\"RMSE\":0.8668379099759966},{\"RMSE\":0.8667489886651859},{\"RMSE\":0.8665419317602484},{\"RMSE\":0.8663855214179802},{\"RMSE\":0.8660972598532413},{\"RMSE\":0.865796716274623},{\"RMSE\":0.8655330037268933},{\"RMSE\":0.8651348180616241},{\"RMSE\":0.8648237663209976},{\"RMSE\":0.8647009174993766},{\"RMSE\":0.8644535810036896},{\"RMSE\":0.8641116349865414},{\"RMSE\":0.8639332554166921},{\"RMSE\":0.8636708158391038},{\"RMSE\":0.8635773665177047},{\"RMSE\":0.8632942085780786},{\"RMSE\":0.8631367275774402},{\"RMSE\":0.8629187473632134},{\"RMSE\":0.8627304779827188},{\"RMSE\":0.8624091206068446},{\"RMSE\":0.8621254653212144},{\"RMSE\":0.8618597364967043},{\"RMSE\":0.8616496225906767},{\"RMSE\":0.861564163387256},{\"RMSE\":0.8614622082874703},{\"RMSE\":0.8611214017801017},{\"RMSE\":0.8608485363542312},{\"RMSE\":0.8606395477942256},{\"RMSE\":0.8603504626034278},{\"RMSE\":0.8600643850860717},{\"RMSE\":0.859746749379506},{\"RMSE\":0.8595157914642564},{\"RMSE\":0.8592170042017274},{\"RMSE\":0.8589773763561968},{\"RMSE\":0.8587720142869157},{\"RMSE\":0.8584830082945047},{\"RMSE\":0.8582232697119142},{\"RMSE\":0.8579365661201777},{\"RMSE\":0.8575715042548834},{\"RMSE\":0.8571406974225035},{\"RMSE\":0.8568445800650331},{\"RMSE\":0.8566347371540854},{\"RMSE\":0.8563990489267369},{\"RMSE\":0.8562144006166624},{\"RMSE\":0.8561280750136554},{\"RMSE\":0.8558722113924543},{\"RMSE\":0.8556025947375381},{\"RMSE\":0.8552931815727453},{\"RMSE\":0.8552098254036191},{\"RMSE\":0.8549495255228676},{\"RMSE\":0.8547413650805371},{\"RMSE\":0.8544536863143111},{\"RMSE\":0.8542169896205956},{\"RMSE\":0.8540385399697705},{\"RMSE\":0.8537922074269465},{\"RMSE\":0.8536345428120139},{\"RMSE\":0.853373510656001},{\"RMSE\":0.8531051542078789},{\"RMSE\":0.852816252725059},{\"RMSE\":0.8525634261328265},{\"RMSE\":0.8524194533893075},{\"RMSE\":0.8522635756618924},{\"RMSE\":0.8520858007829746},{\"RMSE\":0.851800358899538},{\"RMSE\":0.851710646587572},{\"RMSE\":0.8513027669088266},{\"RMSE\":0.8511596206930055},{\"RMSE\":0.8508146460837483},{\"RMSE\":0.8505578208530049},{\"RMSE\":0.8503667167721175},{\"RMSE\":0.8500678968333029},{\"RMSE\":0.8497699454701696},{\"RMSE\":0.8495603068198795},{\"RMSE\":0.8493473050262418},{\"RMSE\":0.8491762131453277},{\"RMSE\":0.8489881689643434},{\"RMSE\":0.8488113744801743},{\"RMSE\":0.8485553870909621},{\"RMSE\":0.848281279842015},{\"RMSE\":0.8480185216992431},{\"RMSE\":0.8478584353147015},{\"RMSE\":0.8476653600500343},{\"RMSE\":0.8474433032718265},{\"RMSE\":0.8473212557568431},